{"type":"LSTM","options":{"inputSize":20,"inputRange":20,"hiddenLayers":[20,20],"outputSize":20,"decayRate":0.999,"smoothEps":1e-8,"regc":0.000001,"clipval":5,"maxPredictionLength":100,"dataFormatter":{"indexTable":{},"characterTable":{},"characters":[],"specialIndexes":[]}},"trainOpts":{"iterations":20000,"errorThresh":0.005,"log":false,"logPeriod":10,"learningRate":0.01,"callbackPeriod":10,"timeout":"Infinity"},"input":{"rows":21,"columns":20,"weights":[-0.07653044909238815,-0.00569161307066679,-0.02314874343574047,-0.038427744060754776,-0.07187727093696594,-0.042763929814100266,-0.024863826110959053,0.015213202685117722,-0.02609318494796753,-0.05816597118973732,-0.0738835409283638,0.05283487215638161,-0.06817024946212769,-0.019010035321116447,0.008832988329231739,-0.034033000469207764,-0.05900762602686882,-0.03943994268774986,-0.05014340952038765,0.03934934362769127,-0.07407049834728241,-0.062095362693071365,-0.005692836828529835,0.05780953913927078,0.015403522178530693,0.024292143061757088,-0.07248662412166595,0.008016836829483509,0.02913290448486805,-0.07628566771745682,-0.07578691840171814,-0.04274342954158783,0.05860677361488342,0.04112062603235245,0.016861772164702415,0.04500844329595566,0.025269145146012306,0.00014884713164065033,-0.0648810938000679,0.026259349659085274,-0.02289734035730362,0.07048807293176651,0.07796580344438553,0.06527992337942123,-0.030385220423340797,-0.02646196447312832,0.046506401151418686,0.017696820199489594,-0.037064988166093826,0.04095136746764183,0.054395642131567,-0.05428372696042061,-0.07925306260585785,-0.03052382729947567,-0.06993365287780762,-0.01981612667441368,0.05458247661590576,-0.07319685816764832,-0.06753674149513245,-0.07815372198820114,0.062245938926935196,0.0012071491219103336,0.06691426038742065,0.06762051582336426,0.04411931335926056,-0.03194914385676384,0.0021472175139933825,-0.07933197170495987,-0.06883429735898972,0.027993254363536835,0.03188735991716385,-0.07744256407022476,-0.03573429211974144,-0.04359080269932747,-0.04854831099510193,-0.07805205881595612,-0.0194386038929224,0.03337176889181137,-0.0341242291033268,-0.04557890444993973,-0.03173442557454109,0.0768255740404129,0.06990767270326614,0.058990608900785446,0.06145463511347771,-0.009309705346822739,0.061263494193553925,0.011419505812227726,0.028623616322875023,-0.054228704422712326,0.05540615692734718,-0.040079426020383835,-0.011380871757864952,0.07438921928405762,-0.05273295193910599,0.07527191191911697,0.05171304568648338,0.03191666677594185,0.0009616446332074702,-0.051636140793561935,0.040381286293268204,-0.005016620736569166,0.050349146127700806,0.060547832399606705,0.006915602367371321,0.06119193136692047,-0.028076892718672752,-0.0635199025273323,-0.05759343132376671,0.057745493948459625,-0.02283533848822117,-0.005467511247843504,-0.042962510138750076,-0.039252642542123795,-0.053433507680892944,0.056424859911203384,0.060762424021959305,0.05184243991971016,0.0468476302921772,0.07069186866283417,0.00034512963611632586,0.05314051732420921,0.028211401775479317,-0.051903434097766876,-0.008621693588793278,0.07042311877012253,-0.007137184962630272,0.0620947927236557,-0.046022526919841766,-0.0538463369011879,0.025562528520822525,-0.07865817099809647,0.04457014799118042,-0.058697398751974106,-0.05094147101044655,-0.035716984421014786,0.01704997941851616,0.051906339824199677,-0.04156819358468056,0.07069698721170425,-0.07419390231370926,-0.06922449171543121,-0.06389713287353516,-0.06922195106744766,0.013172848150134087,0.006700841244310141,0.043735481798648834,0.019877925515174866,-0.0011758013861253858,0.030995221808552742,-0.015532461926341057,-0.051386795938014984,0.06690646708011627,0.02186425030231476,0.021615026518702507,-0.033615488559007645,-0.02157452143728733,-0.04813646152615547,-0.0398387685418129,-0.05461787432432175,-0.06155074015259743,-0.05857495963573456,-0.01956094056367874,-0.05107524245977402,-0.06954428553581238,0.01184186339378357,-0.022041743621230125,-0.029580047354102135,-0.02835421822965145,0.0025718025863170624,-0.07506624609231949,0.07714003324508667,0.046755507588386536,-0.039462290704250336,0.03790605813264847,0.010986927896738052,-0.01576976291835308,0.011811473406851292,0.02817646600306034,-0.06992658227682114,0.03666078671813011,-0.006306173745542765,0.07189734280109406,0.014689560979604721,0.07979224622249603,0.01749134063720703,-0.025784794241189957,-0.007785420399159193,-0.05485496297478676,0.051457490772008896,-0.013942306861281395,-0.044423915445804596,-0.022762460634112358,-0.0073609501123428345,-0.012833151035010815,0.02145824022591114,-0.01291516050696373,-0.04633262753486633,0.045864708721637726,0.050698112696409225,-0.00493621127679944,0.04053885117173195,-0.0368058979511261,-0.05822889879345894,-0.002410352462902665,0.06965035945177078,0.04842598736286163,-0.016055025160312653,-0.029670601710677147,-0.006257128436118364,0.051151521503925323,-0.07810617983341217,0.001692339195869863,0.038524728268384933,0.03902916982769966,0.0733318105340004,-0.062422994524240494,0.05468771606683731,-0.041071321815252304,0.02438717521727085,-0.0634928047657013,-0.03905046358704567,-0.044604312628507614,-0.038652453571558,0.01398530788719654,0.059562571346759796,0.03374940901994705,0.04454045742750168,0.05704654008150101,-0.0648142620921135,0.03450775891542435,-0.061673037707805634,-0.026304379105567932,-0.017607953399419785,0.0035775890573859215,0.07960716634988785,-0.05476950854063034,-0.046239014714956284,-0.07076829671859741,-0.0374881848692894,-0.028077084571123123,-0.016490526497364044,-0.020492946729063988,-0.0635833889245987,-0.05526521056890488,0.04299095273017883,-0.07133348286151886,0.0737321674823761,0.027269426733255386,0.03472982347011566,-0.0294173751026392,-0.0718063935637474,0.0021688055712729692,0.034089379012584686,-0.07560326904058456,-0.0796399712562561,-0.046511903405189514,-0.020795753225684166,-0.024190135300159454,-0.07273740321397781,0.004976231139153242,0.030798954889178276,-0.03358994424343109,-0.06788001954555511,-0.02717740833759308,-0.06756307184696198,-0.05266963317990303,-0.028246108442544937,0.0023327823728322983,0.026866693049669266,-0.06474193185567856,-0.00529089430347085,0.008700769394636154,-0.02209961600601673,0.0020561469718813896,-0.06227274239063263,0.07714392244815826,-0.0717870369553566,-0.012079799547791481,-0.010066164657473564,-0.011655799113214016,0.059337861835956573,0.023297006264328957,0.027297645807266235,-0.021520303562283516,-0.027426155284047127,0.07740616053342819,0.018320659175515175,0.07290675491094589,0.012976016849279404,-0.018020495772361755,-0.03640015050768852,0.0723395124077797,0.0018604890210554004,-0.0651015043258667,0.029772572219371796,0.0351451113820076,-0.03847411647439003,-0.05009474232792854,0.07779183238744736,0.005474345292896032,-0.07437287271022797,0.006487656384706497,0.020249255001544952,0.00791590940207243,-0.008444550447165966,-0.007717312779277563,0.01957007683813572,0.04722730815410614,0.050158433616161346,-0.003931648563593626,0.028020096942782402,-0.004112993832677603,-0.002205893164500594,-0.0031460286118090153,0.0279633067548275,0.00787972193211317,0.021776266396045685,-0.04200355336070061,-0.06432463228702545,0.07301031798124313,-0.026539599522948265,-0.0702739804983139,-0.06981522589921951,-0.06903857737779617,0.004084005951881409,0.07454279810190201,-0.018629759550094604,0.031174834817647934,0.025973748415708542,-0.01069991197437048,-0.05537817254662514,0.06398917734622955,-0.03959639370441437,-0.04639815166592598,0.055899783968925476,0.06088237836956978,-0.039243802428245544,-0.04049494490027428,-0.0606546513736248,0.007575486786663532,0.01772443950176239,-0.009380314499139786,-0.03892122954130173,-0.009611982852220535,0.0029932919424027205,-0.0031872643157839775,-0.06928377598524094,0.05812197923660278,0.06958677619695663,-0.06572128087282181,-0.015007312409579754,0.003792285220697522,0.029699407517910004,0.05854162201285362,0.06541989743709564,0.024662218987941742,-0.07536475360393524,0.007382357958704233,-0.02996090240776539,-0.0443706139922142,0.006788976490497589,0.05577927455306053,0.015481792390346527,0.04725928232073784,0.04422637075185776,0.057598453015089035,-0.04934674873948097,-0.056862473487854004,-0.01390034705400467,0.04834992438554764,-0.003828394692391157,-0.05353108048439026,-0.015096298418939114,0.0176304392516613,0.06665821373462677,-0.07319216430187225,-0.01881045289337635,-0.04081160947680473,-0.008716866374015808,-0.0454130657017231,-0.0768936276435852,-0.048339538276195526,0.04607362672686577,-0.017765400931239128,-0.015790948644280434,-0.060098301619291306,-0.06745366007089615,-0.06488388031721115,-0.07220634818077087,0.0022801130544394255,0.04113583266735077,-0.03514135256409645,-0.05990614742040634,0.0706738755106926,0.05029697343707085,0.0268574059009552,-0.04057351499795914,0.045783258974552155,0.002111043082550168,-0.0178070031106472,0.06351785361766815,-0.029577583074569702,0.05708741024136543,-0.07346352934837341,0.026559190824627876,-0.02072313241660595,-0.03610521927475929,-0.02083638682961464,0.024179263040423393,-0.04397621750831604,0.07132162898778915,-0.023187417536973953,0.0763484463095665,0.06482578814029694,-0.029937928542494774,-0.04472695291042328,0.037901703268289566,0.015333712100982666,0.037218619138002396]},"hiddenLayers":[{"inputMatrix":{"rows":20,"columns":20,"weights":[0.04813198000192642,-0.06992751359939575,-0.02002442255616188,-0.05000113695859909,-0.03505715727806091,-0.03784686699509621,0.07849796116352081,0.02892439067363739,0.07456185668706894,0.06254269927740097,-0.008992912247776985,-0.010170994326472282,0.03131093457341194,-0.022054051980376244,0.02456039935350418,-0.014467552304267883,-0.06717053055763245,-0.05500081181526184,0.02655177377164364,0.07108327001333237,0.052583400160074234,0.03742467239499092,0.05350072309374809,0.06971053034067154,0.01660199463367462,0.06597936153411865,-0.0060937306843698025,-0.0761151984333992,0.009183277375996113,-0.04244524985551834,0.05778561532497406,0.07831644266843796,0.017566237598657608,0.028003554791212082,0.05178045108914375,-0.07260912656784058,0.03936566039919853,0.04573828727006912,0.07768328487873077,0.025020554661750793,-0.011699367314577103,0.03100552409887314,0.06416328996419907,-0.05986092612147331,0.036178503185510635,0.013632317073643208,0.051009636372327805,-0.046272460371255875,0.036446329206228256,0.06913866847753525,-0.0271342471241951,0.023640139028429985,0.0669780746102333,-0.004556537605822086,0.07081581652164459,-0.06591780483722687,-0.030296217650175095,0.04335942491889,-0.03635723516345024,0.04529118165373802,0.055245138704776764,0.033670686185359955,0.04277091473340988,0.046895477920770645,0.06128040328621864,-0.03603941947221756,-0.00730343209579587,-0.07450694590806961,0.05195523798465729,-0.03802948817610741,-0.011108456179499626,0.011133894324302673,0.039704881608486176,-0.018815187737345695,0.00800846703350544,-0.010472765192389488,0.04888834431767464,0.054648883640766144,0.03323256969451904,-0.06107676401734352,-0.048683859407901764,-0.0739399716258049,0.050312917679548264,0.002300211926922202,-0.0009354748181067407,0.058912068605422974,0.016344361007213593,0.041747063398361206,-0.07452254742383957,0.029386069625616074,-0.03904520347714424,-0.00023339144536294043,-0.05414186790585518,0.06193634867668152,-0.041380614042282104,-0.05693618953227997,-0.02166144736111164,0.01433612685650587,0.019461600109934807,-0.02795317955315113,-0.06917047500610352,-0.016818158328533173,-0.06109776720404625,0.04356391355395317,0.07890894263982773,0.05775968357920647,0.07726932317018509,-0.040558815002441406,0.029925983399152756,-0.020608199760317802,0.04589210823178291,-0.046210773289203644,0.048348162323236465,0.04891594499349594,-0.0076951514929533005,0.009026664309203625,0.07944978773593903,-0.027772556990385056,-0.01441423874348402,-0.025165149942040443,0.05907878652215004,-0.04470282047986984,-0.005919979885220528,-0.0721951425075531,-0.04729855805635452,0.028428202494978905,0.04249456897377968,0.056710924953222275,-0.014505072496831417,-0.04503810033202171,-0.056999292224645615,0.032056666910648346,0.07312340289354324,-0.06714753806591034,-0.03305899351835251,0.0422091968357563,-0.03615032508969307,-0.02189735695719719,-0.06487886607646942,-0.02583223208785057,-0.0013062248472124338,0.030010921880602837,-0.048623353242874146,-0.07691565155982971,0.013017799705266953,0.07715252786874771,-0.00924493558704853,0.04285296052694321,-0.026689494028687477,-0.07245545089244843,0.03576371818780899,-0.07710058987140656,0.025922643020749092,0.04505900293588638,-0.013649005442857742,0.0534212589263916,0.00041159801185131073,-0.01784067042171955,-0.003687026910483837,0.03162194415926933,0.047506216913461685,0.0412655770778656,0.04864265024662018,-0.049979109317064285,0.013528164476156235,-0.0073731266893446445,0.06118757277727127,0.04595642909407616,-0.06501903384923935,-0.026351938024163246,0.05115323141217232,0.07947258651256561,-0.07967950403690338,-0.055491067469120026,-0.02285410836338997,0.04346911981701851,0.06296201050281525,0.03525549918413162,0.021423473954200745,-0.06818792223930359,-0.06644314527511597,-0.005667315796017647,0.0450923852622509,-0.027075806632637978,-0.02628578618168831,0.017205365002155304,-0.06606340408325195,-0.044602397829294205,0.03040282428264618,0.022824997082352638,0.005503532476723194,0.02039981074631214,0.050822142511606216,0.009573916904628277,0.05984778329730034,0.032317064702510834,0.04070739075541496,0.04964479058980942,0.026398442685604095,0.00846780650317669,0.04595644026994705,0.06358060240745544,-0.02061745710670948,0.0741986557841301,0.005935270804911852,-0.04542653635144234,-0.06532486528158188,0.04262290894985199,0.013944306410849094,0.0712864026427269,0.007940405048429966,0.052584052085876465,0.07395423203706741,0.06481370329856873,-0.012698355130851269,-0.011663801968097687,-0.04194596782326698,-0.04603797197341919,-0.042868342250585556,0.029525388032197952,0.022156694903969765,-0.07985983043909073,0.034421712160110474,-0.060850970447063446,0.023438969627022743,-0.008497566916048527,-0.01630386896431446,-0.02993134967982769,0.03350842371582985,-0.06893095374107361,0.01006372831761837,0.0659332349896431,0.040391210466623306,0.014160322956740856,0.0692344456911087,0.07872465997934341,-0.05864614248275757,0.02239661104977131,0.00019933712610509247,0.0759715810418129,-0.07750695198774338,-0.05413458123803139,-0.010841993615031242,0.009773116558790207,0.0636778473854065,-0.012961120344698429,0.0032119187526404858,0.021771302446722984,-0.040742985904216766,-0.03904033824801445,-0.05392218753695488,-0.04929444566369057,0.02437221072614193,-0.018532639369368553,-0.05686933919787407,-0.007153068669140339,0.04750975966453552,-0.05670410767197609,-0.04494999349117279,0.04706790670752525,-0.006265229545533657,-0.06794962286949158,-0.07426676899194717,0.05011369287967682,0.01734962873160839,0.03972348943352699,0.07568704336881638,-0.030621681362390518,-0.06532610952854156,-0.010309729725122452,0.06999627500772476,0.03016647696495056,-0.03149186819791794,0.07807357609272003,0.03468361124396324,-0.07329723238945007,0.045046549290418625,-0.01850159466266632,-0.03673210367560387,-0.0013288430636748672,-0.020957080647349358,-0.07021663337945938,0.06771957129240036,0.07627987116575241,0.036170970648527145,0.07999742776155472,0.011298825033009052,-0.02757270261645317,0.030608853325247765,0.015141134150326252,0.024816179648041725,0.05078762024641037,0.04236350581049919,-0.029078878462314606,0.011506577022373676,-0.0010593272745609283,-0.021964574232697487,0.009108709171414375,-0.033547256141901016,-0.04040700942277908,0.0004212943895254284,-0.027175256982445717,0.022355088964104652,0.02271847426891327,0.036659520119428635,-0.02046847715973854,-0.014928254298865795,0.012080395594239235,0.04174494370818138,0.06580708920955658,0.01376821007579565,-0.031024223193526268,-0.0446360819041729,-0.030452076345682144,-0.05084443464875221,0.0724257230758667,0.023661546409130096,-0.047074101865291595,-0.013696957379579544,0.04050727188587189,0.06872148811817169,-0.05605997145175934,0.03723851218819618,-0.07770266383886337,0.05380843207240105,0.024721497669816017,-0.04979478195309639,0.002305680885910988,-0.03849828988313675,-0.03641699627041817,0.05155482888221741,-0.03710663318634033,0.02942381426692009,-0.07158014178276062,0.0521867461502552,-0.07879728823900223,0.021698692813515663,0.03772823512554169,0.014088144525885582,-0.05942048877477646,0.050695616751909256,0.030363889411091805,-0.02547677606344223,0.06600635498762131,0.06892828643321991,-0.073842354118824,-0.04338615760207176,-0.006886419840157032,0.032250337302684784,-0.049167606979608536,-0.05515282228589058,-0.03367036208510399,0.06207505241036415,0.026419544592499733,-0.023159636184573174,-0.0468657910823822,-0.04464564472436905,-0.018810702487826347,-0.029728468507528305,-0.06307445466518402,-0.045501355081796646,0.07200384140014648,-0.07445545494556427,-0.027656428515911102,0.03668513894081116,-0.04881769418716431,-0.07323286682367325,-0.016558945178985596,-0.033664166927337646,-0.022298231720924377,-0.07474084943532944,0.05041338875889778,-0.005354753695428371,0.010540450923144817,-0.07422054558992386,-0.01588781364262104,-0.05438588559627533,0.019107604399323463,0.07106203585863113,0.07622843980789185,-0.05645101144909859,0.03621809929609299,-0.05421396717429161,-0.021914828568696976,-0.07239781320095062,-0.02146757021546364,0.02072456292808056,0.030827166512608528,-0.027596430853009224,0.01944008842110634,-0.05755794793367386,0.015464956872165203,0.013114456087350845,-0.030067306011915207,-0.0009667273261584342,0.04174478352069855,-0.03049217350780964,0.06760666519403458,-0.03195682540535927,0.028224602341651917]},"inputHidden":{"rows":20,"columns":20,"weights":[-0.04463209584355354,0.05899626389145851,0.061672382056713104,0.05222143232822418,-0.040308475494384766,-0.06508104503154755,0.027300938963890076,0.017373373731970787,-0.01531051006168127,0.05310175195336342,-0.07002003490924835,-0.0659954696893692,0.03667932003736496,-0.07943949103355408,0.021298887208104134,-0.0711648240685463,-0.057911939918994904,-0.00789563450962305,0.05260615423321724,-0.04413790628314018,-0.0324445404112339,0.04812091216444969,-0.014882585033774376,-0.03771038353443146,0.04143110290169716,-0.04585642367601395,0.034285303205251694,0.06369822472333908,-0.011521926149725914,-0.005496463738381863,0.05812404304742813,0.0401725098490715,0.07353038340806961,0.02471129596233368,-0.024413680657744408,0.059712450951337814,0.03860846161842346,0.018811702728271484,-0.026038313284516335,-0.06056724861264229,0.00859054084867239,0.02021036483347416,0.0344364270567894,-0.043324485421180725,0.05281611159443855,-0.07915092259645462,0.051019441336393356,-0.042185842990875244,0.00046959740575402975,-0.04754912108182907,0.077492855489254,-0.041686058044433594,-0.05447521433234215,0.030276311561465263,-0.07710117846727371,-0.03769836574792862,-0.0672488883137703,0.0015843359287828207,0.02738596498966217,-0.010548032820224762,-0.024631965905427933,-0.06868449598550797,0.07990172505378723,-0.03912334889173508,0.03229476884007454,-0.050575755536556244,-0.07682892680168152,0.07874850928783417,-0.0001884359517134726,0.02676662802696228,-0.030367782339453697,-0.013238152489066124,0.0003340081311762333,-0.044914841651916504,0.06107756495475769,0.05274612456560135,-0.005745625589042902,0.07794830203056335,-0.027614081278443336,0.05121216922998428,-0.009618416428565979,-0.04088131710886955,-0.07542376965284348,-0.006854337640106678,0.02234533056616783,0.05025072023272514,-0.05329369753599167,-0.0350518673658371,0.057253316044807434,0.03784468024969101,0.0713595524430275,0.03962203860282898,0.06561749428510666,0.019902663305401802,0.07379847764968872,0.07764041423797607,-0.033307984471321106,0.03237814083695412,-0.009459980763494968,0.060768645256757736,-0.03256876394152641,-0.07511439174413681,-0.032189883291721344,-0.0555679053068161,-0.05218306928873062,0.043322883546352386,-0.030944811180233955,0.018903028219938278,-0.06148798391222954,0.07138434052467346,0.06700651347637177,0.06589780747890472,0.0639292299747467,-0.028949005529284477,-0.010692732408642769,-0.03710656240582466,-0.07656677067279816,0.036959629505872726,0.056280717253685,0.01033620722591877,0.013706624507904053,-0.004061899613589048,0.017812222242355347,-0.028945298865437508,-0.0653243437409401,0.04361575096845627,-0.028298979625105858,0.06668455898761749,0.044267360121011734,-0.03735717013478279,0.0496334508061409,-0.06747768819332123,-0.019194360822439194,-0.03606397286057472,0.01937747374176979,-0.004487750586122274,-0.05409368872642517,-0.05710644647479057,-0.020849259570240974,-0.03437101095914841,-0.002663102699443698,-0.04182801768183708,0.030224207788705826,0.016873799264431,0.054341524839401245,0.07116875797510147,0.06831208616495132,0.0787334069609642,0.030574562028050423,0.051785364747047424,-0.06238871440291405,-0.0034128627739846706,-0.0051829325966537,-0.03304904326796532,-0.01354258880019188,-0.0011005139676854014,0.018860578536987305,0.025099530816078186,0.03169415518641472,0.006368666887283325,0.010837224312126637,0.06935890018939972,0.03897910565137863,0.06934533268213272,-0.051596421748399734,-0.023814551532268524,0.01836467534303665,0.05489572510123253,0.03278385102748871,-0.003291757544502616,0.05333496257662773,0.05085030570626259,-0.03055291622877121,0.07562689483165741,0.019504569470882416,0.07506686449050903,-0.07880353182554245,-0.040620483458042145,0.03268834203481674,0.07655209302902222,0.05651620030403137,0.029302474111318588,-0.033175062388181686,-0.044388145208358765,0.041467029601335526,0.05634477734565735,0.0030176087748259306,0.0073732915334403515,-0.002319804159924388,-0.023344675078988075,0.0210475642234087,-0.004535322077572346,0.016329236328601837,0.03506230190396309,0.07535184919834137,-0.0758494883775711,0.052781812846660614,0.07829149812459946,-0.01533236913383007,-0.048680368810892105,-0.02580799162387848,-0.07187493145465851,-0.032303713262081146,0.003968826029449701,0.05334962531924248,-0.02854207530617714,-0.07479415088891983,-0.07252448797225952,0.019607193768024445,-0.07056169956922531,-0.029465947300195694,0.042848505079746246,-0.034386083483695984,0.05221548676490784,-0.00007072652806527913,-0.006476100068539381,0.03590348735451698,0.010089175775647163,0.07493077963590622,-0.011939333751797676,0.013350583612918854,0.07960344105958939,-0.002426775172352791,0.007892800495028496,-0.06264011561870575,0.0018824019934982061,0.020201610401272774,-0.018376173451542854,-0.022931640967726707,0.07316848635673523,0.028391361236572266,0.05095938593149185,-0.025508668273687363,-0.01259492989629507,0.06038764864206314,0.07177083194255829,0.006807376630604267,-0.013947619125247002,0.03609928861260414,0.0626588836312294,0.04641743749380112,-0.03941035270690918,-0.0267646424472332,-0.07143058627843857,-0.03249034658074379,-0.03315978869795799,0.035647328943014145,0.0608077235519886,-0.037241704761981964,-0.012563461437821388,-0.05075044557452202,0.023051584139466286,0.022005923092365265,-0.0065169441513717175,0.022687310352921486,-0.07523342221975327,-0.05147605016827583,-0.028207045048475266,0.0037541957572102547,0.05124788358807564,-0.016960369423031807,-0.03426019847393036,0.04962865635752678,0.049043260514736176,0.03802674636244774,0.058934301137924194,0.04453938826918602,-0.07652369886636734,-0.06083710864186287,-0.05888178199529648,0.0797225683927536,-0.03215678036212921,-0.04905650019645691,-0.061831697821617126,-0.0027769787702709436,-0.004991033114492893,-0.07743841409683228,-0.054460559040308,-0.05554090440273285,0.03289714455604553,0.012492427602410316,0.05173860490322113,0.011607624590396881,0.018553540110588074,0.008829374797642231,0.01640395261347294,0.009524108842015266,-0.04389280080795288,0.04897519201040268,-0.002333478070795536,-0.005843071732670069,0.07067377120256424,-0.01853126659989357,-0.04765547439455986,-0.009903562255203724,0.06415621936321259,-0.021588081493973732,-0.05120791122317314,-0.01892322488129139,-0.04779650643467903,-0.051433440297842026,-0.00028763996670022607,0.04906453192234039,-0.04830057919025421,-0.03925766423344612,0.0763825923204422,0.04674069210886955,-0.03622964024543762,-0.06089258939027786,0.03168586641550064,0.030902158468961716,-0.03714093565940857,-0.029682070016860962,0.029627280309796333,-0.05136745795607567,0.03974895924329758,0.031040633097290993,0.052783697843551636,0.072714664041996,0.01563943363726139,0.03259839862585068,0.07260984182357788,-0.059621118009090424,0.04633276164531708,0.04528345540165901,-0.003934641368687153,0.05992460995912552,0.008158229291439056,-0.001971718156710267,-0.04008190706372261,0.03932817280292511,0.03826683387160301,-0.006966541521251202,-0.07042507827281952,-0.07435603439807892,0.06978213787078857,-0.03609978407621384,-0.05819054692983627,-0.03449586406350136,-0.06492268294095993,0.022113265469670296,0.05946802720427513,0.0012059019645676017,-0.06350436806678772,-0.06668064743280411,0.01351884100586176,0.03390451893210411,-0.07191745191812515,0.03816612437367439,0.008349938318133354,0.003506693057715893,-0.029442399740219116,-0.05638876184821129,0.0055811116471886635,-0.004663508851081133,0.047015536576509476,0.04927355796098709,-0.012628985568881035,-0.057975757867097855,-0.015881935134530067,-0.06606696546077728,0.04181867092847824,0.0711050033569336,-0.0551108717918396,0.015024324879050255,-0.07328438013792038,0.0378989651799202,0.0068213315680623055,0.05392179265618324,-0.01970061846077442,0.030976276844739914,-0.05055803433060646,0.008698751218616962,-0.05223393440246582,-0.07209032773971558,-0.035073328763246536,0.04749295115470886,-0.04965605214238167,-0.03340239077806473,0.05880095809698105,-0.06363409757614136,-0.048998184502124786,0.027252569794654846,0.07792258262634277,0.023382166400551796,0.06466760486364365,-0.019366415217518806,-0.025294268503785133,-0.006598105188459158,-0.05563024431467056,-0.011824584566056728,-0.0780370831489563,-0.05793080851435661,-0.010414671152830124,0.038689401000738144,0.06766140460968018,0.07914984226226807,-0.0620015487074852,0.07941681146621704,-0.006570575758814812]},"inputBias":{"rows":20,"columns":1,"weights":[0,0,0,0,0,0,0,0,0,0,0,0,0,0,0,0,0,0,0,0]},"forgetMatrix":{"rows":20,"columns":20,"weights":[0.07883235067129135,0.051187217235565186,-0.04524865746498108,-0.04535047709941864,-0.008733397349715233,0.07437752932310104,0.029916727915406227,0.04583089053630829,0.027620235458016396,0.011635417118668556,-0.03627017140388489,0.07880575209856033,0.0061466447077691555,-0.00774461729452014,-0.05096281319856644,0.06467120349407196,0.07856947183609009,-0.022051900625228882,-0.06410221755504608,-0.027842214331030846,0.056237880140542984,-0.06244839355349541,0.04646829888224602,-0.015914008021354675,0.06931957602500916,-0.06992898136377335,-0.06890354305505753,0.04479631036520004,0.015024458058178425,0.06648005545139313,-0.01900607906281948,0.02172842249274254,0.020177677273750305,-0.030544904991984367,0.0008280454785563052,-0.04474704712629318,0.01617792434990406,-0.05114956572651863,-0.06479965895414352,0.05883476138114929,0.05346222221851349,-0.034265972673892975,0.003666784381493926,0.07661304622888565,-0.005315608344972134,-0.03599867224693298,0.01395669300109148,-0.04224090650677681,0.06513691693544388,0.052676163613796234,0.07583125680685043,-0.010205492377281189,0.05177624151110649,-0.014329989440739155,0.046015672385692596,-0.06449797004461288,0.07845047116279602,0.06833070516586304,-0.06664665043354034,0.07623063772916794,-0.04795446619391441,-0.04380251094698906,-0.051697079092264175,0.009626495651900768,0.04047505185008049,-0.06524821370840073,0.06259602308273315,0.004337815567851067,-0.040734149515628815,0.07935606688261032,-0.07388652861118317,0.02972685545682907,-0.05325718969106674,0.07315599918365479,-0.03833090513944626,-0.0011910097673535347,-0.017254268750548363,-0.05464654415845871,0.06603526324033737,-0.02130058966577053,0.07492318004369736,0.0015951377572491765,0.03574781119823456,-0.005867494735866785,0.05797518044710159,0.06765900552272797,0.03254414722323418,0.0015144320204854012,0.03436882793903351,0.008479856885969639,-0.06988919526338577,0.015400505624711514,0.0330316387116909,0.046973664313554764,0.025574643164873123,-0.0658520832657814,0.03985727205872536,-0.06543637067079544,-0.011438163928687572,0.06317683309316635,0.03844873979687691,-0.051450930535793304,0.03704657033085823,-0.0013193527702242136,-0.07202821969985962,-0.019852541387081146,-0.04326798766851425,-0.0771484300494194,0.05100976675748825,-0.03394171595573425,-0.05591162294149399,0.022993922233581543,-0.06245533749461174,-0.053368788212537766,0.06361333280801773,0.0379914753139019,-0.07739672809839249,0.00851011648774147,0.07016724348068237,-0.05432170256972313,0.06418730318546295,-0.06920299679040909,-0.03333328664302826,0.027218740433454514,-0.07150080054998398,0.014711009338498116,-0.04745665192604065,0.018722595646977425,-0.07900656759738922,0.002828275552019477,0.04663464054465294,-0.038946397602558136,0.023635772988200188,-0.029299665242433548,-0.03734926879405975,-0.004490328952670097,0.011485684663057327,-0.058229755610227585,0.0025714340154081583,0.002372248563915491,-0.051600225269794464,-0.02048584073781967,0.0707211047410965,0.048080336302518845,-0.06243940070271492,0.05232374370098114,0.06441298127174377,-0.07448957115411758,-0.010925245471298695,-0.05054702237248421,-0.04139887914061546,-0.07612157613039017,-0.05037921667098999,0.04873496666550636,-0.026765618473291397,-0.027158092707395554,0.02656571753323078,-0.029553247615695,0.058826297521591187,0.0018939791480079293,-0.05958066135644913,0.060391124337911606,-0.01629444770514965,0.01954624429345131,-0.05878889188170433,0.009091246873140335,-0.0015404734294861555,-0.02076319418847561,-0.002624924760311842,0.017907405272126198,0.049817945808172226,0.062079403549432755,0.026378469541668892,0.0006465489277616143,-0.014451250433921814,-0.06944570690393448,0.0031579206697642803,0.0496826246380806,0.03671018406748772,0.06487782299518585,-0.04706946387887001,0.06140276417136192,0.012780537828803062,-0.04841924086213112,0.06371279060840607,0.050223540514707565,-0.0787142887711525,0.052680548280477524,-0.026711370795965195,-0.009010914713144302,0.00565999373793602,-0.01990566961467266,-0.049227528274059296,-0.07743729650974274,0.05818881839513779,0.06151340901851654,-0.03906165063381195,0.07953362166881561,-0.021291010081768036,0.07227213680744171,0.051535576581954956,-0.02250981330871582,0.01826782338321209,-0.06643354892730713,0.028070548549294472,0.002913784934207797,0.07031095027923584,0.03506366163492203,-0.0785750299692154,-0.055591877549886703,-0.05144670605659485,0.07618097215890884,-0.06854807585477829,-0.03956106677651405,-0.07197819650173187,0.0349128320813179,0.02443462610244751,0.07641996443271637,0.05041077733039856,-0.018726056441664696,0.04902716726064682,0.017740176990628242,-0.001982418354600668,-0.060029298067092896,-0.02859225869178772,0.06294127553701401,-0.05288853496313095,-0.05831630900502205,0.004644881468266249,0.008431380614638329,0.028643697500228882,-0.023439817130565643,-0.001829995308071375,0.026587726548314095,-0.012694306671619415,-0.031019391492009163,0.040860459208488464,-0.018377630040049553,-0.056362446397542953,0.019051263108849525,0.04395829141139984,0.03972049430012703,0.05035737529397011,-0.05483699217438698,-0.05752149969339371,0.06749287992715836,-0.07901796698570251,-0.007421005051583052,-0.03763864189386368,-0.03955855593085289,0.04455745220184326,-0.06613969057798386,-0.07116168737411499,-0.04435114562511444,0.05959653854370117,0.06792377680540085,0.042546577751636505,-0.02027915045619011,-0.06555132567882538,-0.005161338020116091,-0.0441630482673645,-0.0015178832691162825,-0.026012171059846878,-0.07550542801618576,0.015004420652985573,0.0344950333237648,0.06152021139860153,-0.004867855459451675,0.05248941853642464,-0.03211536630988121,0.03596464544534683,-0.001496266690082848,-0.03856608271598816,-0.07691651582717896,-0.0037933301646262407,-0.07388869673013687,-0.06779732555150986,0.03576722368597984,0.0785568505525589,0.0741429477930069,0.02746741473674774,-0.027364443987607956,0.017740562558174133,-0.03579552471637726,0.04030689597129822,-0.04017696902155876,0.07992666214704514,-0.07404083758592606,0.05349079519510269,0.01396523043513298,0.009381938725709915,-0.05129685997962952,-0.05615473538637161,0.035569433122873306,-0.045702140778303146,-0.030397972092032433,-0.056360334157943726,-0.04623708128929138,0.009613582864403725,0.013324931263923645,-0.0466369204223156,-0.04463109001517296,0.03199618682265282,0.06590809673070908,0.0649472028017044,0.030908752232789993,0.036592137068510056,0.02208920754492283,-0.052509818226099014,0.02005474455654621,-0.03483547642827034,-0.021268431097269058,0.016461536288261414,-0.057938311249017715,-0.05513632670044899,0.028910096734762192,0.01419381145387888,0.028284838423132896,0.07509675621986389,0.02157897874712944,-0.07957488298416138,0.04323859140276909,-0.06407976150512695,-0.055484771728515625,-0.004579062107950449,0.07265214622020721,0.010464631952345371,0.03158856928348541,-0.018481116741895676,0.050220660865306854,-0.07180307805538177,-0.027112949639558792,0.039386481046676636,-0.06111810728907585,-0.015421433374285698,-0.013730372302234173,-0.013013317249715328,-0.0763687714934349,-0.011421127244830132,0.07644932717084885,0.060128334909677505,0.05907027795910835,-0.05738763511180878,-0.04481172934174538,-0.03869694843888283,-0.036650288850069046,-0.028473351150751114,0.027706580236554146,-0.07187812775373459,0.00287800095975399,-0.07422919571399689,0.046009622514247894,-0.043183211237192154,-0.004115685820579529,0.030532073229551315,-0.023420438170433044,-0.07929723709821701,-0.023228129372000694,-0.06619519740343094,-0.005351786967366934,-0.016125507652759552,-0.05264503136277199,0.03829257935285568,-0.02340332418680191,0.03420683369040489,-0.056193757802248,-0.0373820923268795,0.011696165427565575,-0.03049473650753498,-0.07616537064313889,0.04516761004924774,0.021213406696915627,-0.07514922320842743,-0.06556715816259384,-0.06823263317346573,0.02527579665184021,0.040781356394290924,0.0520249679684639,0.06287368386983871,0.022042857483029366,-0.04259778559207916,0.008695588447153568,-0.07566868513822556,-0.003921509720385075,0.02649463340640068,0.0460827462375164,-0.02238418161869049,0.05526573583483696,-0.0679074376821518,0.017794519662857056,0.07725728303194046,0.021175188943743706,0.04561743885278702,-0.07547231018543243,0.01043543592095375,0.052233606576919556,-0.04259879142045975,0.0482722707092762,-0.05840017646551132,-0.0522242970764637]},"forgetHidden":{"rows":20,"columns":20,"weights":[0.07742006331682205,-0.06777910888195038,0.0380522795021534,0.05203583836555481,-0.013646983541548252,0.04548005014657974,-0.023837871849536896,0.05809362977743149,-0.0735907033085823,-0.00013558079081121832,-0.07456658035516739,-0.05325303226709366,0.0449310839176178,0.063277967274189,0.042669713497161865,0.04328847676515579,-0.06032542884349823,-0.07056810706853867,0.009478943422436714,-0.04904993623495102,-0.07172892242670059,0.01942753978073597,0.06488825380802155,0.007787951733916998,0.030942818149924278,-0.023240920156240463,0.07991737872362137,0.024755535647273064,-0.06524538993835449,0.024274179711937904,-0.036407146602869034,-0.0321546234190464,0.01708756573498249,-0.06714580953121185,-0.07399250566959381,-0.036160729825496674,0.06714137643575668,-0.0278112031519413,0.03655387833714485,0.054571956396102905,-0.00012422421423252672,0.025561179965734482,0.04684923216700554,-0.05839034542441368,0.07691999524831772,-0.021556535735726357,-0.028019677847623825,0.0011810599826276302,0.032916001975536346,-0.01756381429731846,-0.015860410407185555,-0.01205561775714159,-0.019370833411812782,-0.07892610132694244,-0.04854115843772888,-0.0398038774728775,-0.02548843063414097,0.027246374636888504,0.06911596655845642,-0.0378275103867054,0.0647353008389473,0.041965093463659286,-0.0076111918315291405,-0.017866404727101326,-0.0702519565820694,-0.006589258089661598,0.06420596688985825,0.03257215768098831,0.06466218084096909,0.054345276206731796,0.06574804335832596,0.009088510647416115,0.010989226400852203,0.039432939141988754,-0.009610836394131184,0.030964422971010208,0.04338439926505089,0.01405553612858057,0.008949372917413712,0.038890641182661057,-0.04362155869603157,-0.07662735879421234,-0.04145276919007301,-0.03327406942844391,0.046412598341703415,0.022171175107359886,-0.008150823414325714,-0.06842350214719772,0.07799756526947021,0.045564766973257065,-0.002304662950336933,0.06205260008573532,-0.040815532207489014,0.007134176790714264,-0.04047911614179611,-0.025125963613390923,0.06311313062906265,-0.009918789379298687,0.010938931256532669,-0.04537830501794815,-0.014758800156414509,0.05449759587645531,0.024517785757780075,-0.029950635507702827,0.041571810841560364,-0.02709003910422325,0.07609574496746063,0.07220133394002914,0.01412053219974041,0.038527343422174454,0.022146597504615784,0.02405841276049614,-0.06298072636127472,-0.016680091619491577,0.04834248870611191,0.007018225267529488,-0.052825652062892914,0.04425085708498955,-0.06423744559288025,-0.018513856455683708,0.07810227572917938,0.0439668707549572,0.05797826498746872,0.06631851196289062,-0.0644213855266571,0.006647080648690462,0.031126558780670166,0.04079379886388779,0.05102364718914032,0.0760357677936554,-0.048875272274017334,-0.06265375763177872,0.054309941828250885,0.0020787869580090046,-0.03331611305475235,0.027424190193414688,-0.011244210414588451,-0.026604659855365753,-0.010109017603099346,0.06578784435987473,-0.051250483840703964,0.07617832720279694,-0.006907832343131304,-0.07824307680130005,0.016628911718726158,0.01238924078643322,-0.018279315903782845,0.061462365090847015,0.03154047206044197,-0.0039244238287210464,-0.021000679582357407,0.06382521986961365,-0.03555727005004883,0.06233111023902893,0.06029573827981949,0.01775466278195381,0.05116727203130722,0.035673581063747406,0.05345475673675537,0.06469016522169113,-0.06033172085881233,0.06508888304233551,-0.016612309962511063,-0.035816311836242676,-0.05269971862435341,-0.04925616458058357,-0.05975175276398659,-0.04684186726808548,-0.05195006728172302,0.04718301445245743,0.04914631322026253,-0.078773133456707,0.018355978652834892,0.06670278310775757,-0.02985496260225773,0.019476035609841347,0.06852588802576065,-0.06670090556144714,0.004852075595408678,-0.05493811145424843,0.01309950277209282,0.06911486387252808,-0.015727441757917404,0.043625228106975555,-0.039372026920318604,-0.053632378578186035,-0.06570101529359818,0.023982631042599678,-0.019212955608963966,0.04888010025024414,0.024235917255282402,-0.013736057095229626,-0.07422363758087158,-0.035924945026636124,-0.004942317493259907,0.07052234560251236,0.0783354863524437,-0.02941056527197361,0.07557566463947296,0.07212502509355545,0.06631118804216385,-0.024362731724977493,-0.01314510591328144,-0.008434005081653595,-0.04120933264493942,-0.05805560201406479,0.07421941310167313,0.045643292367458344,-0.054954927414655685,0.06329403072595596,0.026069190353155136,-0.06534019112586975,0.06388071924448013,-0.05340145528316498,-0.046113356947898865,0.059335339814424515,-0.043824274092912674,0.0722603052854538,0.019663989543914795,-0.06360156089067459,0.03844234719872475,-0.04010714218020439,0.00695839012041688,0.06357424706220627,0.0720093622803688,-0.0461801141500473,-0.021438416093587875,-0.04780448228120804,-0.011339206248521805,0.02573924884200096,0.0669223815202713,0.06866248697042465,0.05056409537792206,0.011147836223244667,-0.03569749742746353,-0.03805195540189743,-0.06430915743112564,0.04331216961145401,-0.02948029339313507,-0.012868613936007023,-0.05399423465132713,0.033886831253767014,-0.052519917488098145,-0.029063628986477852,-0.02925044670701027,-0.04409745708107948,0.07362653315067291,0.018168512731790543,0.05927369371056557,0.02674524113535881,-0.030057387426495552,0.06972446292638779,-0.019173340871930122,-0.04478832706809044,-0.07930402457714081,-0.0660422071814537,-0.0021234049927443266,0.060690853744745255,-0.053758665919303894,-0.011740214191377163,-0.0771452859044075,0.02473832666873932,-0.04548148065805435,-0.05529377609491348,0.008921234868466854,0.01951063610613346,-0.0647864118218422,-0.0706038773059845,-0.016368703916668892,0.0031423557084053755,0.01245467085391283,0.026126760989427567,-0.043387603014707565,0.007975390180945396,-0.03314685821533203,0.047591228038072586,0.0566168837249279,0.004190570209175348,0.025442656129598618,-0.07787284255027771,0.038153935223817825,0.004731449764221907,-0.004874739330261946,0.05605364218354225,0.05016625300049782,0.02803925797343254,0.023434026166796684,0.02378447912633419,-0.007555724121630192,0.07358063012361526,0.03879560902714729,-0.02595439739525318,0.06968788057565689,0.0690155103802681,0.002281923545524478,-0.020622707903385162,0.04135202616453171,0.05899506062269211,0.026177210733294487,0.04897994548082352,-0.07086584717035294,0.05860630050301552,0.07425344735383987,0.07762443274259567,0.035124219954013824,-0.03615963086485863,-0.018828265368938446,-0.0284748375415802,-0.04442453384399414,-0.07429848611354828,0.04126545041799545,-0.002994924783706665,0.047949645668268204,-0.06815145909786224,0.01573748141527176,0.040035080164670944,0.008579384535551071,-0.03461843356490135,0.050917722284793854,0.0016915150918066502,-0.045093223452568054,0.04056159034371376,-0.06343111395835876,0.06992004811763763,0.055264897644519806,0.005850043147802353,-0.0680902972817421,0.04752350598573685,0.029861286282539368,0.07919825613498688,-0.040044452995061874,0.0738157108426094,0.03196236491203308,-0.01619960553944111,0.04102163389325142,0.034230902791023254,-0.017209414392709732,0.01631453074514866,-0.0647675171494484,0.04504084214568138,-0.04295061156153679,0.010860756039619446,-0.02590198628604412,-0.06223263218998909,0.028096426278352737,-0.02525203861296177,0.031450048089027405,0.05984752997756004,0.07506459206342697,0.042924705892801285,0.07781465351581573,0.05364547669887543,-0.010057157836854458,-0.006472076289355755,-0.014496833086013794,-0.03467332199215889,-0.07236089557409286,0.04901991784572601,-0.010898538865149021,-0.02432214841246605,0.016983158886432648,-0.04938066750764847,0.07442372292280197,0.05496219918131828,-0.058164823800325394,0.05159701406955719,-0.07578863203525543,-0.02627209573984146,0.007230794057250023,-0.03241238370537758,0.006890989374369383,-0.06231950968503952,0.052395958453416824,0.07408779859542847,0.027424326166510582,-0.02551339939236641,-0.05809316784143448,0.054563116282224655,0.05540935695171356,-0.07402162253856659,0.07570881396532059,0.07346221804618835,-0.058024536818265915,0.016491513699293137,-0.06704147905111313,-0.06709610670804977,-0.05171258747577667,0.016289494931697845,-0.0747651755809784,-0.07228384912014008,0.07927612215280533,-0.05934061482548714,-0.03862263634800911,-0.04011845961213112,0.07154975086450577,0.06795545667409897,0.008191329427063465,0.0486515536904335,-0.04483996331691742,-0.060441553592681885]},"forgetBias":{"rows":20,"columns":1,"weights":[0,0,0,0,0,0,0,0,0,0,0,0,0,0,0,0,0,0,0,0]},"outputMatrix":{"rows":20,"columns":20,"weights":[0.03862155228853226,-0.05281988903880119,0.05131199210882187,-0.06718361377716064,-0.026322869583964348,0.052127715200185776,0.03252546861767769,0.003280637552961707,-0.07645858079195023,0.007172814104706049,-0.05894878879189491,-0.06145865097641945,0.0068513816222548485,0.01341091189533472,-0.023946890607476234,0.03430268168449402,-0.0023366627283394337,-0.04088207334280014,-0.07745923101902008,0.05361470952630043,-0.010807633399963379,-0.07364340126514435,0.024228263646364212,-0.07667519152164459,0.031272850930690765,-0.00819223839789629,-0.06965655088424683,0.04286433383822441,-0.04114950820803642,-0.003243034239858389,-0.06472470611333847,0.023319296538829803,0.05343129113316536,0.06652793288230896,0.0722372755408287,0.02214963361620903,-0.011962752789258957,0.025506218895316124,0.04099806025624275,-0.05855565518140793,-0.06354603171348572,0.02385484054684639,0.06217741593718529,-0.0028303100261837244,0.014526406303048134,0.05613834783434868,-0.026105936616659164,0.003453141078352928,0.03516590967774391,0.05501618981361389,0.00313819688744843,0.042512331157922745,-0.05298249423503876,0.0552801750600338,-0.06880854070186615,-0.07828432321548462,-0.056786131113767624,-0.041037578135728836,-0.05280107259750366,-0.0390855148434639,-0.015418089926242828,-0.006279805675148964,-0.029792437329888344,0.008555997163057327,-0.05930021405220032,0.03524963557720184,-0.010925808921456337,0.03010447323322296,-0.06866837292909622,-0.0610506497323513,0.025866368785500526,0.05295252427458763,0.026305386796593666,0.06836966425180435,-0.06674724072217941,0.060212213546037674,0.018986862152814865,-0.04281077906489372,-0.06085943803191185,0.07602239400148392,-0.010789670050144196,-0.022613471373915672,-0.03485613688826561,-0.04733363911509514,0.0037064547650516033,-0.02939123474061489,-0.05520864576101303,-0.04856135696172714,0.030535195022821426,0.022012045606970787,-0.03223620727658272,-0.011843175627291203,0.057956263422966,0.06927330046892166,0.04406776279211044,-0.07538773864507675,0.0025668004527688026,-0.06359324604272842,-0.07049080729484558,0.05392131209373474,-0.06699816137552261,-0.03843506798148155,-0.053099583834409714,-0.02446187660098076,0.044041361659765244,0.04717078059911728,-0.06416025012731552,0.07474356144666672,0.003047264413908124,0.04649341106414795,-0.004915881901979446,0.03377750515937805,0.07476557046175003,0.026143090799450874,0.06124034523963928,0.006492266897112131,0.06928631663322449,-0.008641641587018967,-0.010389519855380058,-0.027879098430275917,-0.06210193410515785,-0.03290586546063423,-0.029793739318847656,0.045084398239851,0.012740174308419228,-0.0568295381963253,-0.0048885769210755825,0.06444057077169418,0.031132053583860397,-0.030108926817774773,0.008698662742972374,-0.06880087405443192,0.05480938404798508,0.057176362723112106,-0.03564103692770004,0.02105041965842247,0.01901591196656227,-0.015636933967471123,-0.036891598254442215,-0.017988296225667,0.0742202177643776,0.04575012996792793,-0.055381011217832565,0.04303108528256416,-0.05223415791988373,0.007801521103829145,-0.015199799090623856,-0.03674452379345894,0.034852784126996994,0.04838213324546814,0.0492527149617672,-0.050557494163513184,0.03739706799387932,0.05685696378350258,-0.0305230300873518,0.059472013264894485,0.05912058800458908,-0.02390317991375923,-0.0794365406036377,-0.06670821458101273,-0.018593760207295418,0.004945754073560238,-0.05119629204273224,-0.037814732640981674,-0.05558766797184944,0.060470495373010635,0.05597858503460884,0.05756072700023651,0.051184020936489105,0.02072392776608467,-0.04500443860888481,0.06914618611335754,0.01954401470720768,0.006977710407227278,0.038751404732465744,0.0487913116812706,-0.03443792089819908,-0.0743398368358612,-0.0019846297800540924,0.032384831458330154,-0.03088787943124771,0.029959283769130707,0.03352116420865059,0.03143077343702316,-0.0173727348446846,0.0658644512295723,0.05402468517422676,-0.06805328279733658,0.038362760096788406,0.0319790281355381,0.047287460416555405,-0.049023449420928955,-0.022166945040225983,-0.07553090155124664,-0.0318133719265461,-0.06449996680021286,-0.000059925750974798575,-0.023923125118017197,-0.02998436987400055,-0.008336858823895454,0.019681163132190704,-0.009251849725842476,-0.023524155840277672,0.07007981836795807,0.06308761984109879,-0.00732297170907259,-0.010115490294992924,-0.021780848503112793,-0.07398185133934021,0.042834196239709854,0.013495604507625103,-0.06286834180355072,0.05811278149485588,-0.05876674875617027,0.06144825369119644,0.03641814365983009,-0.0031241581309586763,-0.034549321979284286,-0.03518359363079071,0.044760700315237045,0.030502505600452423,-0.00024012538779061288,0.010820071212947369,-0.05695337802171707,-0.03646734356880188,-0.06551340967416763,0.03219049051403999,0.0456974096596241,-0.014052332378923893,0.04649365320801735,0.03596765547990799,0.06139611452817917,0.03624561056494713,-0.06788115948438644,-0.06885673850774765,-0.030595334246754646,0.017099453136324883,0.011089406907558441,-0.056888479739427567,-0.0029181325808167458,-0.05969618633389473,-0.02166280709207058,0.04755973070859909,0.03292597085237503,0.05015462264418602,0.01449193898588419,0.029329737648367882,0.0701550617814064,0.012345634400844574,-0.009502485394477844,-0.006003578659147024,-0.001862135250121355,0.061133820563554764,-0.05192301422357559,-0.02985556423664093,0.04168132320046425,0.06756173074245453,-0.020336180925369263,0.019075321033596992,0.04796745255589485,-0.03646991401910782,0.03358808904886246,-0.07735883444547653,0.062350738793611526,-0.011465233750641346,0.03586428239941597,-0.06359110027551651,-0.019940553233027458,-0.054145462810993195,0.050067607313394547,0.035362571477890015,-0.056100133806467056,-0.0753430426120758,0.06862996518611908,0.04062862694263458,0.01815137267112732,-0.00015304298722185194,0.05960308387875557,-0.026989441365003586,0.0013341339072212577,-0.03978554531931877,0.0455729104578495,0.05907599255442619,-0.008097106590867043,-0.04319369047880173,-0.05785611644387245,0.07726088911294937,0.012765336781740189,-0.03337050974369049,0.07265984266996384,0.07923954725265503,-0.03657142072916031,-0.0417790487408638,0.004194355104118586,-0.023967402055859566,0.006870428565889597,-0.012671265751123428,0.06937732547521591,-0.009666920639574528,-0.07182755321264267,-0.07367268949747086,0.024553978815674782,0.01972181722521782,-0.017675315961241722,0.04045259952545166,-0.011358646675944328,0.005642474163323641,0.07688774168491364,-0.06979642063379288,0.07634338736534119,-0.05494137108325958,-0.020668363198637962,0.0011968796607106924,0.04694170132279396,-0.0675121396780014,0.03774126619100571,-0.023307858034968376,0.035302091389894485,0.02025507390499115,0.0386631153523922,0.0031575316097587347,0.056084420531988144,0.01893973909318447,0.006679130718111992,-0.002266761614009738,0.03703857958316803,-0.0038190509658306837,0.060085147619247437,-0.02048441395163536,0.0570811927318573,0.03807903826236725,0.010402964428067207,-0.06725562363862991,-0.05883389338850975,0.0011729947291314602,-0.016690831631422043,-0.06745219975709915,-0.06129802018404007,-0.06109052523970604,0.025058340281248093,-0.04047121852636337,0.07812447100877762,-0.050194378942251205,0.011681619100272655,0.061777159571647644,0.07819516211748123,-0.04910968616604805,-0.03187699243426323,0.02223055064678192,0.06703425943851471,0.015640579164028168,-0.024492831900715828,0.016442343592643738,-0.069575734436512,0.05088818445801735,-0.0671277642250061,-0.04204782471060753,0.019988570362329483,0.05820117145776749,0.027960985898971558,0.02929965779185295,0.052422843873500824,-0.06712722033262253,0.05448314920067787,-0.03639555722475052,0.07716061174869537,-0.035775527358055115,0.07821541279554367,0.05808994919061661,0.06288077682256699,-0.035541240125894547,-0.018806710839271545,0.055211618542671204,-0.020441610366106033,0.06233252212405205,0.06487523019313812,0.01511069480329752,-0.0027913853991776705,0.07941244542598724,-0.044617392122745514,0.05732092261314392,-0.039377011358737946,0.04015801101922989,0.06015036255121231,0.05335676297545433,0.02679511345922947,0.07878180593252182,-0.06177699565887451,-0.012521866708993912,0.028985897079110146,-0.05956688150763512,-0.018752289935946465,-0.05515530705451965,0.017045533284544945,-0.042956169694662094,-0.05843215063214302,0.018255548551678658,0.0753423348069191,0.033634964376688004,0.06597951054573059]},"outputHidden":{"rows":20,"columns":20,"weights":[-0.06252143532037735,-0.05408165231347084,-0.0006633129087276757,0.03749067336320877,-0.0692899152636528,-0.0008433946641162038,0.06293381750583649,0.07061795145273209,0.0442194901406765,0.026284992694854736,0.044934436678886414,-0.0296969935297966,-0.017159778624773026,0.03804296627640724,0.026676567271351814,0.004526740405708551,-0.014769624918699265,0.07612701505422592,-0.02774248644709587,-0.0170035008341074,-0.05472482368350029,-0.07257997244596481,0.03620126098394394,-0.03854629769921303,-0.0012930197408422828,0.03429669514298439,0.03960869833827019,-0.07035387307405472,0.05472289025783539,-0.06325136870145798,0.06669044494628906,-0.017587898299098015,0.04677126556634903,-0.012088322080671787,0.012197117321193218,0.002605466404929757,0.06758280098438263,0.015854185447096825,-0.02928951010107994,-0.01949089765548706,0.030683642253279686,0.04891214519739151,0.02810649573802948,0.030858131125569344,-0.006500865798443556,-0.0559956394135952,-0.05458880588412285,0.03909184783697128,-0.00805879756808281,0.030204439535737038,0.01226719468832016,-0.07757177203893661,0.03874971717596054,0.07895281165838242,-0.05907502397894859,0.049078866839408875,-0.02660803310573101,-0.022830910980701447,-0.06051133945584297,0.0609719417989254,0.07485608756542206,0.01800423674285412,0.028766417875885963,-0.010478909127414227,0.04275432601571083,0.023446008563041687,0.0772852823138237,0.02352510392665863,-0.029864290729165077,0.021086661145091057,-0.0353747233748436,0.06803029775619507,0.06733103096485138,0.01714680902659893,-0.035490259528160095,0.07203806191682816,0.06849966943264008,-0.07678302377462387,-0.013008718378841877,0.0013318810379132628,-0.033986061811447144,-0.05615600571036339,-0.07128459215164185,-0.0012488682987168431,-0.044616274535655975,-0.05147402733564377,-0.07964025437831879,0.04015815630555153,0.04238700866699219,-0.07206922769546509,0.004085088614374399,0.04706927016377449,-0.06869751960039139,-0.03018336184322834,-0.011632515117526054,0.04262208566069603,0.07481943815946579,-0.060583245009183884,0.02522566355764866,-0.07172495126724243,0.0038040759973227978,0.07751532644033432,0.017794320359826088,-0.019159812480211258,-0.00025988559355027974,0.008784915320575237,0.019157590344548225,0.05937724560499191,0.014831806533038616,0.0345437228679657,-0.01815766841173172,-0.012137265875935555,0.03906033933162689,-0.06398317962884903,0.027452297508716583,-0.0434536449611187,0.007331449538469315,0.07227218896150589,-0.00705541530624032,-0.07597605884075165,-0.0058210561983287334,0.0583549439907074,0.03334928676486015,-0.02849629893898964,-0.07335826754570007,0.040899232029914856,-0.0655113086104393,-0.05593961849808693,-0.054209154099226,-0.07988180220127106,-0.006835663691163063,0.06391032040119171,-0.023203395307064056,-0.0453389436006546,-0.03248431906104088,0.07275976985692978,-0.02593870274722576,-0.030971109867095947,0.05953414365649223,0.05849871411919594,0.06425110995769501,0.013036292046308517,-0.05201563984155655,-0.07991138845682144,-0.007558128796517849,0.0339193120598793,-0.05564207211136818,-0.06259911507368088,0.05517816171050072,-0.0494912713766098,-0.07682766020298004,-0.005567202344536781,-0.03172141686081886,0.07491622865200043,-0.07561968266963959,-0.004784879274666309,-0.02018636465072632,0.003306267550215125,-0.06859780102968216,-0.07092644274234772,-0.03164860978722572,-0.04772872105240822,0.014730184338986874,-0.015805134549736977,-0.010437876917421818,-0.0549895279109478,-0.02208133414387703,-0.038587622344493866,-0.04600143060088158,0.024116722866892815,0.06868651509284973,-0.06069236248731613,0.049599021673202515,0.07030973583459854,-0.03148180991411209,0.01770363189280033,0.05838581174612045,-0.007564025931060314,0.057485874742269516,0.07922095060348511,-0.015638213604688644,-0.07485241442918777,-0.027065521106123924,0.0033618134912103415,-0.006613642908632755,-0.013728225603699684,-0.0303337424993515,-0.055945225059986115,-0.007078931666910648,0.06425216048955917,-0.06982357800006866,0.036693427711725235,-0.04271702468395233,-0.05272265151143074,0.022312045097351074,-0.052672069519758224,-0.06304829567670822,-0.051169585436582565,0.017820008099079132,0.07008982449769974,-0.0738312229514122,0.06740862131118774,-0.06651315838098526,0.029906831681728363,-0.015678968280553818,-0.024708595126867294,-0.02324843592941761,-0.06714817136526108,-0.06414889544248581,-0.05053729936480522,-0.03341525048017502,-0.014344767667353153,-0.04568792134523392,0.04118460789322853,0.04424664005637169,0.003954019863158464,0.057167962193489075,-0.04129958525300026,-0.019879864528775215,-0.025407161563634872,0.031051073223352432,-0.04181747883558273,-0.06956645101308823,-0.024039432406425476,-0.047808561474084854,-0.06720934808254242,0.04673057422041893,0.05600278824567795,-0.03123479150235653,0.07132693380117416,-0.058133989572525024,0.018773579970002174,-0.02660818211734295,0.001993203768506646,0.047649748623371124,0.016175590455532074,0.06419827789068222,-0.006149977911263704,0.07629822939634323,-0.04700975865125656,0.044880639761686325,0.04398798570036888,-0.06541799008846283,-0.0627702921628952,-0.06500635296106339,0.06929156929254532,0.029078947380185127,-0.01467517577111721,-0.04776430130004883,0.02260812744498253,-0.010607395321130753,0.013416144996881485,-0.02220543660223484,-0.06780462712049484,0.03424694016575813,0.03616251051425934,-0.03708678483963013,-0.03033064492046833,0.05990821495652199,0.006915113423019648,0.051121167838573456,-0.01331834401935339,0.06339093297719955,0.005710525903850794,0.002126997569575906,-0.07733123749494553,-0.04913792386651039,-0.027004577219486237,-0.06008940935134888,0.024498311802744865,-0.024310706183314323,-0.04083153232932091,-0.020016666501760483,0.02028976008296013,-0.043517231941223145,0.03138279169797897,-0.04800795018672943,-0.01244363933801651,0.008552605286240578,0.008604534901678562,-0.06785190105438232,0.07698929309844971,0.06450840085744858,0.06748508661985397,0.017129698768258095,-0.0792495459318161,0.018002472817897797,-0.06874071806669235,0.02646333910524845,-0.0027679107151925564,-0.022612866014242172,0.047247275710105896,-0.021579764783382416,0.015612145885825157,0.023976504802703857,0.0699121281504631,0.014843346551060677,-0.017219826579093933,0.017039688304066658,0.032996851950883865,0.01092509739100933,-0.03111172839999199,-0.0034340734127908945,-0.04173313081264496,0.04053401201963425,-0.047037720680236816,0.006707696709781885,0.04808809980750084,-0.03755468502640724,-0.06494095921516418,-0.06388465315103531,0.02317853271961212,0.04329695552587509,0.021608367562294006,0.001033018110319972,0.07277871668338776,0.015881365165114403,-0.0786183625459671,0.06641976535320282,0.0020598110277205706,-0.0512046180665493,-0.050696078687906265,-0.015787670388817787,0.007899699732661247,-0.05528940632939339,-0.044191617518663406,0.015777770429849625,-0.03817443922162056,-0.04817398265004158,-0.009259376674890518,-0.05166342854499817,0.04552973806858063,-0.021892115473747253,-0.06943943351507187,-0.033755186945199966,0.07040740549564362,0.059801358729600906,-0.0758148580789566,0.0003964872448705137,-0.018409064039587975,-0.06873790919780731,0.07711325585842133,0.026798749342560768,-0.041055746376514435,-0.05716412141919136,0.01641768403351307,0.025894949212670326,-0.06664671003818512,0.02354116551578045,-0.05904793739318848,-0.06368441134691238,-0.010492891073226929,0.002849234500899911,-0.04239145666360855,-0.0372648611664772,0.0750669538974762,-0.0761897936463356,-0.05832994729280472,0.07756152749061584,-0.06529022753238678,0.050364479422569275,-0.046658728271722794,-0.04598982259631157,0.027039770036935806,-0.006466409657150507,0.048394396901130676,0.07843586802482605,-0.04914243519306183,0.04809173569083214,-0.021767737343907356,-0.039035115391016006,0.05771510675549507,-0.04394741728901863,-0.062306080013513565,-0.00596247985959053,-0.07430589199066162,0.03699344024062157,-0.06474734097719193,-0.03171016648411751,0.01695285364985466,0.04265745356678963,-0.078737273812294,-0.06451214104890823,-0.03931466490030289,-0.07433589547872543,0.04960999637842178,-0.04918672516942024,0.03677507862448692,-0.0009923942852765322,-0.04294262081384659,0.007872157730162144,0.020281050354242325,-0.03671729192137718,0.015139436349272728,0.06129198521375656,0.020779263228178024,0.019244689494371414,-0.06577610224485397,0.041464466601610184,0.004510695114731789]},"outputBias":{"rows":20,"columns":1,"weights":[0,0,0,0,0,0,0,0,0,0,0,0,0,0,0,0,0,0,0,0]},"cellActivationMatrix":{"rows":20,"columns":20,"weights":[0.0032710409723222256,-0.020462067797780037,0.07652851194143295,-0.04500546306371689,-0.03425217419862747,0.062432661652565,0.053907498717308044,0.06465516984462738,0.054508645087480545,-0.03981024771928787,-0.04281643405556679,-0.06222029775381088,-0.03961871191859245,-0.01598948985338211,0.07410036027431488,-0.050880055874586105,0.07873806357383728,0.03465685620903969,0.0201523769646883,0.018654434010386467,0.054189108312129974,-0.07866467535495758,0.07019529491662979,0.0028462689369916916,0.07884658128023148,0.07146740704774857,-0.0645017996430397,0.002802819013595581,0.022803349420428276,0.060283273458480835,0.008443905040621758,-0.056488242000341415,-0.06020428240299225,-0.031861867755651474,0.05319871008396149,0.03905153647065163,0.05054433271288872,0.028157096356153488,-0.025405118241906166,0.051168616861104965,-0.005769826006144285,0.017676377668976784,0.07778963446617126,-0.023995280265808105,0.055049505084753036,0.05698550119996071,-0.07933984696865082,0.06364931911230087,-0.06445574015378952,-0.06271547824144363,-0.0066080959513783455,0.010904044844210148,0.03199276700615883,-0.03705701231956482,0.00019581733795348555,-0.031590163707733154,-0.013775050640106201,-0.02746344730257988,-0.0029799218755215406,0.014872736297547817,-0.05115361139178276,-0.042034368962049484,-0.07169841229915619,0.03440546989440918,-0.02327541634440422,0.07243822515010834,0.020640965551137924,-0.01805894449353218,-0.07238390296697617,0.026759449392557144,-0.01927116885781288,0.07138195633888245,-0.07531823217868805,0.06972650438547134,-0.03644150495529175,0.024163248017430305,-0.05702536180615425,0.0030901723075658083,-0.06661957502365112,-0.03595495596528053,0.01291209738701582,-0.07921402156352997,0.01748737506568432,0.03399095684289932,0.0701005682349205,0.0014385750982910395,-0.04940606653690338,-0.020134393125772476,0.014049186371266842,0.051724549382925034,0.06371058523654938,0.012730743736028671,0.03832763433456421,-0.021810084581375122,0.0028911856934428215,-0.05513628199696541,-0.009144443087279797,0.05037875100970268,0.061293378472328186,0.033482447266578674,0.05163723975419998,0.07912709563970566,-0.06876136362552643,0.06720606237649918,-0.006691979244351387,-0.06257828325033188,0.030224015936255455,0.06941092014312744,-0.03790584206581116,-0.03664993494749069,-0.02958613634109497,-0.055537544190883636,0.0018226043321192265,-0.0039059666451066732,0.07524517178535461,-0.05039740353822708,-0.034978874027729034,-0.0105032529681921,0.032751016318798065,0.025500154122710228,-0.04587232321500778,-0.06783480197191238,-0.0794268399477005,-0.012824907898902893,-0.05903848633170128,0.0035705312620848417,-0.056870222091674805,0.07454180717468262,0.015851274132728577,-0.04746474698185921,0.06975521892309189,-0.049584560096263885,0.047518178820610046,0.059983961284160614,0.03785661235451698,0.07715915143489838,-0.01684299297630787,-0.021063465625047684,-0.04826801270246506,0.07084041088819504,-0.06920337677001953,-0.005084617529064417,0.051170896738767624,0.006991141941398382,-0.0371900349855423,-0.05598398298025131,0.01725938729941845,0.03543699160218239,-0.06478097289800644,-0.020125407725572586,-0.05483180284500122,-0.07489272207021713,0.043638017028570175,0.07533849775791168,0.016850484535098076,-0.034257981926202774,0.01969076693058014,0.03603270277380943,0.01708362065255642,0.023621607571840286,0.0010798787698149681,0.05199550464749336,0.05711689963936806,0.04475913569331169,0.011306734755635262,0.016055485233664513,0.014733574353158474,-0.0037650782614946365,0.022995783016085625,-0.03344650939106941,0.07590414583683014,-0.06244940310716629,0.03087584115564823,0.056914109736680984,0.05611857771873474,-0.06555009633302689,-0.04021763056516647,0.010129141621291637,-0.07345253974199295,0.05197624862194061,0.015424237586557865,-0.005888400133699179,0.06276749074459076,-0.023981861770153046,0.01495430339127779,0.04374010115861893,-0.06718406081199646,0.016657015308737755,-0.006478091701865196,-0.05749126151204109,0.07617280632257462,0.07790283113718033,-0.006811019033193588,0.00394807942211628,0.009505776688456535,-0.06685863435268402,-0.03458505868911743,0.0384829118847847,0.003887585597112775,0.07741603255271912,0.07837386429309845,0.026648934930562973,0.07714152336120605,0.02034408412873745,0.008243252523243427,-0.04997808113694191,-0.012727053835988045,0.02548334002494812,-0.007875276729464531,-0.06779791414737701,-0.05854716897010803,-0.045393429696559906,-0.05935512110590935,0.07995956391096115,0.04343153163790703,-0.049058590084314346,-0.049013007432222366,-0.007566557731479406,0.04885579273104668,-0.07058050483465195,0.060189057141542435,0.059957411140203476,0.03243115544319153,-0.016153525561094284,-0.032554443925619125,0.006251233164221048,-0.06581394374370575,-0.07899779081344604,0.05224759504199028,0.012116380035877228,0.008893543854355812,0.010929308831691742,0.03547030687332153,0.042388495057821274,-0.07993334531784058,0.07167456299066544,0.03404245898127556,-0.052156709134578705,0.03060249611735344,-0.017957381904125214,0.06447058171033859,-0.006182576064020395,-0.04977969080209732,-0.06881112605333328,0.014257692731916904,-0.05937933549284935,-0.0407414510846138,-0.04036254808306694,-0.00395207479596138,0.042914438992738724,-0.05812893807888031,-0.07030512392520905,0.033336054533720016,-0.006716037634760141,0.03066284954547882,-0.017164446413517,0.03649027645587921,0.009517733007669449,0.03132392093539238,-0.0011178539134562016,-0.02673298679292202,0.07123405486345291,-0.016470132395625114,0.028768619522452354,0.04184192791581154,0.0036890776827931404,-0.02635274827480316,-0.05667520686984062,-0.03879830986261368,0.04671153426170349,-0.033411603420972824,-0.02867721952497959,0.06831607967615128,0.03258094936609268,0.0350625216960907,-0.040655896067619324,-0.03139971196651459,0.07520575821399689,-0.025948449969291687,-0.0015889010392129421,0.062480904161930084,0.04856554791331291,0.007782337721437216,0.01828943006694317,-0.060846440494060516,-0.022409670054912567,0.0744803175330162,0.045984312891960144,0.00567765673622489,0.057892389595508575,-0.018381668254733086,0.054787129163742065,0.007660488598048687,0.016016745939850807,0.006598751526325941,0.004289676435291767,-0.019035579636693,0.03698292374610901,0.04287969693541527,0.006395148579031229,-0.03891370818018913,-0.048872243613004684,-0.04168635606765747,0.022421620786190033,0.027939628809690475,0.020521672442555428,0.028920643031597137,-0.04458941891789436,0.05725018307566643,-0.004093330353498459,0.04755913466215134,-0.033710118383169174,-0.04500095918774605,0.07508551329374313,-0.0010065519018098712,-0.019493600353598595,-0.06860951334238052,-0.0199435967952013,-0.03381581977009773,-0.0453154556453228,-0.03437308967113495,-0.02629941701889038,-0.050225503742694855,0.014733809046447277,-0.009389080107212067,0.008175895549356937,-0.07559211552143097,0.047126490622758865,-0.05729387328028679,-0.06561718136072159,0.04870567470788956,0.0026589464396238327,-0.06768885999917984,0.05231630802154541,0.03592871502041817,-0.028209777548909187,-0.052875105291604996,-0.03201543539762497,-0.06437314301729202,0.055951204150915146,-0.059259723871946335,0.003501805942505598,-0.057309865951538086,-0.07207322120666504,0.07960956543684006,-0.06825395673513412,-0.02492275834083557,0.02804940938949585,0.018009688705205917,0.008017458952963352,0.03561723232269287,-0.02337479777634144,-0.035899873822927475,-0.06585336476564407,-0.02354017272591591,0.020286845043301582,0.01510187890380621,-0.00839539896696806,-0.004187019541859627,-0.022694390267133713,0.04400470480322838,-0.0675332322716713,0.0355147048830986,0.01852346770465374,-0.040737301111221313,0.0769585520029068,0.06982029229402542,-0.07836885005235672,0.005615871399641037,0.021462805569171906,-0.01978183165192604,0.05976158380508423,0.016058657318353653,-0.03767324239015579,0.004477774724364281,-0.0282420814037323,-0.04022640362381935,-0.06729121506214142,-0.06810100376605988,0.0732937604188919,-0.030987611040472984,0.019619908183813095,-0.06289125978946686,0.041609883308410645,0.07644375413656235,0.06819099187850952,0.03209569305181503,-0.07802581042051315,-0.07534939050674438,-0.06785476207733154,-0.003785220440477133,-0.04110421612858772,0.02784055471420288,-0.0016901600174605846,0.07446996867656708,-0.04406893253326416,0.03363152593374252,0.05503199249505997,-0.006491010542958975,-0.015927471220493317]},"cellActivationHidden":{"rows":20,"columns":20,"weights":[-0.009171536192297935,-0.06590311229228973,-0.06092064827680588,0.055772874504327774,0.03256920725107193,0.0114773940294981,0.005509294103831053,-0.07429695129394531,-0.016136419028043747,0.06375407427549362,0.02979828231036663,-0.019630733877420425,0.024694031104445457,0.042425137013196945,-0.019485721364617348,0.051498133689165115,-0.06477076560258865,0.039546649903059006,0.028064901009202003,-0.038201916962862015,0.04919201135635376,-0.030868306756019592,-0.05114893615245819,0.011451587080955505,-0.06320132315158844,0.005642147269099951,0.047810181975364685,0.014592491090297699,-0.04270264878869057,-0.06389997899532318,-0.04717487096786499,-0.027021991088986397,-0.0016512467991560698,0.06527980417013168,0.06634875386953354,-0.016286365687847137,0.0703907310962677,-0.07771265506744385,-0.05543817952275276,0.06560899317264557,-0.003496461780741811,-0.0066870516166090965,0.05408601462841034,-0.011929210275411606,-0.013040010817348957,0.029625574126839638,-0.04831579327583313,-0.07931191474199295,0.048520755022764206,-0.027574030682444572,0.07382317632436752,-0.025699559599161148,-0.0722593143582344,-0.054363757371902466,-0.014789270237088203,0.02866830676794052,-0.03909989446401596,-0.0017459951341152191,-0.043563440442085266,0.04120177403092384,0.012892407365143299,0.008576352149248123,-0.0029464648105204105,-0.013418911024928093,-0.01753518171608448,-0.028403084725141525,0.04752105847001076,0.033662207424640656,0.03181024268269539,0.07482317090034485,0.06128465011715889,-0.03704554960131645,0.06716521084308624,-0.0004770504601765424,0.024966301396489143,0.026756372302770615,-0.009378843009471893,-0.053922139108181,0.06572169810533524,-0.03977299854159355,-0.006624720524996519,-0.012887661345303059,-0.04823920875787735,0.012209163047373295,0.03418947383761406,0.06502752006053925,0.012091174721717834,-0.003946762066334486,-0.0769030973315239,0.0647144466638565,0.007836827076971531,0.057363808155059814,-0.006022565066814423,0.06120161712169647,-0.05813625827431679,-0.0033573394175618887,0.06039639934897423,0.004136946052312851,-0.0009576588636264205,0.053530335426330566,0.05538472160696983,-0.07920684665441513,-0.05413133651018143,0.0709829106926918,-0.0374777689576149,-0.021537648513913155,-0.013631830923259258,0.01161324791610241,-0.0007755882106721401,-0.07978568226099014,0.07388739287853241,0.05457121133804321,0.023209810256958008,0.06709660589694977,0.058562345802783966,0.0579417385160923,-0.010065470822155476,-0.03589809313416481,0.010784639976918697,-0.009430968202650547,-0.06990877538919449,0.033124424517154694,0.04393026977777481,-0.04922560974955559,0.022662969306111336,0.057130876928567886,0.05429542064666748,0.027586452662944794,0.021326595917344093,0.0514666922390461,0.06623143702745438,-0.03874298930168152,0.03267358988523483,-0.0735321044921875,-0.011604350991547108,-0.027151238173246384,0.07034885138273239,0.04592520743608475,-0.034602463245391846,-0.022380277514457703,0.07019837945699692,0.019715771079063416,0.06514058262109756,0.03740745037794113,0.032920245081186295,-0.04591458663344383,-0.05564301088452339,-0.051599327474832535,-0.07713973522186279,-0.04035699740052223,0.06995433568954468,-0.053669776767492294,-0.04941288009285927,0.057287707924842834,-0.05531807243824005,0.05052977055311203,0.07704935222864151,-0.03699427843093872,0.015119746327400208,-0.003521296428516507,-0.06577123701572418,-0.07286780327558517,0.0406513586640358,0.017560239881277084,-0.009198185056447983,0.01867634616792202,-0.05020567402243614,-0.0318443663418293,-0.048659853637218475,-0.05719935521483421,-0.06361693888902664,0.010203165002167225,0.0422297939658165,-0.024656102061271667,-0.04437405243515968,-0.018426723778247833,-0.027150781825184822,0.02072283998131752,-0.07510904222726822,0.0781385526061058,-0.0363403744995594,-0.07470367848873138,0.01700303703546524,-0.005115377716720104,0.030175235122442245,-0.07999233901500702,-0.028949320316314697,0.006769158411771059,0.05606428161263466,-0.06735143065452576,0.05654081702232361,0.05747032165527344,-0.07545846700668335,0.02775774896144867,-0.056030988693237305,0.01727653667330742,0.03141473978757858,-0.0725831389427185,0.025560323148965836,-0.006436541676521301,-0.013966298662126064,0.00652417354285717,0.020302414894104004,-0.04916158318519592,0.001940175425261259,0.05978379026055336,-0.05070716142654419,0.06260555237531662,-0.06251803040504456,0.02333531156182289,0.015626510605216026,-0.04887443408370018,0.007618945091962814,0.053498655557632446,0.02984008751809597,0.07423039525747299,0.053033437579870224,-0.013130411505699158,-0.011949504725635052,0.04880225658416748,0.0262371264398098,0.07389113306999207,0.06148452311754227,-0.05867145210504532,0.022362010553479195,0.0656353235244751,-0.03337062895298004,-0.06423266232013702,-0.05395474657416344,0.06549594551324844,0.02714722417294979,-0.04874724522233009,0.07482887804508209,0.05701727047562599,0.026256686076521873,-0.07860323786735535,-0.07878121733665466,-0.03667683154344559,-0.0051657636649906635,-0.029479801654815674,-0.03612939268350601,0.05894727259874344,0.06423741579055786,0.012148965150117874,0.06708003580570221,0.05930861830711365,0.030147066339850426,0.028918299823999405,-0.06317659467458725,-0.07810379564762115,-0.03538014739751816,-0.017491452395915985,-0.05695604160428047,0.04439498111605644,-0.07267280668020248,-0.03925019130110741,0.06755080819129944,-0.02020381949841976,0.02089136280119419,-0.04697466269135475,0.0603424534201622,-0.06466580182313919,-0.04622921347618103,0.03964856266975403,0.0034012040123343468,-0.00028012710390612483,-0.05667036399245262,-0.030111273750662804,-0.06049336493015289,-0.05802476033568382,0.02056666649878025,-0.02557903528213501,-0.05186079442501068,0.04428260400891304,-0.07802373915910721,-0.07532251626253128,-0.01725739799439907,-0.02568652667105198,0.013626511208713055,0.0039237262681126595,0.04150979593396187,-0.00885528139770031,0.024159986525774002,-0.037112873047590256,0.01174033060669899,0.06301429867744446,-0.0692526176571846,0.05133728310465813,-0.021333912387490273,0.01385961752384901,0.07079630345106125,0.05795472487807274,0.02721787430346012,0.0661853551864624,-0.011969219893217087,0.007563553750514984,0.01613045670092106,0.0181057658046484,-0.05742664262652397,0.038105543702840805,0.0637822300195694,0.058316126465797424,0.0652521476149559,0.023074790835380554,-0.026735208928585052,0.03317795321345329,-0.03366091474890709,0.020110957324504852,0.06964441388845444,0.039418790489435196,-0.06106782332062721,0.02892734669148922,0.06947718560695648,-0.008426948450505733,0.06305538862943649,-0.04265354946255684,0.02490084618330002,-0.00029924605041742325,0.04244627058506012,0.04116890951991081,0.018089745193719864,-0.048674993216991425,0.04842766374349594,-0.02632950432598591,-0.01585010625422001,0.02515570819377899,0.03270220756530762,-0.0007892916328273714,-0.0625419095158577,-0.05592282861471176,-0.07122886180877686,-0.06866834312677383,0.05125327780842781,-0.0318223275244236,-0.018547553569078445,-0.022045107558369637,-0.03862076625227928,0.07677316665649414,-0.039740294218063354,-0.07317562401294708,0.026317231357097626,-0.05150345712900162,-0.051832567900419235,0.04116656631231308,-0.03718804195523262,0.029418833553791046,-0.046433717012405396,-0.0121096046641469,0.01811378076672554,0.06292901933193207,0.025136524811387062,0.045395441353321075,0.05127912014722824,-0.0027633022982627153,0.008833525702357292,-0.015562370419502258,0.01661452278494835,0.07240860164165497,-0.02178882248699665,0.002338908612728119,-0.06577856838703156,-0.006866209674626589,0.018106326460838318,0.07519867271184921,-0.049747955054044724,-0.02362760342657566,0.07778660953044891,0.047265879809856415,-0.028512757271528244,0.025747379288077354,-0.0060261813923716545,-0.010883432812988758,-0.0621793158352375,0.062136661261320114,-0.05162382498383522,-0.020560692995786667,0.07287775725126266,0.022940846160054207,0.06123664230108261,-0.025118540972471237,-0.03652631863951683,-0.04425973445177078,0.006344985216856003,-0.057951800525188446,0.03146917372941971,-0.05056190863251686,-0.011333142407238483,-0.03870050609111786,-0.050754375755786896,-0.007826154120266438,0.022326812148094177,-0.07836763560771942,0.054344434291124344,0.07422082871198654,0.0030649497639387846,0.03852027654647827,-0.07091489434242249,0.0035057109780609608,-0.06266188621520996,0.05627109855413437]},"cellActivationBias":{"rows":20,"columns":1,"weights":[0,0,0,0,0,0,0,0,0,0,0,0,0,0,0,0,0,0,0,0]}},{"inputMatrix":{"rows":20,"columns":20,"weights":[0.02116360515356064,0.004987106192857027,0.06668327003717422,-0.020229240879416466,-0.005239719990640879,-0.03621623292565346,-0.030094709247350693,-0.056537874042987823,0.027308210730552673,-0.05764799565076828,-0.07211512327194214,-0.015509257093071938,0.03518747165799141,-0.03719429671764374,0.07054634392261505,-0.032848529517650604,-0.0664786621928215,0.042098648846149445,-0.02707093209028244,0.07389933615922928,0.03218277171254158,-0.06782149523496628,0.0057980758138000965,-0.07471518218517303,-0.023160327225923538,-0.009340550750494003,-0.013797983527183533,-0.03825099393725395,-0.011781512759625912,0.0689726173877716,0.029557136818766594,0.032376307994127274,0.07324311882257462,-0.07158654928207397,-0.026331869885325432,0.02554670162498951,-0.059024032205343246,-0.04481358081102371,-0.0475994274020195,-0.07639482617378235,-0.04898788407444954,0.02353682741522789,-0.06771042943000793,-0.03545355051755905,0.011911025270819664,0.02357253059744835,-0.05860784277319908,-0.01655147783458233,-0.009173942729830742,0.04034450277686119,0.04398243874311447,-0.019548561424016953,-0.0633290708065033,0.05406796932220459,0.010501887649297714,0.051312629133462906,-0.06752479076385498,-0.055356770753860474,-0.03765471652150154,0.05782592296600342,0.06251086294651031,-0.005576909985393286,-0.0005499091930687428,0.05012958124279976,-0.05905524268746376,0.01200022455304861,0.07451063394546509,0.0452725924551487,-0.027243301272392273,0.05838451907038689,0.03888929635286331,0.02540569007396698,-0.02168343961238861,-0.005383749026805162,-0.055630795657634735,0.05662718787789345,0.0735817700624466,-0.06220422312617302,-0.032688241451978683,-0.0321723148226738,-0.0767032653093338,0.049773380160331726,0.004305501934140921,-0.012866170145571232,-0.055584948509931564,-0.06693504005670547,0.062013525515794754,0.028982684016227722,0.03537740558385849,0.04878699779510498,-0.06296246498823166,-0.0075260610319674015,-0.013513993471860886,-0.04710910841822624,0.06456156820058823,0.011762947775423527,0.018673036247491837,0.06119050830602646,-0.0220973938703537,-0.03567737713456154,0.021983159705996513,-0.03843550384044647,0.021701188758015633,0.049965959042310715,0.02485816553235054,0.042046960443258286,-0.05215705186128616,-0.05434305593371391,0.0159883052110672,-0.013938048854470253,0.008354291319847107,0.04492496699094772,-0.06223428249359131,-0.0017777319299057126,-0.009511946700513363,0.008678789250552654,0.040805134922266006,-0.02752469852566719,0.044261615723371506,0.01907636784017086,-0.01705031841993332,-0.0667705163359642,-0.04219279810786247,-0.06081002950668335,-0.02416386641561985,0.05209605395793915,-0.03126965090632439,0.0207142885774374,-0.03439991548657417,0.03472624346613884,-0.01601403020322323,-0.0686294212937355,0.06437937915325165,0.0784391388297081,-0.05349328741431236,0.031125076115131378,0.0285083819180727,0.0018880581483244896,-0.047489337623119354,-0.06278162449598312,-0.0690467581152916,-0.0445234440267086,0.03906281664967537,0.05567093566060066,-0.05318917706608772,0.05539528280496597,-0.050247348845005035,0.027617881074547768,-0.024378817528486252,-0.03583693131804466,-0.024663308635354042,0.03901982679963112,0.03620240092277527,0.07667694240808487,-0.034989431500434875,-0.038227520883083344,-0.05629796162247658,0.062206171452999115,-0.043519727885723114,-0.07119745761156082,-0.04610792174935341,-0.020262138918042183,0.0007080823415890336,-0.012938275933265686,-0.06346510350704193,0.07997050136327744,0.050046276301145554,0.04299316182732582,0.024392522871494293,-0.06988339871168137,-0.06294794380664825,-0.001378775341436267,0.025018535554409027,-0.04282161965966225,0.032306425273418427,-0.056031424552202225,0.03923506289720535,-0.04450613632798195,-0.07880108803510666,-0.07198478281497955,0.04419490322470665,0.019387880340218544,0.03556640446186066,-0.03320183977484703,0.019861610606312752,-0.014573292806744576,0.040207792073488235,-0.0786115899682045,-0.02653237245976925,0.04018935561180115,0.048943012952804565,0.005731993354856968,0.02859138324856758,-0.00635768286883831,-0.030448615550994873,0.046792373061180115,0.026981834322214127,0.06309523433446884,0.03218431398272514,-0.012264971621334553,0.044838543981313705,-0.06737114489078522,-0.01923821121454239,-0.025356099009513855,-0.07706525176763535,-0.07362828403711319,-0.037731945514678955,0.059452734887599945,0.008692742325365543,-0.03625234588980675,-0.016476847231388092,-0.07237745076417923,0.0036381324753165245,-0.0239372868090868,0.04043663293123245,0.07838757336139679,-0.00831923820078373,-0.06637948006391525,-0.028842540457844734,0.03525390475988388,-0.012770481407642365,-0.030239524319767952,-0.02804497815668583,0.07607133686542511,0.005211680196225643,-0.01410323940217495,-0.01563239097595215,-0.0005476867663674057,0.05119265988469124,-0.061077944934368134,-0.06275389343500137,0.0790671706199646,-0.06712444126605988,0.021144796162843704,0.04520978033542633,-0.0345471166074276,0.007121792528778315,-0.021636417135596275,0.0048474944196641445,0.05936603620648384,-0.012753311544656754,0.05023011192679405,-0.04471608251333237,-0.03184055909514427,0.0267129298299551,0.008158157579600811,-0.028738146647810936,0.03169174864888191,0.0567883737385273,-0.0015424712328240275,-0.0731855258345604,0.06728896498680115,-0.055355459451675415,-0.016000544652342796,-0.020609891042113304,0.07448559999465942,0.037427254021167755,-0.0382697656750679,0.04816576465964317,-0.03805578500032425,0.07737923413515091,-0.07210837304592133,0.036338143050670624,0.07844033092260361,-0.03862781450152397,0.02435167506337166,0.07715220004320145,-0.07426005601882935,-0.07038772851228714,-0.048015035688877106,-0.057455919682979584,-0.03587224334478378,0.017140235751867294,-0.05674175173044205,0.07043325901031494,0.06096428260207176,0.01126070972532034,0.06329741328954697,-0.02197478897869587,0.06234608218073845,-0.04931410774588585,-0.06980425119400024,-0.033386871218681335,-0.06159833446145058,-0.060218967497348785,0.04345328360795975,-0.02478104643523693,0.031229441985487938,0.00809918250888586,-0.06542077660560608,0.049058862030506134,-0.024847306311130524,0.04190478101372719,-0.055462632328271866,-0.048247262835502625,0.0653143897652626,0.006044374778866768,0.038887497037649155,-0.0025058116298168898,0.0018373923376202583,0.02419222518801689,0.07206527143716812,0.03138292208313942,0.07691983878612518,0.0258018858730793,0.07314816862344742,-0.058958329260349274,-0.02060513384640217,-0.06999743729829788,0.03216033801436424,0.01227562315762043,-0.0353926382958889,0.043453771620988846,-0.07408705353736877,0.013275325298309326,-0.0029328938107937574,0.025032086297869682,0.001070791739039123,-0.0792386382818222,0.008103905245661736,-0.03464563935995102,0.07988198101520538,0.045972127467393875,0.03261830285191536,0.04118157923221588,-0.004724539816379547,0.049738701432943344,0.0024720611982047558,-0.002112232381477952,0.040261026471853256,-0.060447052121162415,-0.05498933792114258,0.0690499097108841,0.07188457995653152,0.027955716475844383,0.06910912692546844,-0.035395298153162,0.021734105423092842,-0.01629563421010971,-0.07745825499296188,0.001322686905041337,0.05450533702969551,-0.055152446031570435,0.07353048026561737,0.0708484873175621,0.02229207381606102,-0.034303490072488785,0.059312060475349426,-0.019971691071987152,0.01053546741604805,0.0585067979991436,0.06235158443450928,0.008802121505141258,0.03504699468612671,0.06766074895858765,-0.0792396068572998,0.022204728797078133,0.057833775877952576,0.01472324226051569,0.01949218474328518,0.021366113796830177,-0.019649479538202286,0.021877562627196312,-0.0014020587550476193,0.014192300848662853,-0.027794424444437027,-0.048623256385326385,-0.0415634848177433,-0.06208349019289017,0.051001813262701035,0.04979021102190018,0.06705940514802933,-0.06515828520059586,0.02568766288459301,-0.07358624041080475,0.05954686179757118,0.03579491376876831,-0.044289637356996536,0.001953983446583152,-0.0704997107386589,0.028930457308888435,-0.04528626427054405,0.053125884383916855,-0.07970281690359116,0.02049116976559162,-0.04087097942829132,0.013761254027485847,-0.023118745535612106,0.0698334351181984,-0.026261426508426666,-0.04762331768870354,-0.032845571637153625,-0.04295922815799713,-0.06216280907392502,-0.025333547964692116,-0.017387710511684418,-0.014370529912412167,0.002847853349521756,0.03910219669342041,0.026642505079507828]},"inputHidden":{"rows":20,"columns":20,"weights":[-0.07958127558231354,-0.055317237973213196,0.06142755225300789,-0.05506967753171921,0.050799887627363205,-0.0037906731013208628,-0.022104760631918907,-0.015158209949731827,-0.05325498431921005,0.027464158833026886,0.003929806407541037,-0.02650717832148075,0.07036973536014557,-0.06716793775558472,0.038178298622369766,0.023125821724534035,0.010679083876311779,-0.04707006365060806,-0.06576287001371384,0.00043444891343824565,0.06654930859804153,0.02913312427699566,-0.023695485666394234,0.02908509038388729,-0.0669684037566185,-0.03446394205093384,0.0426577664911747,-0.02840792015194893,-0.006158468779176474,0.06888963282108307,-0.02911245822906494,0.009311393834650517,-0.03975293040275574,-0.061895888298749924,0.04715704917907715,-0.036198586225509644,-0.04422060400247574,0.013690183870494366,-0.039372485131025314,0.02409798465669155,0.07354141026735306,-0.056382302194833755,0.051650695502758026,0.0396914929151535,0.07657694816589355,-0.034017350524663925,0.07390596717596054,0.03377100080251694,0.07467063516378403,0.0033542588353157043,0.0039026441518217325,0.005705653224140406,-0.0012717351783066988,0.03228104114532471,0.044683437794446945,-0.018842123448848724,0.054810378700494766,0.01821012794971466,-0.049190036952495575,0.0279777143150568,0.032055895775556564,0.033441271632909775,0.06428338587284088,0.07160291075706482,-0.058773282915353775,0.05884069576859474,0.006060456391423941,-0.07775792479515076,-0.049103036522865295,-0.04832996428012848,0.028126252815127373,-0.030065368860960007,-0.02694983035326004,0.026730302721261978,-0.034346889704465866,-0.06087509170174599,-0.045815952122211456,0.01472498569637537,-0.0785752534866333,-0.036645397543907166,-0.028894688934087753,-0.0038969339802861214,-0.05736799165606499,0.0395364947617054,-0.002346650930121541,0.0036096626427024603,0.0798858106136322,0.07540903985500336,0.0650034099817276,0.036755308508872986,-0.06581830233335495,0.0743241012096405,-0.057292867451906204,0.01591934822499752,-0.04557133466005325,-0.007307665888220072,-0.0007743026362732053,-0.051977287977933884,-0.011413264088332653,-0.019155099987983704,-0.02546050399541855,-0.061910685151815414,0.04644068703055382,0.0594913475215435,0.028670497238636017,0.05038684234023094,0.07177215069532394,-0.0370040237903595,-0.05166119337081909,-0.05011514201760292,-0.002140455413609743,0.06790030747652054,-0.00009184003283735365,-0.07381708920001984,-0.07682141661643982,-0.046111274510622025,0.06858626753091812,0.031991470605134964,-0.06179822236299515,-0.04146469756960869,0.043870944529771805,-0.05091562494635582,0.06588485836982727,0.06267096102237701,-0.010452091693878174,-0.05093003064393997,0.06607964634895325,-0.06403099000453949,0.07763168215751648,0.06587934494018555,0.04448220878839493,-0.004708398133516312,-0.010668070986866951,-0.07435241341590881,-0.02069421298801899,-0.05655459687113762,-0.006438101641833782,0.0489700622856617,-0.02603904902935028,-0.016168594360351562,-0.06953699886798859,-0.05524855852127075,-0.06417230516672134,-0.06833329796791077,0.03727426007390022,-0.07892878353595734,-0.044664718210697174,0.040865231305360794,-0.04694792255759239,-0.07904396206140518,-0.032483723014593124,0.010222355835139751,-0.06531086564064026,-0.07144612073898315,0.013257304206490517,0.07746861129999161,0.06483864784240723,0.022813009098172188,0.07908374071121216,0.059573449194431305,0.07074346393346786,0.04487655311822891,-0.02320426143705845,0.00848007295280695,0.06883547455072403,0.06981024891138077,-0.021823132410645485,-0.027136214077472687,0.047175079584121704,0.05273905396461487,-0.04835078865289688,0.03977661952376366,0.06708212941884995,-0.0028335535898804665,-0.04029238224029541,0.07601740956306458,0.0678844302892685,-0.02034030295908451,0.014041445218026638,0.03261874243617058,0.05114747956395149,0.03327590599656105,-0.037012193351984024,-0.04147781804203987,0.07130055874586105,-0.017267920076847076,-0.039425451308488846,-0.039490118622779846,-0.017669135704636574,0.05385784059762955,-0.001646503689698875,0.028884658589959145,-0.05694353207945824,0.053638674318790436,-0.06015291437506676,0.017280641943216324,-0.02771070785820484,0.023030269891023636,0.04443342611193657,-0.014510230161249638,-0.04218825325369835,0.020563486963510513,-0.012925110757350922,0.0756521075963974,-0.05874665081501007,-0.04188986122608185,-0.015750762075185776,0.07947583496570587,-0.05868719518184662,-0.05434822291135788,0.052647665143013,0.04172758758068085,-0.003215610049664974,-0.06555312126874924,-0.06219346076250076,0.014913207851350307,-0.06793305277824402,0.06479067355394363,-0.03342090919613838,-0.012830719351768494,-0.0440179817378521,-0.02823774330317974,-0.03596099466085434,0.016856757923960686,0.03412739560008049,-0.005913079250603914,-0.04234815761446953,-0.040795087814331055,-0.015523102134466171,0.03155357390642166,0.06450964510440826,-0.05583067983388901,-0.012847715988755226,-0.07436499744653702,-0.014079665765166283,-0.029056869447231293,-0.020199043676257133,0.04336938634514809,0.07961142063140869,-0.06588498502969742,-0.05141386389732361,-0.055652767419815063,-0.06418266147375107,0.062487922608852386,0.02543472871184349,-0.022018317133188248,0.06009943038225174,-0.07189875096082687,-0.016417302191257477,0.032188814133405685,0.06915556639432907,0.045853015035390854,-0.053501661866903305,0.07278623431921005,0.02387097291648388,-0.014195171184837818,0.07289405912160873,-0.06227469444274902,-0.06208324432373047,-0.06956077367067337,-0.02760401926934719,-0.015684468671679497,0.04263126105070114,0.03360201045870781,-0.04454774409532547,-0.042766597121953964,-0.0644848421216011,-0.0038771943654865026,0.06385870277881622,-0.04132326692342758,-0.009803740307688713,-0.04489869251847267,-0.023916566744446754,-0.046388428658246994,-0.007579953875392675,-0.0025790550280362368,-0.04673413932323456,0.04876948520541191,0.0667416974902153,-0.03542817384004593,0.04071640968322754,-0.04570242390036583,0.06607212126255035,-0.008860250934958458,-0.020092109218239784,-0.07589032500982285,-0.07522793859243393,0.00327567127533257,0.024676000699400902,-0.0026274232659488916,0.014573370106518269,-0.05747852846980095,0.04009394720196724,-0.044893763959407806,0.07595161348581314,-0.002670789137482643,-0.006759758573025465,0.03125239908695221,0.07693979889154434,0.011322762817144394,0.0037284265272319317,-0.00923669058829546,-0.048418182879686356,-0.06205899640917778,0.07306903600692749,0.006563441827893257,0.0012932202080264688,-0.0646132230758667,-0.03881654888391495,-0.03291578218340874,-0.03522542491555214,0.07134630531072617,0.0767420083284378,0.0383969247341156,0.04174376651644707,0.01293868850916624,-0.03846792131662369,-0.04048488661646843,0.015385015867650509,-0.074031300842762,-0.020328335464000702,0.017558742314577103,0.07429645955562592,0.0038162788841873407,0.03459567576646805,0.015176442451775074,-0.002259934786707163,0.023003926500678062,-0.05050928145647049,-0.030040288344025612,-0.023814063519239426,0.05414775386452675,0.008533674292266369,0.053055305033922195,-0.02928241714835167,0.031914371997117996,-0.004426258150488138,-0.015289808623492718,-0.04638444632291794,0.019009986892342567,-0.07690462470054626,0.0022390575613826513,0.013854867778718472,0.04985171929001808,-0.05980239063501358,-0.06862865388393402,0.07921019941568375,-0.07684416323900223,-0.01212969608604908,-0.013411693274974823,0.07652471214532852,-0.032482415437698364,0.06235478073358536,-0.06995537132024765,0.0507219135761261,-0.028501804918050766,0.041602615267038345,-0.06993239372968674,0.006258494220674038,0.07111325114965439,-0.015572850592434406,0.027427926659584045,-0.07772158086299896,-0.028338832780718803,-0.03998039290308952,-0.027683692052960396,0.03779570758342743,0.008286693133413792,0.07390197366476059,0.04661406949162483,-0.028017321601510048,0.06451985239982605,-0.06744137406349182,0.009035482071340084,-0.07227965444326401,-0.07135384529829025,0.04652860388159752,0.053803425282239914,0.02881745621562004,-0.009131678380072117,-0.0726882740855217,-0.05438706651329994,-0.0013841749168932438,-0.018206439912319183,0.03609156981110573,0.049022044986486435,-0.06475026160478592,-0.0779772624373436,-0.03504231572151184,-0.043041620403528214,-0.04128236323595047,0.026371873915195465,-0.0336185097694397,0.004162471741437912,0.011235663667321205,-0.00042115390533581376,0.053999174386262894,0.07258451730012894,-0.05549798905849457,0.050718631595373154]},"inputBias":{"rows":20,"columns":1,"weights":[0,0,0,0,0,0,0,0,0,0,0,0,0,0,0,0,0,0,0,0]},"forgetMatrix":{"rows":20,"columns":20,"weights":[-0.0630369782447815,0.04338260740041733,0.0019964477978646755,-0.0480550117790699,0.06769745796918869,-0.07647684216499329,0.0386926531791687,-0.017494680359959602,0.01857876405119896,-0.013710354454815388,0.06927897036075592,0.010419485159218311,0.031524159014225006,-0.051186006516218185,0.07680153846740723,-0.059986479580402374,0.03038586489856243,0.010361080057919025,-0.06513594835996628,-0.008350067771971226,0.07442397624254227,-0.029477981850504875,0.01755455508828163,0.03127751499414444,0.004570839926600456,-0.008191675879061222,0.03985481709241867,0.00968882068991661,-0.03071732446551323,0.0792207419872284,0.05535019561648369,-0.017378076910972595,-0.01575147919356823,0.013430777937173843,-0.06134863197803497,0.018641740083694458,0.018437692895531654,-0.06661295145750046,-0.07991154491901398,-0.038544151932001114,0.04076338931918144,0.062169674783945084,-0.06825251877307892,-0.059931814670562744,-0.03828110918402672,0.015177630819380283,0.05150705575942993,-0.03455737978219986,0.02195848897099495,-0.023658568039536476,-0.033153194934129715,0.04301254078745842,0.01939624920487404,-0.06921576708555222,0.03638344258069992,-0.06493675708770752,0.053924910724163055,-0.05514177307486534,-0.012042205780744553,0.030571479350328445,-0.05615662410855293,0.014224407263100147,0.040184564888477325,0.00229390780441463,0.07777681201696396,-0.009827001951634884,-0.0008785639074631035,0.06947465986013412,0.029040226712822914,-0.0415022186934948,-0.027637524530291557,-0.040246326476335526,-0.0755709782242775,0.07959655672311783,0.004885511472821236,0.04597320035099983,-0.07195817679166794,-0.0773371160030365,0.0014085491420701146,0.042721543461084366,0.06644599139690399,-0.0492723248898983,-0.04567905515432358,-0.009635764174163342,-0.03029981628060341,-0.07336366176605225,0.0246265958994627,0.0014742505736649036,0.030120041221380234,0.024569159373641014,0.05002185329794884,-0.06407494843006134,-0.06509479880332947,0.054884813725948334,0.07932081818580627,-0.06403771787881851,0.01179638784378767,-0.010910818353295326,-0.025818906724452972,0.05936732888221741,0.040104374289512634,-0.0013416216243058443,-0.04008631780743599,-0.06566966325044632,-0.07734324783086777,0.01989043317735195,-0.062384556978940964,0.0765557587146759,-0.0006137161399237812,0.07477562874555588,0.02453138679265976,0.04147631675004959,-0.053907085210084915,0.070318304002285,0.06263308227062225,0.05146754905581474,0.008219694718718529,0.012560478411614895,0.01983639784157276,-0.004924956243485212,0.07602249085903168,-0.04584812745451927,-0.05971468240022659,-0.06684719026088715,-0.05913996696472168,0.06257601082324982,0.013642336241900921,0.07614032179117203,0.031006619334220886,-0.007984061725437641,-0.05060472711920738,-0.03341091051697731,-0.014779872260987759,0.06014716625213623,-0.01282915286719799,0.013879777863621712,0.06346376240253448,-0.021704575046896935,0.03761301189661026,-0.05202322453260422,0.039053939282894135,0.013728219084441662,-0.02391190640628338,0.0041098459623754025,-0.06166548281908035,-0.027876704931259155,-0.03935537114739418,0.06210906803607941,0.06855686753988266,0.06577121466398239,0.018655521795153618,-0.01653747446835041,-0.04642229527235031,0.07692515850067139,-0.043315012007951736,-0.018498599529266357,0.03871160373091698,-0.06633297353982925,0.05426982045173645,-0.06706836819648743,-0.06491581350564957,-0.02306864969432354,-0.05261702835559845,0.05857184901833534,0.039790138602256775,-0.0659518912434578,0.019660362973809242,-0.019731657579541206,0.01266281958669424,-0.04432821646332741,0.023039227351546288,0.0030905932653695345,-0.045581378042697906,-0.04405146464705467,0.0461096353828907,-0.07313848286867142,-0.071859210729599,0.03987012431025505,-0.03257875517010689,-0.004489697515964508,-0.01453540101647377,-0.02658742479979992,-0.05168651416897774,-0.0652070939540863,-0.01197570189833641,0.06644675135612488,0.01244987640529871,-0.056604817509651184,0.04824032261967659,-0.06461986899375916,-0.0210084430873394,0.01298457756638527,-0.0571371465921402,-0.008072934113442898,0.012968020513653755,0.05627962574362755,0.02546008862555027,0.06949374079704285,0.07250041514635086,0.03205914795398712,0.07921897619962692,-0.022683236747980118,-0.06390859931707382,-0.07243409752845764,0.04992971196770668,-0.0409555621445179,-0.02405121549963951,-0.04308579862117767,-0.018564511090517044,0.0749286413192749,-0.02674187161028385,0.05506657436490059,-0.06625979393720627,-0.0027251869905740023,-0.0327623151242733,-0.04669048264622688,0.05735497921705246,0.0726039931178093,-0.01061654556542635,-0.07575254887342453,-0.04853349179029465,0.07393460720777512,0.015141970477998257,0.00520965363830328,-0.03348519653081894,-0.03423386439681053,0.07449409365653992,0.019845031201839447,-0.020153900608420372,0.07364702969789505,0.030567076057195663,-0.011860501021146774,-0.03649180382490158,0.04532695561647415,-0.0011343202786520123,-0.058150891214609146,0.04161896929144859,0.022356363013386726,0.011093195527791977,0.004448103252798319,-0.018085870891809464,0.03127163648605347,0.009506690315902233,-0.006958650890737772,-0.04649967700242996,-0.0699261799454689,0.00777768436819315,0.05731798708438873,0.0022720114793628454,0.06982505321502686,0.022213513031601906,0.06841672211885452,-0.05384640395641327,0.06626787781715393,-0.014791781082749367,0.03469992056488991,-0.043593503534793854,0.05411801114678383,0.03708573058247566,0.052710145711898804,-0.02442590333521366,-0.06123633310198784,0.039616335183382034,0.00019399890152271837,-0.03486636281013489,-0.019575316458940506,-0.04572252184152603,0.05259469151496887,-0.03879889100790024,0.06479546427726746,0.05956839397549629,-0.017786191776394844,-0.03970205411314964,0.002983449026942253,0.06113129109144211,-0.07852965593338013,-0.0015543820336461067,0.060882750898599625,0.02262773923575878,-0.018024975433945656,-0.04745670408010483,-0.003768383292481303,-0.025221899151802063,0.008089421316981316,0.05268104746937752,-0.039924219250679016,-0.005361063405871391,0.0241999551653862,0.007366435136646032,-0.03296622633934021,-0.05898767709732056,-0.05478019267320633,-0.04342570900917053,-0.030567601323127747,0.04607291519641876,0.03948543965816498,-0.015235327184200287,