{"type":"LSTM","options":{"inputSize":32,"inputRange":32,"hiddenLayers":[20,20],"outputSize":32,"decayRate":0.999,"smoothEps":1e-8,"regc":0.000001,"clipval":5,"maxPredictionLength":100,"dataFormatter":{"indexTable":{"w":0,"h":1,"a":2,"t":3," ":4,"d":5,"o":6,"e":7,"s":8,"y":9,"u":10,"r":11,"c":12,"m":13,"p":14,"n":15,"?":16,"W":17,"i":18,",":19,"g":20,"l":21,"B":22,"T":23,"I":24,".":25,"'":26,"b":27,"!":28,"stop-input":29,"start-output":30,"unrecognized":31},"characterTable":{"0":"w","1":"h","2":"a","3":"t","4":" ","5":"d","6":"o","7":"e","8":"s","9":"y","10":"u","11":"r","12":"c","13":"m","14":"p","15":"n","16":"?","17":"W","18":"i","19":",","20":"g","21":"l","22":"B","23":"T","24":"I","25":".","26":"'","27":"b","28":"!","29":null,"30":null,"31":null},"values":[{"input":"what does your company do?","output":"We are a construction company, nothing much , nothing less"},{"input":"your company do?","output":"We are a construction company, nothing much , nothing less"},{"input":"who are you?","output":"We are Blue Twitch Institute. We are a construction company, nothing much , nothing less"},{"input":"what's the idea?","output":"We are a construction company, nothing much , nothing less"},{"input":"whats the idea?","output":"We are a construction company, nothing much , nothing less"},{"input":"what's the idea?","output":"We are a construction company, nothing much , nothing less"},{"input":"The world is a terrible place!","output":"sad"}],"characters":["w","h","a","t"," ","d","o","e","s","y","u","r","c","m","p","n","?","W","i",",","g","l","B","T","I",".","'","b","!","stop-input","start-output","unrecognized"],"specialIndexes":[29,30,31]}},"trainOpts":{"iterations":1000,"errorThresh":0.005,"log":true,"logPeriod":10,"learningRate":0.01,"callbackPeriod":10,"timeout":50000,"momentum":0.1},"input":{"rows":33,"columns":32,"weights":[0.3340822160243988,-0.02922993339598179,-0.7537057399749756,-1.7249126434326172,-0.08440109342336655,0.172928586602211,-0.2157985121011734,-0.6820774674415588,0.23644140362739563,1.8577498197555542,1.5478293895721436,-0.16159923374652863,1.7383679151535034,0.007723858114331961,0.6632688641548157,0.9430404305458069,0.3204953670501709,-0.9251654148101807,0.3628222644329071,-1.4401196241378784,0.16207365691661835,-1.2420421838760376,-0.04675339162349701,-0.48327288031578064,-1.883409023284912,-0.3575635850429535,1.5202637910842896,-0.07504616677761078,0.04741763696074486,0.6752967834472656,0.6123735308647156,0.0035867493133991957,-0.5914801359176636,0.46712779998779297,0.7750855088233948,-0.7667855620384216,-0.057874586433172226,1.8588358163833618,-0.6526069641113281,-0.1049165278673172,0.4334632456302643,-1.3454622030258179,-0.8929519057273865,-1.0215606689453125,-2.430987596511841,1.2088457345962524,-0.4493478834629059,-1.4443001747131348,1.330830693244934,-0.0210825577378273,-1.1858052015304565,-0.7436206936836243,2.1325161457061768,0.3564329743385315,1.2525407075881958,-0.9309174418449402,1.04388427734375,-0.05448009818792343,-0.21485166251659393,1.1162878274917603,0.5877979397773743,-0.3546874523162842,-0.07111003994941711,-0.6449454426765442,-0.5707200169563293,-0.37885627150535583,1.0493433475494385,-1.291657567024231,0.6245405673980713,-0.7294714450836182,0.6293662190437317,1.033324956893921,0.2648601830005646,-0.11276831477880478,-1.2362104654312134,-0.44901564717292786,-0.08746474236249924,0.3095133304595947,0.6778358221054077,1.112141489982605,-0.6694273352622986,0.1418503373861313,-0.9492771625518799,-0.8076409101486206,1.0643000602722168,-1.3949004411697388,0.48427098989486694,0.48347339034080505,0.014452895149588585,-0.6246887445449829,-0.013954409398138523,-0.18351559340953827,-0.7516990900039673,-1.0460671186447144,0.3775221109390259,-0.1722629815340042,-0.03552497550845146,-0.4202836751937866,-0.34312859177589417,0.019403621554374695,-1.3305363655090332,-0.5895176529884338,-0.6838076114654541,-0.29747435450553894,0.29113900661468506,-0.8221079111099243,-0.23173309862613678,1.240043044090271,-0.5445759892463684,-1.14125657081604,0.43641868233680725,-1.017188310623169,-0.2636246681213379,0.9424011707305908,1.1584076881408691,-0.21400481462478638,-1.578163981437683,1.7520930767059326,-0.21281403303146362,0.505113422870636,-0.1489957720041275,0.8999044895172119,-1.1428345441818237,-0.8285684585571289,-0.8548805117607117,-1.1130813360214233,0.42272746562957764,0.25239863991737366,-0.487539678812027,-0.3921304941177368,0.1115335151553154,0.169528529047966,0.45357659459114075,-0.17355753481388092,0.6782147884368896,-0.9050759077072144,0.6602975130081177,1.220483660697937,2.0129623413085938,1.4754923582077026,-0.2132987678050995,-1.4171476364135742,0.262269526720047,0.30808621644973755,-0.20844675600528717,-0.37489205598831177,-0.2854562997817993,0.0879659354686737,-0.6873300075531006,-1.2461495399475098,-0.12363185733556747,0.8164940476417542,-0.4081924557685852,-0.17013195157051086,2.8103864192962646,-0.1898040920495987,0.17832820117473602,-0.17176784574985504,0.46348902583122253,0.5283730030059814,0.9825001358985901,0.33350205421447754,0.35311299562454224,1.1664446592330933,0.30643463134765625,1.2865498065948486,0.8642637729644775,0.2589606046676636,0.3210272490978241,-1.2250031232833862,0.4604077935218811,-0.5641351938247681,-0.45188596844673157,0.8005553483963013,-1.0903278589248657,-0.25568869709968567,0.5528034567832947,-0.8345686197280884,-0.17677420377731323,1.2425024509429932,1.5383878946304321,0.8617036938667297,0.43298250436782837,-0.9146561622619629,0.37294819951057434,0.8466300964355469,0.4355262815952301,0.4536151587963104,0.4297961890697479,0.9721041321754456,-0.6363550424575806,-1.0686979293823242,0.025504108518362045,-0.87935870885849,0.8671095371246338,-0.4080255329608917,1.3902432918548584,-0.330445259809494,0.3847419321537018,1.3678041696548462,-0.7322009801864624,0.28573164343833923,-1.3663132190704346,-1.4042370319366455,-0.14037157595157623,1.1173640489578247,0.02230026386678219,1.0773965120315552,0.32761529088020325,0.3247517943382263,-1.7593282461166382,-0.09081685543060303,0.27832916378974915,-0.6110367774963379,1.0270851850509644,0.6154386401176453,-0.17937006056308746,-0.6443663835525513,-1.132117509841919,-0.5637454986572266,-1.3081471920013428,-0.9252458214759827,0.21075285971164703,0.40813305974006653,-0.8223096132278442,-1.3291826248168945,-0.15118184685707092,-1.1884386539459229,-0.9684082269668579,-1.4844188690185547,0.2630292475223541,-0.16318711638450623,0.11570776998996735,-0.2257532775402069,-0.9322243928909302,0.4943983554840088,-0.6586453318595886,-0.0024149573873728514,1.470300555229187,0.4201669991016388,-1.5396153926849365,1.5930547714233398,1.1736232042312622,-0.9503946304321289,-1.7237956523895264,0.029561752453446388,-0.4124554693698883,1.5762659311294556,-1.0743749141693115,-0.970339298248291,0.11558490991592407,-2.3915059566497803,-2.886249303817749,-2.2311315536499023,-0.13778792321681976,-0.39595872163772583,0.5676475167274475,1.5159451961517334,0.8928994536399841,0.08806009590625763,-0.3923971354961395,-0.7113698720932007,-1.4243537187576294,0.9922186732292175,0.6957715749740601,-0.8322340846061707,-1.1801742315292358,1.3150705099105835,0.1071164458990097,-0.911714494228363,0.004231592640280724,-0.3488624691963196,-0.258812814950943,0.3020975887775421,0.6063403487205505,-0.1763211488723755,0.8528129458427429,0.0826154574751854,-0.351310670375824,0.29410138726234436,0.7612689137458801,-0.18775902688503265,-0.9241849780082703,0.28206750750541687,0.5675581693649292,0.8786235451698303,-0.6837455630302429,0.8405845761299133,0.5152486562728882,-0.5827569365501404,-0.16051159799098969,-0.4137730598449707,-1.3831446170806885,-0.660138726234436,-0.05563404783606529,0.8004518747329712,0.32414886355400085,-2.1707844734191895,-1.4058241844177246,1.3149540424346924,-0.6510992646217346,-0.6837647557258606,0.3804296851158142,-0.9071007966995239,-0.40716809034347534,1.8175392150878906,0.4096786379814148,-0.28609442710876465,-0.9234523773193359,2.4972479343414307,-0.6216062307357788,0.7947251796722412,0.1688322275876999,1.4925947189331055,-2.6918818950653076,0.21078744530677795,-1.2139836549758911,-1.3439126014709473,-0.2212829738855362,0.020452305674552917,-0.33518680930137634,0.628990650177002,-0.12072117626667023,-0.29667460918426514,0.2597006857395172,1.543506383895874,-0.2852306067943573,0.6059195399284363,1.7041325569152832,1.171797752380371,0.9470797777175903,0.09833357483148575,0.15642127394676208,0.21881656348705292,-0.5470733046531677,-1.673824429512024,0.12264376133680344,-2.1860005855560303,-1.2835594415664673,0.04922160506248474,1.6219499111175537,-1.955001950263977,-1.258426547050476,-2.1307175159454346,-0.10241751372814178,-0.4169037342071533,-1.0770976543426514,2.720616340637207,1.9378212690353394,0.749842643737793,-0.8299660682678223,-1.1965279579162598,-0.7433473467826843,0.10754773020744324,-0.7962720394134521,0.2658326029777527,-1.3102840185165405,0.38397544622421265,0.05146783962845802,-0.625767171382904,0.8906251192092896,1.094314694404602,1.4192731380462646,1.9266828298568726,-1.3886629343032837,-2.0412988662719727,-0.4471830725669861,-0.7145559787750244,-0.061049725860357285,0.5122760534286499,2.970562219619751,0.5353429317474365,-1.8440437316894531,-1.0284850597381592,-1.5238449573516846,-0.2257743775844574,0.28140825033187866,-0.5179470181465149,1.3385244607925415,-0.22886373102664948,0.3057137131690979,0.12924613058567047,0.1606265753507614,1.4481953382492065,-0.9857305884361267,0.007999018765985966,-0.19898675382137299,-0.05131715536117554,-0.3594672381877899,-0.8129141926765442,0.5235336422920227,-0.07038219273090363,0.06623057276010513,0.49120432138442993,-0.6225585341453552,2.0039498805999756,0.29626134037971497,-1.3033673763275146,0.5595012307167053,0.3585677146911621,-0.4150572717189789,2.385228395462036,0.2887924909591675,-0.005026701837778091,-1.4640522003173828,-0.3490730822086334,-1.0397270917892456,0.8185208439826965,-0.6170873641967773,-1.2299624681472778,-0.30350828170776367,-0.22662964463233948,-0.4184286594390869,-0.11282499134540558,1.436667561531067,0.6131572723388672,0.8760270476341248,1.0759831666946411,-1.7997303009033203,-2.5979111194610596,-1.0257219076156616,-0.2952691614627838,-0.48476120829582214,-1.937893033027649,2.02626895904541,-0.5667669177055359,0.8723927140235901,0.3484562039375305,0.7654345035552979,-0.15687686204910278,1.1563031673431396,0.45761606097221375,-0.32955262064933777,-0.42786934971809387,1.3742796182632446,-1.1675313711166382,0.27766433358192444,1.0076770782470703,-0.5633089542388916,0.06652946770191193,-1.0962673425674438,0.592016339302063,0.6685900688171387,-0.46581706404685974,0.6591364741325378,0.46990716457366943,0.24959780275821686,0.007573975715786219,-0.5124799013137817,1.6825824975967407,-1.4704656600952148,0.48766982555389404,-1.1874059438705444,0.48667219281196594,-0.7608578205108643,-0.8067137598991394,1.2008256912231445,-0.35685887932777405,-0.29780876636505127,-0.05308656394481659,0.034402891993522644,0.7134132981300354,0.08040468394756317,-2.249128818511963,1.7202789783477783,0.6013749837875366,-0.8942863941192627,0.6760184168815613,0.006964059080928564,0.6928918957710266,-1.2933343648910522,-0.2609066963195801,1.2671772241592407,-0.9921290278434753,-2.5002894401550293,1.0706480741500854,1.4214900732040405,-0.23597650229930878,-0.7034487724304199,-0.4776044189929962,-0.18223750591278076,-0.2099132388830185,0.10289309918880463,0.1178617924451828,0.30014729499816895,0.5278078317642212,-0.25677478313446045,0.2742679715156555,-0.32403916120529175,-0.6879884004592896,-0.7569293975830078,-0.8075255751609802,-0.6545553207397461,0.900103747844696,-0.7041552662849426,-0.32914549112319946,0.7548501491546631,-0.5174598693847656,-0.43407267332077026,-0.1752714216709137,0.050968658179044724,0.705125093460083,0.5789108872413635,-0.44709011912345886,0.6142318248748779,0.15630382299423218,-1.2556427717208862,0.3997381925582886,-0.16315537691116333,0.07614640146493912,-0.6847092509269714,-1.0361974239349365,2.343954086303711,-0.470284104347229,0.8743036985397339,0.6659319400787354,0.482053279876709,0.5629796385765076,-0.04921245574951172,0.5156585574150085,0.47661104798316956,-2.399426221847534,-0.4200628697872162,0.8123044371604919,1.0146644115447998,-0.2617090940475464,-0.28073030710220337,0.9207656979560852,0.4284733831882477,-1.0462393760681152,-0.5366094708442688,0.6584129333496094,0.686874270439148,1.7838550806045532,0.17741921544075012,-0.3193683326244354,0.791378915309906,2.2805726528167725,-0.22300058603286743,0.6588377356529236,0.8450050354003906,1.635408878326416,0.010795379057526588,-0.2903060019016266,0.5202236771583557,1.8102694749832153,1.3859820365905762,0.95127934217453,-0.06537067890167236,0.33013805747032166,-0.9355870485305786,-0.4094430208206177,2.597381114959717,-0.4796828329563141,1.1494380235671997,1.2081410884857178,-0.9373853802680969,-1.3858137130737305,-0.6431819200515747,-0.7221160531044006,-0.7746643424034119,-0.6054361462593079,1.8355848789215088,1.2481801509857178,0.0012415987439453602,-0.6830818057060242,-1.659504771232605,0.24621306359767914,0.9438543319702148,0.2482653707265854,1.8036123514175415,-0.02564970590174198,2.445629119873047,0.8218539357185364,0.3179755210876465,0.47189322113990784,-1.560624122619629,-1.4120194911956787,-0.4179425537586212,-0.10542222857475281,-0.41657355427742004,-0.6720773577690125,0.23187528550624847,-0.23094935715198517,-0.6341707706451416,0.5496387481689453,-0.5687994956970215,0.7714260220527649,-1.9756667613983154,-0.7444292902946472,0.4549448490142822,-0.15313716232776642,-0.21995198726654053,1.2542208433151245,0.85077303647995,0.04744900017976761,-1.102352261543274,0.14883920550346375,-0.2671005427837372,0.8716580271720886,0.09512487798929214,-0.9350190162658691,1.6063041687011719,-0.6483896970748901,-1.1643739938735962,-1.5987391471862793,1.1468087434768677,0.2762906849384308,0.5675712823867798,1.4568259716033936,-1.196810007095337,0.11247441917657852,-0.31638166308403015,0.6977107524871826,-1.0932773351669312,-1.328898549079895,1.037274718284607,0.9590439200401306,0.9461569786071777,-1.352900743484497,0.990230917930603,0.615736722946167,-0.9093347787857056,-0.19711647927761078,0.5735862255096436,-2.164228916168213,-0.25380393862724304,-0.29939547181129456,1.115887999534607,-1.1800293922424316,0.3400537371635437,-1.417617678642273,0.17268624901771545,0.14111077785491943,-0.06270463764667511,0.2459329068660736,1.6482629776000977,1.9396690130233765,-0.6153547167778015,-0.12177951633930206,-0.6677134037017822,-0.738278865814209,-0.2525109052658081,2.0536763668060303,-1.0203067064285278,0.5992581248283386,0.6089236736297607,-0.3280777931213379,-0.45860838890075684,-0.6019085049629211,-0.4974120855331421,0.706674337387085,-0.9757707118988037,0.23036441206932068,-0.9252983331680298,-2.167478561401367,0.6565887928009033,0.072890505194664,1.3339906930923462,1.1775591373443604,-0.49230921268463135,0.814685583114624,-0.3870731592178345,-0.5038427114486694,0.06881703436374664,-0.3285437524318695,-0.8506289124488831,0.14874215424060822,-0.5499938726425171,0.11477059125900269,-0.08297853916883469,0.051644206047058105,1.4009292125701904,1.0166372060775757,-1.4403876066207886,-0.8079110980033875,-1.533745527267456,-0.23331940174102783,-0.8270263075828552,-1.3567962646484375,0.4942970871925354,-1.2234199047088623,0.906656801700592,0.9207455515861511,-0.9682890772819519,-0.9737354516983032,0.22308209538459778,-1.9520031213760376,-0.14282380044460297,-0.29799532890319824,1.1212036609649658,-0.692162811756134,0.30377113819122314,1.292197346687317,-1.0912625789642334,0.09768570959568024,-0.5009217858314514,1.0682181119918823,1.068801999092102,0.21212688088417053,2.920213460922241,1.5114327669143677,-0.1484677493572235,1.0689818859100342,0.42859071493148804,0.4332933723926544,-0.7273828983306885,-0.8305813670158386,-0.4498281478881836,-0.5826371312141418,0.5902807712554932,-1.295365333557129,1.809713363647461,0.5217700004577637,1.787771224975586,0.5369900465011597,-0.4676865339279175,-1.4611910581588745,0.25358399748802185,0.5581886768341064,-1.6885652542114258,-0.5007285475730896,1.2778795957565308,-0.39614883065223694,-0.22173446416854858,-1.8233731985092163,-0.25278475880622864,0.5012149214744568,-0.8955404162406921,0.1454005092382431,3.6609253883361816,-0.8485941886901855,0.48819464445114136,0.4505685269832611,0.6433809995651245,1.0144143104553223,5.124632835388184,7.133670330047607,-0.8933085203170776,-0.3974139988422394,2.528444766998291,-0.6697278022766113,-3.440455913543701,-0.7846656441688538,4.5596137046813965,-0.2551864683628082,4.111991882324219,0.6240546107292175,7.873903751373291,-2.3759212493896484,1.37076735496521,1.1173577308654785,-2.0021557807922363,-3.494039297103882,-0.5313432812690735,0.223345085978508,0.9564156532287598,-2.3536014556884766,-0.8084380030632019,0.23918303847312927,0.24825268983840942,4.988064765930176,3.00114107131958,0.44056451320648193,6.7284321784973145,5.917252063751221,0.8140336871147156,-0.4683316946029663,1.0131596326828003,2.9305591583251953,-1.632853627204895,0.0011799674248322845,-2.0319664478302,-0.631711483001709,0.05447220429778099,-0.3901163339614868,3.7484071254730225,3.8481223583221436,5.072620391845703,2.867169141769409,0.09346779435873032,-4.699639797210693,0.06057921424508095,-1.2569447755813599,-1.6573055982589722,-0.03725399821996689,0.15813040733337402,-0.6843894720077515,0.7774575352668762,-2.728619337081909,-2.594768524169922,-1.023706078529358,-0.7485826015472412,-0.10450661927461624,2.4445440769195557,2.099918842315674,2.6104586124420166,2.523837089538574,1.1089725494384766,1.5425899028778076,-4.203039169311523,-1.154706597328186,3.1873364448547363,-2.655395030975342,3.2995285987854004,-2.5134565830230713,3.272498846054077,2.5370590686798096,0.9914751648902893,3.453336000442505,-0.6374748945236206,-1.804401159286499,-5.135042190551758,0.7718744277954102,0.47931402921676636,-0.5373334884643555,-1.5855753421783447,3.463541030883789,-2.4909818172454834,-3.7188072204589844,2.562318801879883,-4.242611885070801,2.2754976749420166,2.582632303237915,-2.7876977920532227,-3.972731828689575,-1.1131752729415894,-0.23172958195209503,0.20685423910617828,-1.4773715734481812,4.7187652587890625,-0.31192803382873535,2.6671488285064697,0.855980634689331,-3.3076601028442383,-1.4681414365768433,-0.696769654750824,-2.012408971786499,-3.548711061477661,-3.785205125808716,1.7888846397399902,2.3043458461761475,3.6341392993927,4.655879020690918,-1.7383681535720825,-5.731577396392822,2.0397286415100098,1.7744632959365845,-4.267348289489746,0.9914947748184204,6.145368576049805,-2.9089746475219727,-0.85269695520401,0.5057938098907471,-2.947305202484131,3.0066680908203125,-3.340463638305664,0.07880318909883499,4.2723565101623535,-2.2825753688812256,-0.30895721912384033,3.726654291152954,3.1036527156829834,1.6635738611221313,-0.2163739800453186,2.1964569091796875,0.4191645681858063,0.832781195640564,-0.48215118050575256,-0.9052096009254456,-0.9375710487365723,-1.0232880115509033,1.3011763095855713,0.36449286341667175,1.783523678779602,1.823697805404663,-1.0196239948272705,-1.9654418230056763,-0.6430519223213196,-1.4143487215042114,-0.49507322907447815,0.5397281646728516,2.244062662124634,1.1479997634887695,0.3608757555484772,0.27430102229118347,-1.886583685874939,0.5479440093040466,0.3040813207626343,-0.3323709964752197,0.34731346368789673,0.24036599695682526,1.304710865020752,0.22183610498905182,-0.17544162273406982,1.296642541885376,1.2362457513809204,1.2826447486877441,-4.208698272705078,0.7706843018531799,-5.775700569152832,0.2561167776584625,-2.049321174621582,-6.470946311950684,1.6572424173355103,-2.167064666748047,4.398059368133545,1.051963448524475,1.7833359241485596,-1.2989332675933838,-1.0121442079544067,-3.2557373046875,0.5172609686851501,-0.03301481157541275,1.2819980382919312,0.8455285429954529,-0.9631357192993164,2.7425379753112793,-7.496022701263428,-0.196481391787529,0.2884175777435303,2.126385450363159,3.893183469772339,1.1754770278930664,2.5680055618286133,-0.3294762372970581,-0.6775156855583191,2.2380383014678955,-2.7517685890197754,-4.232345104217529,2.336057424545288,2.6421873569488525,0.9559112191200256,1.257206916809082,0.9767285585403442,2.297612428665161,-5.544192314147949,4.982921123504639,2.8189823627471924,1.5132132768630981,-1.9935383796691895,-3.1908469200134277,-1.8112623691558838,0.2421538382768631,2.286088466644287,2.9224178791046143,0.8848505616188049,1.8468167781829834,-3.3990375995635986,-1.1779690980911255,-1.5345878601074219,0.09109777957201004,2.7619593143463135,-0.03149759769439697,3.427596092224121,0.30322766304016113,-4.006252765655518,-1.2731690406799316,0.22729113698005676,3.6718108654022217,0.22973892092704773,0.7779340744018555,-1.1007280349731445,0.28893858194351196,-1.2304846048355103,0.0709567591547966,-0.8596825003623962,-0.897443950176239,0.6624293327331543,-0.11777020990848541,1.3315696716308594,1.863566279411316,0.04362916573882103,-1.4983327388763428,-0.21576587855815887,-0.8218278288841248,-0.24756111204624176,-0.32616063952445984,0.44862285256385803,0.8434383273124695,-0.6610220074653625,-0.16560640931129456,-1.81406569480896,0.04540166258811951,0.4901418685913086,0.1990579217672348,1.5771329402923584,-0.15857285261154175,1.3241945505142212,0.5605594515800476,0.011803848668932915,1.1090894937515259,1.658518671989441,1.1934006214141846,-0.7199891805648804,0.7459647059440613,-1.132289171218872,-0.5082215666770935,-1.8885594606399536,0.2838059365749359,-0.002528262324631214,-1.2662663459777832,0.6052753329277039,0.7495185136795044,-0.05072509124875069,-0.47996172308921814,-0.4645436108112335,-1.6040414571762085,0.28785091638565063,-0.0020636029075831175,0.2498284876346588,1.011809229850769,-0.17939956486225128,1.3870904445648193,-0.4076748788356781,-0.4894449710845947,0.4879218339920044,0.8335946202278137,-0.5260591506958008,0.014358104206621647,1.0887173414230347,1.0322160720825195,-0.3476812541484833,-0.008305301889777184,0.019434668123722076,-0.05457020550966263,0.007841755636036396,-0.0022958118934184313,0.042586132884025574,-0.02261621505022049,-0.04743614047765732,0.07738513499498367,-0.07359027117490768,0.056614119559526443,-0.030629169195890427,0.025625532492995262,0.07773025333881378,0.04846891760826111,-0.007943088188767433,-0.0026330428663641214,-0.07361925393342972,-0.022931933403015137,-0.04467543214559555,0.027861498296260834,-0.02849528007209301,0.048979371786117554,0.027661995962262154,-0.048687711358070374,0.02909919247031212,0.001512369024567306,-0.015952173620462418,-0.04124000668525696,-0.04278091341257095,0.07703976333141327,0.05316119268536568,0.03141418844461441]},"hiddenLayers":[{"inputMatrix":{"rows":20,"columns":32,"weights":[-0.2855896055698395,-0.5227904915809631,-0.2696945071220398,-0.23761585354804993,-1.3120999336242676,-1.612565040588379,-0.20670399069786072,0.16897009313106537,0.021950244903564453,0.08571440726518631,-0.35606133937835693,1.6844167709350586,-0.6277811527252197,-1.8417627811431885,0.08554015308618546,-0.8635576963424683,-1.2921373844146729,1.4529353380203247,1.3895028829574585,-0.03886999189853668,-1.0126416683197021,-0.012810480780899525,-0.9108654856681824,1.2140798568725586,-0.06871030479669571,-0.12104926258325577,0.4041070342063904,-0.983646810054779,-1.03236722946167,-0.647598147392273,0.7608927488327026,2.2340540885925293,0.2177671194076538,-0.0662936195731163,-0.7505274415016174,-0.6121221780776978,-0.4523763060569763,-0.6429785490036011,-0.18759775161743164,-0.22928617894649506,-0.19491420686244965,-0.42429205775260925,0.4820629954338074,1.076448917388916,1.5394517183303833,-1.1060694456100464,0.9358094930648804,0.022183798253536224,-0.8198579549789429,0.765963613986969,0.9250679612159729,-0.008897881954908371,-1.035016655921936,0.6983600854873657,-1.1373075246810913,0.8839234113693237,-0.7326368689537048,0.0537286214530468,0.5262623429298401,-0.9953116774559021,0.14927615225315094,-0.20927445590496063,0.7458650469779968,0.5412905216217041,0.615353524684906,0.5806406140327454,0.780204176902771,0.7971256375312805,0.14480745792388916,1.0765204429626465,-0.755290150642395,0.6276180744171143,0.588772714138031,-0.33211958408355713,-0.04416988417506218,-0.1992143988609314,0.4304628074169159,0.7384184002876282,-1.1299653053283691,-0.07422889024019241,0.8061374425888062,-1.0883903503417969,0.5120312571525574,1.7186880111694336,0.8519799709320068,0.000793071580119431,0.2686688005924225,-0.9629384875297546,1.7992357015609741,0.7382121086120605,-1.340360164642334,0.598900556564331,0.5582225322723389,1.0239158868789673,-0.9016947746276855,-1.1967706680297852,1.3351742029190063,0.9235444068908691,-0.03625015914440155,0.3607372045516968,-0.5731709599494934,0.29810789227485657,-0.308643102645874,-0.2098100632429123,0.6464152336120605,-1.83541738986969,-0.7942945957183838,-0.4276964068412781,1.3610605001449585,0.8209420442581177,-0.027337439358234406,1.7195122241973877,0.20658525824546814,0.1348751038312912,0.3800444006919861,0.1100073829293251,1.3936835527420044,0.8631783723831177,0.35150662064552307,-0.33649197220802307,1.0319864749908447,0.918231725692749,-0.6889058947563171,0.07875093817710876,-0.7181718349456787,0.7104694247245789,-1.394993782043457,-0.45636799931526184,-0.8001747727394104,0.641015350818634,-0.5915155410766602,-0.7021955847740173,-2.02140474319458,-0.9945966601371765,-0.17354103922843933,-0.5184628367424011,1.1227532625198364,-0.3109187185764313,-0.08672074973583221,1.3339418172836304,-0.6523362398147583,-0.7532005906105042,0.5743702054023743,-1.8012044429779053,-1.059273600578308,1.0446668863296509,1.0513279438018799,-0.5571768283843994,-0.8961777687072754,0.5592430830001831,-1.8649059534072876,0.6896820664405823,-0.7718921303749084,-1.3743759393692017,-0.16152824461460114,-1.0760729312896729,0.07977788895368576,-0.7304402589797974,0.40656039118766785,0.700480580329895,-0.33173197507858276,-1.2074620723724365,0.17116811871528625,-0.40619826316833496,0.7334949970245361,-0.48648473620414734,-0.47713690996170044,0.027661358937621117,-1.0934910774230957,0.03259483724832535,-0.2979874610900879,0.0642571970820427,0.2739524245262146,-0.025435378775000572,0.5807147026062012,0.9338822364807129,0.68819659948349,0.4606165587902069,0.12098759412765503,-0.24500717222690582,-0.5499624013900757,-0.0730159729719162,0.1361754685640335,0.7515318989753723,-1.086825966835022,0.19999581575393677,0.3857032060623169,-0.715194582939148,-1.4258594512939453,-1.261563777923584,0.7187747955322266,0.35608401894569397,-1.0169841051101685,0.8282786011695862,-0.8355400562286377,-1.0064386129379272,-0.45900455117225647,-0.9504812955856323,0.7161325216293335,-1.4052555561065674,0.850559651851654,0.7443934082984924,0.38919878005981445,0.18076026439666748,-1.3560271263122559,-0.10063012689352036,0.6223562955856323,0.10458560287952423,-1.296812891960144,0.6610127091407776,0.5157600045204163,-1.1516660451889038,0.22185179591178894,-1.130118489265442,-0.3414612412452698,1.1044495105743408,-1.149931788444519,-1.6688232421875,1.2784537076950073,-0.5395442843437195,0.38628891110420227,-0.1670604944229126,0.9695611596107483,0.5480408072471619,1.0804394483566284,0.6365306973457336,-0.19425725936889648,0.34696120023727417,-0.34768036007881165,0.0522034615278244,-1.341920256614685,0.3813880980014801,-0.010362934321165085,-1.2072926759719849,-0.7435783743858337,-0.49596384167671204,1.267159342765808,0.6282616257667542,-0.39140215516090393,-0.8965089917182922,0.7579983472824097,-0.6308651566505432,-0.42440536618232727,0.7123855352401733,0.3680049180984497,1.156428337097168,-0.16673800349235535,-0.04771747812628746,0.4163188934326172,1.0152394771575928,-1.5544254779815674,-0.2688332796096802,0.34555891156196594,0.12916426360607147,-0.5094308257102966,-0.321769654750824,-0.6871652603149414,-0.7443066239356995,0.4799017012119293,-0.38517940044403076,-0.9659930467605591,0.16025766730308533,-0.11632988601922989,0.7157384753227234,-0.7141850590705872,-1.0749907493591309,-2.37020206451416,0.16093023121356964,-1.921945571899414,-0.08257266879081726,0.028632622212171555,-0.9748742580413818,0.8510832190513611,1.8414838314056396,0.07595446705818176,-0.6174352169036865,0.3175542950630188,1.132396936416626,-0.2675573527812958,0.10315265506505966,0.6031951308250427,-0.7050851583480835,-1.6811246871948242,0.10866734385490417,-1.4586068391799927,-1.4312423467636108,0.3170548677444458,-0.5062938928604126,0.47595539689064026,0.33521974086761475,1.2428550720214844,0.6652812957763672,0.3723365068435669,0.04761634021997452,-0.16920000314712524,1.1360561847686768,0.24945186078548431,-0.36235424876213074,-0.6931041479110718,-0.46599987149238586,-1.105739712715149,0.5043697953224182,-0.658153235912323,-0.89714115858078,0.1885792464017868,-0.7102460861206055,-0.48267820477485657,0.21691380441188812,0.9783716201782227,0.008640251122415066,0.3514183461666107,-0.36432307958602905,0.6117854714393616,-0.12528744339942932,-0.8318977355957031,1.094920039176941,0.7303274869918823,0.8680267333984375,-0.7575690150260925,-0.5221324563026428,-0.3492770791053772,-0.38165080547332764,0.06996921449899673,-0.7478320598602295,0.047772087156772614,-0.09109582006931305,0.10659760981798172,0.3216690719127655,0.35116326808929443,0.24004025757312775,-0.44040369987487793,-2.0037264823913574,-0.7921298742294312,1.3825185298919678,0.6082090735435486,0.4300171136856079,-0.434982568025589,-0.20369836688041687,0.1750209927558899,-0.8016819953918457,0.1923857033252716,0.12631762027740479,1.6996272802352905,0.1354154795408249,-0.5833964347839355,0.34906119108200073,-0.8274767994880676,-0.8507044315338135,-0.6066969633102417,-0.7183545827865601,0.5616261959075928,-2.455911874771118,0.5783042311668396,1.0062164068222046,0.06594700366258621,0.5591146945953369,-1.0907012224197388,-0.32034215331077576,0.1460205614566803,-0.0006675889017060399,0.33022964000701904,-0.6677166819572449,0.8375868797302246,1.2182260751724243,-0.5249000787734985,-1.2614234685897827,-0.4460434913635254,-1.5191619396209717,0.07920138537883759,0.3754894435405731,1.0828839540481567,1.0922931432724,-0.41823524236679077,0.7897804379463196,-1.4204542636871338,0.3510028123855591,0.5742700695991516,0.4190428555011749,0.49544933438301086,-0.23896372318267822,1.0687628984451294,0.9084211587905884,0.5317811369895935,1.1059590578079224,0.14053460955619812,-0.27570652961730957,-0.03937269002199173,-0.12089414894580841,0.7880223393440247,-0.06686563789844513,-0.23895038664340973,1.4296456575393677,-0.20097893476486206,0.4377106726169586,0.8513978719711304,2.4080519676208496,1.7061715126037598,-1.1275209188461304,0.0820273905992508,0.1546948254108429,0.05432983860373497,-0.2703823447227478,-1.2846792936325073,0.09170889854431152,-0.30835196375846863,0.1438632756471634,-0.7146661877632141,-0.218709796667099,-0.48641371726989746,0.44575679302215576,-1.0790154933929443,0.7848631739616394,0.12376382946968079,0.2743622660636902,0.6530640721321106,-0.10743584483861923,-0.27507492899894714,-0.8014428019523621,1.7777440547943115,0.7894173264503479,2.0233941078186035,0.5132905840873718,1.28437077999115,1.8973244428634644,-1.297290325164795,-1.2729235887527466,-0.2583639621734619,-0.2471485286951065,-1.325731873512268,0.4227103888988495,-0.9753824472427368,0.3310844600200653,0.398007869720459,-0.1592790186405182,-1.6875296831130981,0.66313236951828,1.9742404222488403,-0.3237786293029785,0.7112100720405579,-0.17334803938865662,0.43228965997695923,0.003087119199335575,-1.4913647174835205,1.1303026676177979,-0.21680067479610443,-0.39125335216522217,-0.06865844875574112,-0.5124965310096741,0.5412095785140991,0.022807924076914787,0.6527456045150757,-0.24336908757686615,0.1306893676519394,-1.318790078163147,-0.5060719847679138,0.8170521259307861,-1.0443025827407837,-0.503997266292572,-1.3783682584762573,0.9813995957374573,1.089170217514038,-1.076001763343811,0.9647130966186523,0.9483886361122131,-0.8176891207695007,0.8688605427742004,0.9263480305671692,-1.4107099771499634,-0.12443018704652786,1.4254603385925293,0.08498366922140121,0.6087369918823242,-1.365415096282959,0.38802045583724976,-0.7142823338508606,-1.0498580932617188,-0.920823872089386,0.4515630304813385,1.0379270315170288,0.708961009979248,0.5354025363922119,0.5791582465171814,0.7439075708389282,0.7625729441642761,0.6961073875427246,0.32081297039985657,-0.6781203746795654,1.4410176277160645,0.52810138463974,-1.034988284111023,-1.8896034955978394,-0.7277999520301819,-0.19193464517593384,0.8502892255783081,-0.21523220837116241,-1.3681787252426147,0.7260746359825134,-0.7678035497665405,-1.451247215270996,0.5966454744338989,1.0140166282653809,0.6963783502578735,0.538604199886322,-0.9875760674476624,0.4459415674209595,1.3022767305374146,-2.198786973953247,1.2362362146377563,0.3046238422393799,0.27126553654670715,-0.8376215696334839,-0.6347338557243347,1.2175939083099365,-0.3161637485027313,0.033901069313287735,-0.359331876039505,1.4116774797439575,0.7883949875831604,1.1942949295043945,-0.41161927580833435,0.6785672903060913,0.5165172815322876,1.3463202714920044,-0.8335758447647095,0.7467020153999329,0.388790488243103,0.0318986214697361,1.872257113456726,-1.2019970417022705,-2.6873624324798584,0.00035941373789682984,0.23702900111675262,1.6816214323043823,-1.0919702053070068,0.5070529580116272,0.32681024074554443,-1.1345324516296387,0.8655809760093689,1.8272292613983154,-1.063462257385254,0.26840367913246155,0.9563074707984924,0.34847691655158997,-1.5796352624893188,-0.580242931842804,0.5745055079460144,-0.5097715258598328,-1.69114351272583,1.1319588422775269,-1.06485116481781,0.3949557840824127,-0.4298422932624817,0.20504648983478546,0.9700930714607239,0.23869553208351135,-1.5589828491210938,0.8731437921524048,0.22621610760688782,1.3131376504898071,1.667914867401123,-0.7990567088127136,-0.6025776863098145,-0.27520155906677246,-1.8060652017593384,0.2767511308193207,-1.229927897453308,1.1485157012939453,0.6640228629112244,-1.4285284280776978,-0.1990494728088379,0.5200134515762329,-1.0935101509094238,-0.06872714310884476,0.13466987013816833,0.8483614325523376,-0.38103294372558594,-0.7629920840263367,-0.6245949268341064,-0.5095768570899963,-0.6771988272666931,-1.3263962268829346,-0.8583429455757141,0.23033477365970612,-0.7205575704574585,0.5931351184844971,-0.4192964434623718,0.5507938861846924,1.1056751012802124,-0.7667291164398193,-0.14503876864910126,0.8494055867195129,-1.7400906085968018,-1.432520866394043,0.0859854519367218,0.5943657159805298,-0.7121996283531189,-0.4005298912525177,0.6719152927398682,-1.0196294784545898,0.7147896885871887,-1.497480869293213,-0.9091864228248596,0.2771855890750885,-0.6066800355911255,0.17707234621047974,-0.7292616367340088,0.8647137880325317,-0.9193252325057983,-0.9769978523254395,-1.2046345472335815,0.9720827341079712,0.3594714105129242,1.2381404638290405,0.5931262969970703,0.9953990578651428,0.9148072600364685,-0.4551435112953186,-0.10520105808973312,-0.3662237823009491,-1.5455385446548462,-1.6337130069732666,1.6751043796539307,0.008742345497012138,-0.6929339170455933,0.341573566198349,-0.20141564309597015,-0.7310051321983337,0.23029951751232147,0.5062282085418701,0.12124117463827133,0.9688142538070679,0.29125988483428955,-0.2297011762857437,0.043698616325855255,-1.0543454885482788,-0.09126059710979462,-0.20550645887851715,-0.5962356328964233,0.24388495087623596,-2.5766539573669434]},"inputHidden":{"rows":20,"columns":20,"weights":[-0.033180318772792816,-0.6603307127952576,-0.7311152815818787,0.3977603018283844,-0.647666871547699,0.9717147350311279,0.6634055376052856,-0.43115493655204773,0.09322288632392883,-0.14318989217281342,-0.15742458403110504,-0.7799638509750366,0.6060174107551575,0.3249751925468445,0.07519085705280304,-0.06903871148824692,0.20755234360694885,1.5508623123168945,0.07019644975662231,0.1734170764684677,-1.688103199005127,0.44145771861076355,-1.8159123659133911,-0.15740445256233215,0.42273247241973877,0.5419468879699707,-1.8530606031417847,-1.0714612007141113,-0.8307934403419495,-0.5501022934913635,-0.49579092860221863,0.139988973736763,-0.9127302765846252,0.16151490807533264,1.0678980350494385,-0.34044450521469116,0.3617587983608246,0.8935360312461853,0.6675838828086853,-0.19796377420425415,2.8980700969696045,-2.568089485168457,-0.10941792279481888,1.1042598485946655,-2.117755889892578,0.22835306823253632,2.826504707336426,0.08461882174015045,-0.25662675499916077,-0.5252649784088135,0.6634986996650696,-2.1424248218536377,0.9895274639129639,-0.12126187235116959,0.000014862619536870625,-0.1185760498046875,-0.2929401993751526,0.0778970941901207,-0.9740227460861206,-0.4419180452823639,1.4049930572509766,-1.3066742420196533,-2.138467788696289,0.30892449617385864,-0.743454098701477,-0.9282955527305603,1.8152589797973633,0.1365572214126587,0.502377450466156,-0.5084004402160645,-0.5675758123397827,-0.6489850282669067,-0.06747204810380936,1.437908411026001,-0.9344327449798584,-0.09928205609321594,-1.0733355283737183,-0.3377789556980133,-0.8119429349899292,-0.2584245502948761,1.004110336303711,-1.1658769845962524,-0.9138855934143066,-1.0035215616226196,-0.6536766290664673,0.9229427576065063,1.0809811353683472,0.051437828689813614,0.9145596623420715,-0.08569754660129547,0.37481561303138733,-0.25797635316848755,-0.1326383799314499,0.3508775532245636,-0.6806514263153076,0.8930884003639221,-1.2203161716461182,-0.5396499037742615,-0.46483373641967773,0.10704176127910614,-0.2759067118167877,-0.15954317152500153,1.9863641262054443,0.9013832211494446,-0.31510457396507263,-0.8241326808929443,1.214137315750122,1.5192886590957642,0.3481993079185486,0.8079982995986938,-0.21563595533370972,0.16193196177482605,-3.6535797119140625,0.2432003766298294,-0.5418559908866882,0.1348583698272705,2.423903703689575,2.6247894763946533,-0.3518993854522705,0.736716628074646,-0.10871178656816483,0.3433803915977478,-0.0037956289015710354,1.0373259782791138,0.2193441540002823,1.5825600624084473,0.34996867179870605,0.05354510620236397,0.6224249005317688,0.20270708203315735,-0.17182700335979462,-0.31288474798202515,0.47562023997306824,0.31792354583740234,-0.4531100392341614,0.3697969615459442,0.7481064796447754,1.6652370691299438,-0.0023611458018422127,0.050034668296575546,0.6283760666847229,0.014686680398881435,1.7736068964004517,-0.34749650955200195,-1.9528586864471436,-0.32015541195869446,0.5323981642723083,-0.5581225156784058,0.0058505176566541195,-0.3806910514831543,-0.14296868443489075,-1.0687590837478638,2.2275569438934326,0.24566586315631866,0.34728267788887024,-0.10188006609678268,-0.7870797514915466,-0.12894602119922638,-0.10894589871168137,-0.2993582785129547,0.3460899293422699,-0.4705822467803955,0.10037661343812943,-0.8227033615112305,-0.30484721064567566,-0.968402087688446,-0.9228006601333618,-0.38836464285850525,0.3949345052242279,-0.41956809163093567,0.02692936360836029,0.18124309182167053,0.14679443836212158,-0.2144479900598526,0.053794607520103455,0.657558798789978,-1.2230095863342285,-1.8347772359848022,0.19809210300445557,0.024721825495362282,0.18571679294109344,-0.12889695167541504,-0.368202805519104,-0.7909555435180664,-0.8541622757911682,-0.41632792353630066,0.465137243270874,-0.7690814137458801,0.3638659715652466,-0.4305599331855774,-0.33283567428588867,-0.3873615562915802,1.9789944887161255,0.11904793977737427,-0.08088291436433792,0.21403729915618896,-0.5369454026222229,-1.162286400794983,-0.018948372453451157,-0.27350741624832153,0.6731547117233276,-0.6577684283256531,0.1396895945072174,-1.3199801445007324,1.6258968114852905,-0.8314447999000549,0.11182224750518799,-0.7025006413459778,-0.6195833683013916,-0.33506694436073303,-0.32945480942726135,0.26217222213745117,0.44927987456321716,0.23954050242900848,-0.03048543818295002,-0.7337470054626465,-1.4949333667755127,-1.5963327884674072,0.2069871723651886,-0.6984484195709229,0.38043835759162903,-0.5711759924888611,-0.09398169815540314,0.5613595247268677,-0.8361665606498718,1.0573800802230835,1.227765440940857,-0.7016845345497131,-0.17988593876361847,-0.4414295256137848,0.1425812840461731,-1.5849405527114868,0.6864429116249084,0.0702442154288292,-0.18060192465782166,0.5665755271911621,-0.39724063873291016,0.21120484173297882,0.35113778710365295,-0.17474280297756195,0.8888645768165588,-2.2988195419311523,1.11464524269104,3.021982431411743,-3.177875280380249,0.6154775619506836,1.4236127138137817,1.058445930480957,-0.1775560975074768,1.6431491374969482,0.11854870617389679,-2.2814481258392334,-1.7169485092163086,0.6423195004463196,-0.9022851586341858,0.8239148259162903,1.7574642896652222,0.035803791135549545,-0.7209122776985168,0.5296295285224915,-0.22261233627796173,1.1445934772491455,0.8060240149497986,-0.45101502537727356,0.6871516704559326,-1.042725920677185,-0.4820006191730499,0.10816694051027298,-0.45487740635871887,-0.029285700991749763,-0.29767554998397827,1.356974720954895,-1.841349482536316,0.8714767098426819,-0.5785782337188721,-0.8482885956764221,0.046094756573438644,-0.1844014823436737,-0.07719531655311584,-0.28528228402137756,1.8884645700454712,-1.5691676139831543,-1.1085261106491089,-1.2217432260513306,-1.588714838027954,1.115328311920166,1.3740904331207275,-1.5971649885177612,0.0017822661902755499,-0.5468915104866028,-0.4737800061702728,-1.3329917192459106,2.030271530151367,0.7027980089187622,-0.12203895300626755,-0.39510634541511536,-2.7020962238311768,-2.610119104385376,0.022215334698557854,-0.397527277469635,-0.7248958945274353,-0.5537857413291931,-0.31461572647094727,-1.3481251001358032,0.32536959648132324,1.0518178939819336,-0.6210072040557861,0.2738840878009796,0.8906756639480591,-0.07423008978366852,-1.7258350849151611,0.7879548072814941,2.360572576522827,0.8568730354309082,-1.1366418600082397,-0.3993607461452484,0.16117241978645325,-0.6888851523399353,-0.7069740295410156,-0.5651217699050903,-0.17814010381698608,-0.5823813676834106,1.0403296947479248,1.103513240814209,-0.9086806774139404,1.458418607711792,0.23119817674160004,0.13212084770202637,-0.14942727982997894,-0.1768255978822708,0.801757276058197,-0.23185153305530548,-2.543717861175537,1.0320287942886353,-0.11094415187835693,-0.9348666071891785,0.6087188720703125,0.3682258129119873,0.9074641466140747,-0.714292049407959,0.8329454660415649,-0.3051498532295227,-1.0143367052078247,-0.25628662109375,-1.2007077932357788,-0.586351215839386,0.5895127058029175,-0.42473262548446655,0.009568610228598118,-1.4373528957366943,0.7510931491851807,-0.8051765561103821,-3.038048505783081,-0.14763322472572327,0.14997732639312744,-1.2017534971237183,-0.6488826274871826,-0.5363261699676514,0.06261845678091049,-1.5138295888900757,0.9925400614738464,-0.8441931009292603,-0.513813316822052,-1.5571205615997314,0.3499754071235657,-1.5161762237548828,0.8285648226737976,0.1409796178340912,-0.46998366713523865,-0.27357882261276245,0.3787599205970764,-0.7611818313598633,0.30084192752838135,0.8177626132965088,-0.4931543469429016,-0.6090322136878967,-1.5268281698226929,-2.7260868549346924,-0.36907392740249634,-0.48707884550094604,0.3389144539833069,0.2971158027648926,1.5049422979354858,-1.0326672792434692,-0.21275049448013306,-1.320490837097168,0.09011249989271164,1.340023159980774,1.1265342235565186,0.4514045715332031,1.8490976095199585,0.40376177430152893,0.5325022339820862,-0.7219998836517334,-0.646041750907898,0.15483324229717255,-0.4499446749687195,-0.9267129898071289,-0.27465739846229553,-0.16400179266929626]},"inputBias":{"rows":20,"columns":1,"weights":[-0.6466872692108154,0.8236037492752075,-1.8137564659118652,0.25699856877326965,-1.4439274072647095,1.518380880355835,-0.7805488109588623,-0.14460168778896332,-0.37990331649780273,-0.033481769263744354,-0.834592878818512,-0.8579489588737488,0.2947829067707062,-1.0764122009277344,-0.32864508032798767,-0.28315865993499756,-0.8327995538711548,-0.7444496750831604,0.01804175227880478,-0.014406213536858559]},"forgetMatrix":{"rows":20,"columns":32,"weights":[0.5705883502960205,-0.018556123599410057,0.2188458889722824,-0.5739628076553345,-0.1449093371629715,-0.31400051712989807,-0.5291876792907715,0.13060683012008667,0.01891835778951645,-1.0469404458999634,0.14005334675312042,0.19960346817970276,0.4794466495513916,-0.4573977589607239,0.5959880352020264,0.08180049061775208,-0.11937109380960464,-0.31207144260406494,0.3315431475639343,-0.31788840889930725,0.07393109798431396,0.5285559892654419,-0.1872505396604538,0.18558785319328308,-0.4220717251300812,0.24390333890914917,-0.3047526478767395,-0.20750822126865387,-0.6365721821784973,-0.18046683073043823,-0.4023723602294922,0.012999769300222397,-0.21248407661914825,-0.7759791612625122,1.2671633958816528,0.15742813050746918,0.7504399418830872,-0.481339693069458,0.1121203675866127,0.5437359809875488,-1.1207551956176758,-0.11986902356147766,-0.5612284541130066,0.36319929361343384,0.03715791925787926,-0.21207959949970245,-0.011225604452192783,1.83085036277771,-0.9548332095146179,0.29808229207992554,0.23750090599060059,0.05608142912387848,0.11671841889619827,-0.12376990914344788,0.5820068717002869,0.3617019057273865,0.6550436615943909,0.0788988545536995,0.8560928106307983,-1.0819149017333984,-1.1302529573440552,-0.2534225881099701,-0.41539448499679565,-0.018363112583756447,-0.0191884133964777,0.8911494612693787,-0.33900582790374756,-0.547931969165802,-0.49298515915870667,-0.1644151210784912,-0.08034747838973999,-2.2515227794647217,1.1695538759231567,0.40965500473976135,1.585774540901184,0.5590222477912903,0.554893970489502,-1.8170350790023804,0.2983889579772949,1.101609468460083,-1.5254170894622803,-0.3993157744407654,1.473944902420044,-0.7402552366256714,-0.2354629635810852,-0.18129093945026398,-0.43621447682380676,0.1541997790336609,-0.2924433946609497,0.2385597825050354,2.179039716720581,-1.4595277309417725,0.022830519825220108,0.8970960378646851,0.20739836990833282,0.6551211476325989,0.6167633533477783,0.19161556661128998,0.4413991868495941,-0.8536209464073181,0.9595096111297607,-0.08230073750019073,0.20126056671142578,0.19960205256938934,1.075819492340088,0.181129589676857,-0.05848989263176918,-0.5620021820068359,0.21194083988666534,1.0215082168579102,-0.25436338782310486,1.4503406286239624,-0.13341304659843445,-0.7269660234451294,-0.49561429023742676,-0.8697508573532104,1.7580866813659668,-0.2559642791748047,1.5535707473754883,-0.06687115132808685,0.14690303802490234,0.4180718958377838,1.1155340671539307,0.1897226870059967,0.20129914581775665,0.8938833475112915,-0.3976938724517822,-0.05219103768467903,0.20049133896827698,0.53878253698349,0.6440728306770325,1.011817216873169,-0.8099651336669922,0.2830581068992615,-1.3494666814804077,0.5693188309669495,-0.3503985106945038,-1.09902024269104,-0.12861189246177673,0.5084731578826904,0.5604057312011719,-0.16938325762748718,-0.3367033302783966,-1.2658884525299072,0.6386483311653137,0.27518796920776367,-0.6915906667709351,1.2410809993743896,-1.3542306423187256,0.8352806568145752,-1.321378231048584,-0.5652141571044922,0.44840195775032043,0.4496989846229553,-2.168036460876465,0.08685389161109924,0.9804954528808594,0.3732588291168213,0.14419710636138916,-0.4220851957798004,-1.9487334489822388,-0.6473674774169922,0.33806440234184265,-0.5641173124313354,1.216845154762268,0.21272563934326172,1.1827070713043213,0.8382244110107422,-0.7769730687141418,0.5051591396331787,-0.2782110273838043,-0.00795663520693779,-0.7295252680778503,0.292184054851532,-0.1049400344491005,-0.9883547425270081,0.2423315942287445,0.43611904978752136,-0.18018455803394318,-0.7877295017242432,-0.38276445865631104,-0.2356593757867813,-0.685286283493042,-0.2971004247665405,-0.4383217394351959,-2.044617176055908,-0.6243791580200195,0.3815341293811798,-0.15268705785274506,-1.0296882390975952,-0.023059694096446037,-0.2807784378528595,0.4577617347240448,1.070778250694275,0.5099096894264221,-1.1878379583358765,0.47300416231155396,0.004374805372208357,-0.009582411497831345,-0.10263465344905853,1.0371077060699463,0.14165492355823517,0.5219364762306213,0.2277320921421051,1.1890296936035156,-0.48742982745170593,-0.2899949848651886,1.1423864364624023,-0.6990725994110107,-0.5800333023071289,0.04067155346274376,-0.6572571396827698,0.4849901497364044,-1.0199050903320312,0.29837486147880554,-1.0480194091796875,-0.5433040261268616,-0.1291160136461258,0.9717848300933838,-0.05964632332324982,0.6213611364364624,1.3832284212112427,0.09179850667715073,-0.04052883759140968,-0.5264343023300171,-1.1694859266281128,0.253572940826416,0.4551662802696228,-0.6765202283859253,0.7222799062728882,0.45062166452407837,0.048149317502975464,-0.4552333354949951,-0.07416564971208572,-0.610561192035675,-1.4065992832183838,-1.0620783567428589,0.981626033782959,-1.4184823036193848,-1.2474974393844604,0.3277775049209595,0.3633408546447754,0.3823937177658081,0.2448849380016327,-0.28389424085617065,0.2613157033920288,0.9201298356056213,-0.8832684755325317,1.0919408798217773,0.031709711998701096,-1.6715501546859741,-0.14135071635246277,-0.2797372043132782,-0.13899149000644684,-0.8552983403205872,-1.2575000524520874,-0.3595806956291199,-1.1344525814056396,0.09485705941915512,-0.385898232460022,1.0025213956832886,0.22634802758693695,0.604909360408783,0.5710585713386536,-0.4660642743110657,0.19806383550167084,-0.3034396469593048,-1.5318015813827515,-1.5955536365509033,0.7972093224525452,-0.11436867713928223,0.28723111748695374,-0.246593177318573,-0.627980649471283,-0.10607294738292694,-0.5684043169021606,0.20649774372577667,-0.12659557163715363,1.742561936378479,0.10292719304561615,0.05263826251029968,0.03555203974246979,0.027393659576773643,-0.2556682825088501,-1.1599888801574707,-0.7905058860778809,-0.2632819414138794,-0.7442381381988525,-0.8127977848052979,-0.27154526114463806,0.015921544283628464,0.5227950215339661,-0.14652025699615479,-0.6253035068511963,-0.4694031774997711,0.6298246383666992,-0.8845752477645874,0.1826314777135849,-1.305577039718628,0.15842872858047485,-0.5250470638275146,-0.21509946882724762,-0.05061944201588631,-1.0112175941467285,-0.1653936356306076,0.6622812747955322,-0.6984264254570007,-0.010577438399195671,-0.6228780150413513,-0.34660613536834717,-0.6512633562088013,0.26618731021881104,0.45051252841949463,-0.47455647587776184,-1.5685333013534546,0.3291909992694855,-0.5130968689918518,-1.4326153993606567,-0.5352569818496704,0.5935158133506775,0.862225353717804,0.5041684508323669,0.7400190234184265,0.3138214945793152,-0.38154083490371704,0.5754579901695251,-0.21676422655582428,0.24004524946212769,0.2999943196773529,-0.9307520985603333,-0.9772286415100098,0.2324444055557251,0.2690492868423462,-0.08802057057619095,-0.6128500699996948,-0.05144316703081131,1.023535966873169,-0.6638563275337219,-0.059294167906045914,0.08420540392398834,1.3171547651290894,0.28497353196144104,0.07251476496458054,-1.1330485343933105,0.756213903427124,0.8148025870323181,-0.5827564001083374,0.9908591508865356,0.30405113101005554,1.0219125747680664,-0.8127614259719849,0.014141645282506943,0.6794233322143555,0.26604798436164856,0.9485612511634827,0.037768758833408356,0.07746079564094543,0.9307116270065308,-0.6609588861465454,0.8050170540809631,-0.1988842487335205,-0.8785044550895691,0.3734445869922638,0.8518478274345398,0.8517806529998779,-0.34983888268470764,-1.6787190437316895,-0.27345362305641174,1.1911704540252686,-0.8717055916786194,-0.27928000688552856,0.06862808763980865,1.1670236587524414,-0.4302546977996826,-0.5914772152900696,-1.508874535560608,0.9477287530899048,1.0999162197113037,-0.6132855415344238,1.6783546209335327,0.2564605474472046,0.5592548847198486,-1.3622963428497314,-0.7531102299690247,-0.9213634729385376,0.9009804129600525,0.08912007510662079,-1.3757555484771729,1.0261623859405518,-0.2990790605545044,0.559561014175415,0.7228375673294067,-0.8190140128135681,0.2856418788433075,-0.9727429747581482,-0.9178142547607422,-1.5892889499664307,1.7440366744995117,0.5637496709823608,0.6453610062599182,0.5024212002754211,0.5844517946243286,-1.1673256158828735,-0.5908779501914978,0.42632246017456055,-0.36550411581993103,1.102770447731018,0.775017499923706,0.1324184536933899,-0.8286085724830627,-1.3473219871520996,0.7180315852165222,-0.32268500328063965,-1.1782569885253906,-0.790325939655304,-0.5865650773048401,-0.048176079988479614,-0.5539241433143616,0.7704756259918213,0.07380000501871109,0.8370327949523926,0.11824307590723038,-0.23858574032783508,0.6591703295707703,-0.40381452441215515,1.0134592056274414,0.03603120148181915,0.7275113463401794,-0.6693497896194458,-1.137133240699768,-0.20759837329387665,0.10807241499423981,0.28607428073883057,-0.24260759353637695,-0.7425835132598877,-0.008534575812518597,0.6287011504173279,-0.7922084331512451,0.3029925227165222,-0.27612313628196716,0.08000592887401581,0.08687654882669449,0.24652384221553802,0.6583648920059204,0.0962032750248909,-0.024830251932144165,0.5169671773910522,0.541317343711853,-0.42629489302635193,-0.5048179626464844,0.7121451497077942,0.8076288104057312,0.9802021980285645,1.365620732307434,1.5523167848587036,-0.04503852128982544,0.05976373702287674,1.3520371913909912,1.3166086673736572,-0.09567749500274658,-1.1894437074661255,-0.6231180429458618,-0.43726909160614014,-0.008643082343041897,0.5545808672904968,-0.7928779721260071,0.1526280641555786,0.5318580269813538,0.3089230954647064,-0.9767283797264099,0.3381528854370117,-0.9052537083625793,0.08225810527801514,0.5147372484207153,0.536882758140564,0.7834263443946838,-1.101155400276184,-0.5348644256591797,-0.21392560005187988,0.4484289586544037,-0.6892150044441223,-1.328803300857544,-0.06778862327337265,-0.11138118803501129,-0.4232681095600128,-0.14297597110271454,0.14703546464443207,0.3778102993965149,-0.8663950562477112,-0.18611620366573334,-0.6362202763557434,0.5237067937850952,-0.3025892674922943,-0.6260579228401184,0.1797243356704712,-0.10823694616556168,-0.2632591128349304,0.3541938364505768,-0.2941770553588867,-0.22524842619895935,-0.7137917876243591,0.20252829790115356,-0.39880016446113586,0.32585835456848145,-0.21037086844444275,-0.644778847694397,-0.8989927768707275,-0.1222556009888649,-0.46888619661331177,-0.9540560245513916,0.09740681946277618,-0.06177692115306854,-0.17236751317977905,0.8516697883605957,-0.9031794667243958,-0.885066568851471,0.24719005823135376,-1.1789723634719849,-0.318462997674942,-0.7188042402267456,1.0612066984176636,1.9781670570373535,2.119025230407715,0.8930041193962097,0.5839717984199524,-0.45448368787765503,0.7765766978263855,0.3943341076374054,-0.8317714929580688,-0.8510376214981079,-0.5615875720977783,-0.5116163492202759,0.4137095808982849,-1.0001399517059326,-1.5433928966522217,-0.6317929625511169,-1.896049976348877,-0.4028361141681671,0.576433002948761,-1.3407844305038452,0.03145581856369972,-0.08160816133022308,0.16860459744930267,1.102555751800537,0.5888672471046448,1.1899924278259277,-1.76418137550354,0.4861903786659241,-0.31935688853263855,-0.18017245829105377,0.5663476586341858,-1.025823712348938,0.5694209933280945,1.0748721361160278,2.1718530654907227,0.626609206199646,0.04245550557971001,-0.9039260149002075,-1.2644399404525757,-0.4076264798641205,0.33513569831848145,-0.6123661398887634,1.959354281425476,1.558982014656067,-0.7209566235542297,-0.7410011291503906,-1.7057892084121704,-0.8714979887008667,0.6836756467819214,-0.14072376489639282,0.7707229256629944,-0.8125038146972656,0.624509334564209,1.1109274625778198,-1.231014370918274,1.2298107147216797,-0.5070940256118774,-0.20895002782344818,-1.0787469148635864,0.8350351452827454,-1.2482765913009644,0.669712245464325,-1.1683136224746704,-0.6526694297790527,-1.5154389142990112,-0.04147052392363548,0.20418423414230347,0.15913130342960358,-1.6008752584457397,-0.18785332143306732,-0.8963736295700073,-2.4739038944244385,1.0797418355941772,0.7874794602394104,-0.2875621020793915,1.1948717832565308,-0.7386245131492615,1.2293282747268677,-0.5739244222640991,-1.1213786602020264,0.7536196112632751,0.1003878191113472,-0.2712453305721283,0.7798285484313965,0.2571144700050354,0.3648848831653595,-0.08644213527441025,0.3975101709365845,0.4634087383747101,-0.7423938512802124,0.9965027570724487,0.4214615523815155,0.6660255789756775,-0.3545135259628296,0.4118923842906952,1.2711368799209595,-1.0635043382644653,-1.1194493770599365,-0.894440770149231,0.4046282470226288,-1.1441144943237305,-0.4480157196521759,0.17898498475551605,-0.2895961105823517,-0.4812575876712799,0.6357482075691223,-0.22271208465099335,0.4693271219730377,-0.40519389510154724,0.016386648640036583,-0.22667227685451508,0.6422593593597412,0.29450660943984985,0.2231825739145279,-0.2610933482646942,0.5748786330223083,-0.1513655036687851,0.18094545602798462,0.07677795737981796,0.37971463799476624]},"forgetHidden":{"rows":20,"columns":20,"weights":[1.500000238418579,-1.3187940120697021,2.42539381980896,1.1030747890472412,-1.5780600309371948,-0.1236315593123436,1.2594053745269775,1.3190635442733765,1.4256988763809204,1.1764986515045166,-0.5224226713180542,-1.4096041917800903,-2.135885715484619,0.04938485473394394,-1.1367218494415283,0.7609244585037231,0.32428210973739624,1.5479228496551514,-1.4660767316818237,1.5595861673355103,2.2058346271514893,-1.1660511493682861,0.15764056146144867,0.7940502166748047,-1.2141919136047363,-1.9966379404067993,1.755725622177124,1.4949426651000977,1.7899603843688965,1.1983340978622437,-0.8600061535835266,-0.7919710278511047,-0.8603929281234741,0.5392592549324036,-1.68296217918396,0.41247424483299255,0.4286285936832428,1.1319189071655273,-1.502054214477539,0.6266830563545227,0.8594383597373962,-0.3992369771003723,-1.8379435539245605,1.0244723558425903,0.11162479966878891,0.8993452191352844,1.1838122606277466,0.8443865180015564,0.17424960434436798,1.3195713758468628,-1.4289065599441528,-0.6584692001342773,1.3205326795578003,1.5644078254699707,-1.2517443895339966,1.395365595817566,-0.08570902794599533,-1.24449622631073,-1.1694384813308716,0.03921525925397873,1.8636754751205444,-2.216144323348999,-1.7574958801269531,-0.009899693541228771,-1.8369154930114746,1.4062719345092773,1.7844951152801514,-0.1375250667333603,-0.3605668544769287,-0.5309996604919434,-0.9015053510665894,-1.1557263135910034,-0.8348800539970398,0.5046400427818298,-0.5117214322090149,-0.2294163703918457,-1.4885280132293701,0.044284600764513016,-0.2856138348579407,-0.705245316028595,1.1810771226882935,-0.7576688528060913,0.25461646914482117,0.9122379422187805,-1.2815810441970825,0.6203137636184692,1.215032935142517,0.20351146161556244,-0.005637734197080135,0.09685741364955902,-0.6621192097663879,-0.8408368825912476,-1.1703859567642212,0.5998035073280334,0.13479746878147125,0.6797927021980286,2.548275947570801,1.6517009735107422,-0.1859121322631836,-0.2109646052122116,-1.34023118019104,2.36362886428833,-0.3963690400123596,-0.5665630102157593,1.581063985824585,1.5487192869186401,-1.7591785192489624,0.464939683675766,-0.7849205136299133,-0.11782962083816528,0.3395361304283142,1.2075188159942627,-1.3915449380874634,-0.07022826373577118,0.7566789984703064,-0.48097607493400574,0.7750870585441589,1.8559629917144775,0.5838600993156433,-0.3987533748149872,1.593174934387207,-0.9458512663841248,1.0760698318481445,1.0342999696731567,-0.827364444732666,0.6072674989700317,0.9176563620567322,0.8651862144470215,0.9567282199859619,2.3058948516845703,-0.8416967391967773,-0.6915327906608582,-0.4553748667240143,0.10788170248270035,-0.7586328387260437,-0.024561893194913864,0.3863656520843506,1.1630580425262451,-0.7603710293769836,1.2977904081344604,0.7618381381034851,-0.48858654499053955,0.6647120714187622,-0.823471188545227,0.01393535453826189,-0.1718752086162567,0.8151661157608032,-0.6742157936096191,-0.6567307114601135,-0.6486527919769287,-0.2313987910747528,-1.0066750049591064,0.578798770904541,0.33159348368644714,0.579521656036377,-0.8226977586746216,-1.2434147596359253,-1.5384448766708374,0.31789660453796387,-0.8463679552078247,-0.4602327048778534,0.23827533423900604,-0.1662965714931488,-1.095948576927185,2.879775047302246,-0.4066605567932129,-0.8387093544006348,-0.4809906482696533,-0.39437276124954224,-0.3516491949558258,0.018827229738235474,2.121304750442505,2.816859483718872,-0.1396981179714203,0.15588895976543427,0.07670561224222183,-0.9674418568611145,-0.7755448818206787,0.49780136346817017,0.027651015669107437,-0.29225173592567444,0.5408572554588318,0.23101595044136047,-1.2065962553024292,1.404028296470642,-0.20848721265792847,-0.32877278327941895,-0.13416413962841034,-0.4783085584640503,-0.4784868657588959,0.19130444526672363,0.952086329460144,0.05417377129197121,-0.38141554594039917,0.5139045119285583,-0.687544584274292,-2.3190155029296875,-1.413421630859375,0.5189350843429565,-0.487029105424881,0.8147648572921753,-0.25627973675727844,-1.2373720407485962,-2.083087682723999,0.043392669409513474,-0.530444860458374,-0.09651755541563034,-0.8430954813957214,-0.559807538986206,-1.1572375297546387,-0.516601026058197,-0.5581372380256653,-0.05337902531027794,0.4099116921424866,0.15231984853744507,-0.7841669917106628,-0.9356391429901123,-0.8864110708236694,-0.10653693974018097,-1.0944647789001465,0.11284249275922775,0.55283123254776,2.3549087047576904,2.1868739128112793,0.12240529805421829,0.9400274157524109,-0.11012323945760727,0.22483134269714355,0.3262843191623688,0.04231838881969452,-0.5431711077690125,-0.41476303339004517,-1.274262547492981,-0.43702995777130127,-0.15065070986747742,0.5540430545806885,1.4604005813598633,1.3174729347229004,0.11112939566373825,0.33882957696914673,-0.49421995878219604,0.3233672082424164,1.5180472135543823,0.2052292823791504,0.7283458709716797,0.8774586319923401,-0.4591909646987915,1.4641491174697876,1.0002511739730835,1.273757815361023,-1.3790425062179565,0.9258131980895996,-1.3915979862213135,1.525447130203247,0.66041100025177,-0.10754141956567764,2.1764578819274902,1.284870982170105,0.5580189228057861,0.9335969090461731,-0.26937389373779297,-0.28383058309555054,-0.6248704791069031,-0.8322795033454895,1.1617350578308105,-0.9776893854141235,-0.26770883798599243,-0.31994110345840454,-0.1402270346879959,-1.0294984579086304,0.5906901955604553,0.04752238467335701,2.7894585132598877,-0.15833434462547302,0.4491842985153198,-0.6801455616950989,-3.2122557163238525,-2.6716396808624268,0.3699057400226593,-0.848708987236023,0.11877606064081192,0.713327169418335,0.6703106164932251,0.5355089902877808,1.5370205640792847,-0.40547171235084534,0.43756434321403503,0.9249845147132874,-0.22144831717014313,0.08952786773443222,0.42297250032424927,0.7851200699806213,0.1478845775127411,-0.6435357928276062,0.03169288858771324,-0.5708720088005066,-0.3292553126811981,0.8820239901542664,-0.349661648273468,0.0030978445429354906,-0.3170762360095978,0.13328175246715546,0.5273979306221008,-1.499962568283081,0.6227927803993225,-0.584939181804657,-0.4086974561214447,-0.7137697339057922,-0.697006106376648,-1.1766332387924194,0.9489490985870361,-0.12792502343654633,0.38345110416412354,0.39125949144363403,1.0861870050430298,-1.2191848754882812,-0.9938633441925049,-1.4203083515167236,0.9263470768928528,-1.3245130777359009,1.4607661962509155,-1.9829161167144775,0.5789880156517029,2.3722500801086426,-2.1359217166900635,-1.42098069190979,2.6615800857543945,0.32262277603149414,-2.185817241668701,1.0974552631378174,0.12970902025699615,-1.4971864223480225,-1.7412033081054688,-0.06870599091053009,0.2953422963619232,-0.9202825427055359,0.6820687651634216,1.0801843404769897,-0.9613709449768066,0.8160766363143921,0.6951283812522888,-1.0155428647994995,0.06314956396818161,1.3656233549118042,-0.9491973519325256,0.22940950095653534,0.5591811537742615,1.0863454341888428,0.5095536708831787,1.1180799007415771,-1.8636143207550049,-0.9194212555885315,-1.6367907524108887,0.6744431257247925,-1.1346811056137085,0.35102155804634094,1.5108287334442139,1.1128957271575928,-1.2586642503738403,0.43885114789009094,-0.7581113576889038,0.9798892736434937,1.8876903057098389,-0.5564225912094116,1.608476996421814,0.4414411187171936,-1.4754412174224854,-0.04172500595450401,-0.536841869354248,0.8300848007202148,-0.603533148765564,0.5178073048591614,-0.004219482187181711,-1.0077816247940063,0.9237238168716431,-0.6796944737434387,0.21910618245601654,0.9774883389472961,0.9597713351249695,0.07985331863164902,-0.6800482273101807,0.2910178601741791,0.19094255566596985,-1.5383883714675903,1.310995101928711,-0.18517981469631195,-0.27426981925964355,-1.2172908782958984,-0.8962317705154419,-0.8589130640029907,1.2017731666564941,-0.01880829781293869,-0.2115543931722641,-0.48155248165130615,0.8747615814208984,-0.784103274345398,-2.4801204204559326,-1.524893045425415,0.42184263467788696,-0.6639767289161682]},"forgetBias":{"rows":20,"columns":1,"weights":[0,0,0,0,0,0,0,0,0,0,0,0,0,0,0,0,0,0,0,0]},"outputMatrix":{"rows":20,"columns":32,"weights":[-0.6951472163200378,0.4436047375202179,-0.8970759510993958,0.06661396473646164,-1.177720308303833,-0.8522960543632507,-0.6591013073921204,-0.5856544971466064,0.17167960107326508,0.42941781878471375,0.07587660104036331,1.6372265815734863,0.02345586195588112,-1.8153455257415771,0.27139416337013245,-1.4714794158935547,-0.4176034927368164,1.2174268960952759,1.5471380949020386,0.2642175257205963,-1.5270029306411743,0.13713541626930237,-1.83705472946167,0.5324735045433044,0.31715717911720276,-0.44087037444114685,0.34220564365386963,-0.48781999945640564,-0.02954983524978161,-0.791310727596283,0.2901502251625061,1.635149359703064,0.6858645677566528,-0.4843239486217499,-0.6439654231071472,-0.499686598777771,-0.7114561796188354,-0.38573506474494934,0.19358858466148376,-0.8407514095306396,-0.06764858216047287,-0.7127009034156799,1.0360877513885498,0.943372905254364,1.3858146667480469,-0.8831971883773804,0.35463935136795044,0.6668792963027954,-0.5107690095901489,-0.07402319461107254,0.8685831427574158,0.31036168336868286,-0.6516042351722717,0.8640145063400269,-0.8163843750953674,0.5058494210243225,-0.40176141262054443,0.3634960651397705,1.270004153251648,-0.7856897115707397,-0.13681817054748535,0.30241385102272034,0.31555625796318054,0.24514083564281464,0.6741020679473877,0.9712049961090088,-0.5888211727142334,0.4998105764389038,-1.0251511335372925,1.2459102869033813,-1.026908040046692,-0.5489599704742432,0.708165168762207,-0.7343601584434509,1.0841246843338013,0.24833372235298157,0.8587247729301453,-0.31443285942077637,-1.0686709880828857,-1.1094932556152344,0.6281643509864807,-0.6198508739471436,0.6478355526924133,1.1612571477890015,0.04964793846011162,0.12234698235988617,-0.6241243481636047,-1.4963876008987427,1.239593744277954,1.3885254859924316,-0.2578325569629669,1.6555174589157104,1.4277923107147217,1.3123998641967773,-0.9104745388031006,-0.23117759823799133,0.8401011824607849,0.9469473361968994,0.7928488254547119,1.3126932382583618,0.5723041296005249,1.0180870294570923,-0.03213590011000633,0.7591448426246643,-0.008518967777490616,-1.0850845575332642,-0.9444993734359741,-0.9003156423568726,1.076002836227417,1.3818365335464478,-0.6100010275840759,0.7540273070335388,1.2602064609527588,-0.3331143856048584,-1.1121031045913696,1.3808022737503052,1.5085498094558716,0.2351594716310501,0.8937525749206543,-0.92274010181427,1.4174830913543701,0.21707892417907715,-0.7370619177818298,1.1800379753112793,0.059582069516181946,0.8496923446655273,-1.3265883922576904,-1.28352689743042,-0.0027031421195715666,-0.08287675678730011,-0.33996450901031494,-0.4171549677848816,-1.7364078760147095,-0.7358582019805908,-0.28525087237358093,-0.2524416148662567,0.9131260514259338,-1.232161045074463,0.13212533295154572,1.6193698644638062,-0.24865348637104034,-1.3325059413909912,-0.47176456451416016,-1.9602108001708984,-0.46747681498527527,0.33256757259368896,1.5226988792419434,-0.16131415963172913,-1.1134251356124878,0.8332239985466003,-2.055027723312378,0.38692283630371094,0.3332694172859192,0.2050999402999878,-0.40280959010124207,-0.07022768259048462,0.19048543274402618,-0.20017357170581818,-0.477272093296051,0.3574848473072052,-0.7721452713012695,-0.7995827198028564,-0.2390495091676712,-0.27848830819129944,0.454102098941803,-0.35413873195648193,0.21874383091926575,0.2008601427078247,0.24661169946193695,2.345546245574951,0.33875495195388794,-0.3869383931159973,-0.8270754218101501,0.22578264772891998,0.09034880250692368,0.8624760508537292,-0.547735869884491,-0.07821618765592575,0.2880919277667999,-0.6786343455314636,-0.14281412959098816,-1.8765287399291992,0.3929325342178345,0.10318975150585175,-0.15194480121135712,-0.8535740971565247,0.7083070874214172,-0.13461486995220184,-0.630379319190979,-0.29624438285827637,-0.15382416546344757,-0.22393658757209778,-0.9257034659385681,0.1560780555009842,-0.24876289069652557,-1.1753671169281006,-1.008672833442688,-1.4456919431686401,-0.018199045211076736,-0.3357858657836914,0.7920869588851929,0.4685347080230713,-0.16232801973819733,0.8164015412330627,-0.353424608707428,-1.1904999017715454,0.4895709156990051,-0.014197614043951035,-1.639136552810669,0.7418140769004822,1.1288220882415771,-1.020159125328064,-0.7541515827178955,-1.2088618278503418,-1.0914133787155151,1.0349074602127075,-0.4091230630874634,-1.1260915994644165,0.37815791368484497,-0.904323935508728,0.44358426332473755,-0.5846477150917053,0.5904795527458191,1.7819520235061646,0.6624469757080078,0.23219387233257294,-1.1084725856781006,-0.07661023736000061,-0.40112680196762085,-0.1861107051372528,-1.4955271482467651,-0.41018766164779663,0.07289677113294601,-0.6226627826690674,-0.17859046161174774,-0.6503587961196899,0.22170507907867432,0.7509101629257202,0.2651604115962982,-0.7574482560157776,0.2678082287311554,-0.3540877103805542,-0.47201263904571533,0.16311879456043243,-0.24757319688796997,0.940057635307312,-0.46453312039375305,0.2726404070854187,-0.26132336258888245,0.28420490026474,-1.2106504440307617,0.23647233843803406,1.5472996234893799,0.764214038848877,-0.2833220064640045,-0.46134746074676514,-1.194556474685669,-0.361697256565094,0.2807852625846863,-0.7166445851325989,-1.333192229270935,0.25606873631477356,0.43860167264938354,0.29900234937667847,0.31565624475479126,-0.7014335989952087,-2.1109588146209717,-0.6376446485519409,-1.4796005487442017,0.9312151670455933,0.14780393242835999,-0.09519055485725403,0.1913001984357834,1.8070263862609863,0.9081609845161438,-0.7274112701416016,-0.1344810575246811,0.3458639681339264,0.25095805525779724,-0.14357179403305054,0.728645384311676,-0.15606491267681122,-2.08310604095459,0.263515830039978,-1.5500774383544922,-1.5429073572158813,-0.17662964761257172,-0.7006800770759583,0.9961351752281189,0.6191809177398682,0.5511834621429443,0.7849758863449097,0.47381898760795593,0.2888895273208618,-0.5208103656768799,0.7130324840545654,0.19613711535930634,-0.9968576431274414,-0.7760158777236938,-0.7043945789337158,-1.2658451795578003,0.9741812944412231,-0.6779577136039734,-1.0146458148956299,0.3068283498287201,-0.4054807424545288,-0.2938748002052307,0.4465821087360382,1.0051931142807007,0.3844168484210968,0.740919828414917,-0.46894916892051697,0.36950570344924927,0.35309648513793945,-1.5738661289215088,0.9769291877746582,1.080344557762146,1.0384198427200317,-0.6563500761985779,-1.1610690355300903,0.48618611693382263,-0.8465596437454224,0.18537141382694244,0.13198627531528473,-0.8814123868942261,-0.15111029148101807,0.12941090762615204,0.4812081754207611,-0.13294051587581635,-1.3038827180862427,-1.1438668966293335,-0.052682310342788696,-0.215464249253273,0.25132912397384644,0.21676062047481537,0.5664526224136353,-0.210331529378891,0.1282021850347519,0.6860451698303223,0.13806302845478058,0.47442030906677246,1.1639047861099243,0.3826737105846405,0.20017793774604797,-0.05650344863533974,0.6572350263595581,-0.9162997007369995,-0.21916109323501587,-1.1088148355484009,0.18731917440891266,-0.8453054428100586,-0.5575203895568848,-0.10640207678079605,0.636721134185791,-0.032856035977602005,-0.336030513048172,-0.20307525992393494,-1.0025466680526733,-0.7609570622444153,-0.5442414879798889,0.3102991580963135,0.09756352752447128,0.3559093475341797,1.2467585802078247,0.5678603649139404,-1.7363653182983398,0.647118866443634,0.1114334985613823,-0.5405328273773193,0.624212384223938,0.39086076617240906,-0.14649638533592224,-0.6611645221710205,0.2695004343986511,-0.8655559420585632,0.8779740929603577,0.2688831686973572,0.17934903502464294,0.9126434326171875,-0.48193973302841187,0.6830357313156128,0.2081790715456009,0.7744598388671875,1.5837557315826416,0.6593278050422668,1.1016780138015747,-0.9785352945327759,0.9528325796127319,-0.47150835394859314,0.2703230381011963,-0.3235338032245636,-0.03193574398756027,0.8015437722206116,0.25790470838546753,1.4863404035568237,2.047841787338257,1.8001348972320557,-1.5026146173477173,-0.44027140736579895,-0.7441635727882385,0.19341455399990082,-0.10895653814077377,0.3466929495334625,0.7041829228401184,-0.14501851797103882,0.010248344391584396,-1.972879409790039,-0.5316330194473267,-0.4730968475341797,0.9127692580223083,-0.12129944562911987,1.0806634426116943,1.877551555633545,1.1083694696426392,0.1482490748167038,0.50911545753479,-1.0556530952453613,-0.5270631909370422,1.1215039491653442,-0.5515859127044678,1.3627877235412598,0.3212136924266815,1.3017600774765015,0.6818021535873413,-0.0008329865522682667,0.07705853134393692,0.3637109696865082,-1.2635570764541626,-2.8534140586853027,0.45905908942222595,-0.2975202798843384,-0.33377882838249207,-0.23228628933429718,-0.2811644375324249,-0.17792002856731415,-0.18646100163459778,1.0310355424880981,-0.5810028910636902,1.8584096431732178,-0.04215192794799805,0.36678338050842285,0.026340072974562645,1.3297735452651978,0.03824014961719513,-0.35172462463378906,-0.20156027376651764,0.22407269477844238,-0.28793424367904663,-0.19351288676261902,0.0760369822382927,-0.6214039325714111,-0.9361677765846252,-1.0217909812927246,-1.1662366390228271,-0.3973943591117859,-0.2552850544452667,-0.20450833439826965,-0.9015554785728455,-1.8692110776901245,0.5148665904998779,-1.0942795276641846,0.1505538672208786,0.4492665231227875,-0.9787704348564148,-1.0070916414260864,2.0581536293029785,1.2988320589065552,-0.7321351170539856,-0.535908043384552,0.784193754196167,-0.016288243234157562,0.6576389670372009,-0.1784840226173401,-0.26226964592933655,-1.3977582454681396,-1.3301949501037598,-0.8054563403129578,-0.6666259765625,-0.09143465757369995,0.28497081995010376,-1.3812214136123657,0.36251822113990784,0.9257221817970276,-0.33065730333328247,0.3886314332485199,0.25255459547042847,0.29215148091316223,0.9049932956695557,0.23490837216377258,0.07369234412908554,-2.3679139614105225,-0.2870810627937317,-1.299242615699768,0.8728554844856262,0.4949706494808197,-0.39533764123916626,-0.15511922538280487,1.233557105064392,-0.5639517307281494,-0.560515820980072,0.8132399320602417,0.05746137723326683,0.3643436133861542,-0.38696035742759705,0.2805543541908264,-0.8094207644462585,-1.660700798034668,0.6153346300125122,-0.9584307670593262,-1.3842509984970093,-0.6555307507514954,-0.5381736755371094,1.6886746883392334,0.9550549983978271,0.09595439583063126,-0.7658546566963196,-0.21699406206607819,-0.8017125725746155,-0.866623044013977,0.6093677282333374,1.4594058990478516,-0.8445199728012085,0.49788689613342285,0.2385966032743454,0.7706810235977173,-0.7177547216415405,0.37888437509536743,0.09558003395795822,-0.6706967353820801,-0.3520958721637726,-0.5749196410179138,-0.31469157338142395,1.8123905658721924,-0.1536010056734085,-0.46123605966567993,0.24364423751831055,-0.47688186168670654,0.6693750023841858,-0.13083982467651367,0.6983956098556519,1.0692145824432373,1.6297518014907837,0.8413322567939758,0.22731539607048035,0.11492540687322617,1.3546149730682373,-0.05250484123826027,0.3651970326900482,0.49837902188301086,0.12481718510389328,0.2371874749660492,-0.09160486608743668,0.872886061668396,1.9458343982696533,0.9827044606208801,-1.1694988012313843,-0.08032340556383133,-0.028890736401081085,-0.38335663080215454,0.6007296442985535,-0.6269934773445129,-0.5656505227088928,1.1397734880447388,-0.9535420536994934,0.854097306728363,-1.9216082096099854,0.8826478123664856,-0.5813397765159607,-0.5719180703163147,1.0056418180465698,0.6061716675758362,0.08604215085506439,1.1181095838546753,1.0774357318878174,0.011504619382321835,0.26164352893829346,-0.9574976563453674,-1.824418306350708,0.08315727114677429,-0.24160045385360718,-2.13987398147583,-0.5983583331108093,-0.03763027861714363,-1.179148554801941,-0.707807719707489,0.38360899686813354,0.7587711215019226,0.9560028314590454,-0.8009822964668274,-0.9007822871208191,-0.3378724157810211,-0.6729877591133118,-1.0173234939575195,0.27301907539367676,3.5531532764434814,-0.4216479957103729,-0.8132640719413757,0.20117735862731934,-0.8822250366210938,-0.36682435870170593,-0.5782585144042969,-0.07613705843687057,0.42159754037857056,-1.0746736526489258,-1.2908002138137817,-0.6259705424308777,0.18530181050300598,1.4225988388061523,0.20220132172107697,-0.24316783249378204,0.8254708051681519,0.023324374109506607,-0.40278634428977966,0.9129598736763,-0.195937842130661,1.319111704826355,0.06316208094358444,-0.8548281192779541,-0.5209273099899292,-0.6104205250740051,-0.8150199055671692,1.4213460683822632,-0.7189614176750183,-0.44740742444992065,0.6019461750984192,-0.29818403720855713,-1.139644742012024,-0.22785618901252747,1.4533944129943848,-0.09109232574701309,0.6570267677307129,-0.734692394733429,0.4146708846092224,0.7464041709899902,-1.3933894634246826,1.577383041381836,0.38030359148979187,0.18955907225608826,-0.4793521463871002,-1.3215328454971313]},"outputHidden":{"rows":20,"columns":20,"weights":[0.33246779441833496,-0.709174633026123,0.1005275622010231,0.06062499061226845,-1.1007657051086426,0.920874834060669,0.3462294042110443,-0.3060287833213806,0.009716598317027092,-0.3698575496673584,-0.249908447265625,-0.7373220324516296,-1.6081182956695557,0.04127142205834389,0.24388983845710754,0.1489747166633606,0.18284863233566284,1.65285325050354,0.12092883884906769,-0.08203514665365219,0.32929909229278564,-0.7069438099861145,-0.31162917613983154,0.7384811639785767,-0.7246891260147095,0.46754738688468933,0.22686974704265594,0.15529081225395203,0.7694438695907593,0.014749509282410145,0.3638645112514496,-0.14289985597133636,-0.9607759714126587,-0.17206639051437378,-0.13183900713920593,0.19717444479465485,0.688828706741333,1.10413658618927,-0.311592698097229,-0.027768569067120552,2.0996932983398438,-2.374236822128296,-1.120629072189331,0.2171817123889923,-1.3827030658721924,0.6656960248947144,1.3572523593902588,-0.7479788064956665,-0.41889429092407227,-0.7468573451042175,-0.018003981560468674,-1.7070499658584595,1.653621792793274,-0.015579062514007092,0.21204496920108795,-0.40131768584251404,0.6852912902832031,-0.2679256498813629,0.4958381652832031,-0.7663363218307495,0.7469621300697327,-1.0186280012130737,-0.8549579977989197,1.5882877111434937,-1.0784186124801636,0.5283632874488831,1.817413568496704,1.2991352081298828,0.15836654603481293,0.6358843445777893,-0.9810780882835388,0.023526089265942574,-1.0650629997253418,1.500146508216858,-1.2169314622879028,-0.2014712542295456,1.6925344467163086,2.0612425804138184,-0.28609099984169006,0.12263993918895721,2.0298283100128174,-0.6402097940444946,-0.8009042739868164,-1.128069281578064,-0.056524887681007385,1.3677781820297241,1.7307323217391968,-0.3421887755393982,0.817327618598938,-0.9983780384063721,0.44864845275878906,0.03481995686888695,0.9043595194816589,0.27709734439849854,-0.6426206827163696,0.36562055349349976,-0.8656347990036011,-0.9546681642532349,-0.6408483982086182,-0.9291217923164368,0.5975490212440491,0.18149612843990326,0.008050700649619102,-0.09713143110275269,1.1550917625427246,0.19687917828559875,0.6780440211296082,1.2445932626724243,0.8951500654220581,0.8850142359733582,-1.3576552867889404,1.2588708400726318,-1.644736647605896,0.5673430562019348,-0.6540350914001465,0.23428691923618317,1.2816318273544312,2.272749423980713,-0.5563989877700806,0.6420816779136658,0.8819128274917603,-1.0077069997787476,-0.01759367622435093,0.13339848816394806,-0.6493954062461853,0.1503898799419403,0.7253960967063904,0.22359217703342438,0.15800608694553375,-0.2726280391216278,0.13888171315193176,-0.8679506182670593,-1.6195921897888184,-0.03273990750312805,-0.1707279086112976,0.1913839429616928,0.6602131724357605,1.10928475856781,-0.5913349390029907,-0.3076498806476593,-0.7310936450958252,0.11273285746574402,-0.16768333315849304,-2.36523699760437,0.8350510597229004,-0.8198246955871582,-0.012116809375584126,-0.1281326711177826,-0.9770010113716125,-0.4257712662220001,1.130211591720581,0.635636568069458,2.816215991973877,-0.554603099822998,0.6705923080444336,-0.4540557563304901,-1.948734164237976,-1.1122171878814697,-0.06464071571826935,-0.4269282817840576,-0.9921364188194275,-0.014661356806755066,0.04437151178717613,-2.146836757659912,1.8137789964675903,-0.8364941477775574,0.2375960648059845,-0.7576496601104736,0.30171552300453186,-0.4648355543613434,-0.04109004884958267,1.3187271356582642,1.463687539100647,0.2475791871547699,0.012351092882454395,0.23654206097126007,-1.0398348569869995,-1.6881448030471802,0.6500227451324463,-0.3511127829551697,0.4361359477043152,-0.5188426971435547,-0.0913802981376648,-0.8752099871635437,-0.9708114266395569,-0.9643603563308716,0.7496094703674316,-0.2081754505634308,0.3091859519481659,0.04587786644697189,0.11254481971263885,-0.5991714000701904,1.5153467655181885,0.09438171237707138,-0.22015061974525452,0.11619257926940918,-1.1754705905914307,-1.3365576267242432,-0.49528956413269043,0.07952554523944855,-0.013029706664383411,0.19987282156944275,-1.1472142934799194,-2.44980525970459,0.8184996843338013,-0.502282977104187,-0.41936618089675903,-0.5857782363891602,0.33049094676971436,-0.6551374197006226,-0.5478641390800476,0.6904450058937073,0.9966049194335938,0.5306565761566162,-0.5892614722251892,-0.31373462080955505,-2.7696762084960938,-1.9097896814346313,0.13724033534526825,-0.6321547627449036,1.2518725395202637,-0.8461045026779175,-0.36646103858947754,0.9994453191757202,-0.2277854084968567,0.3005053400993347,1.554578423500061,0.34675344824790955,1.0113106966018677,0.6219627261161804,0.3307395875453949,-1.0122833251953125,-0.4770398736000061,-0.5496917963027954,-1.0522410869598389,0.7005455493927002,1.782570242881775,1.1752313375473022,-0.8312738537788391,0.3197314441204071,0.9371148943901062,-1.5273867845535278,-1.1303956508636475,-0.09001758694648743,-2.304952621459961,0.34339502453804016,2.1256072521209717,-0.5818275213241577,0.11381284892559052,0.41909176111221313,0.27671152353286743,-1.9460046291351318,-0.39851102232933044,-0.40201863646507263,-0.9689860343933105,0.3122371733188629,1.1091943979263306,1.102247953414917,-0.9858968257904053,0.08068934082984924,-0.5706874132156372,0.7572159767150879,1.3201640844345093,-0.6873528957366943,1.316367268562317,-1.1327240467071533,-0.952050507068634,-0.4416763186454773,-0.4380868077278137,-0.6575989723205566,0.3296445310115814,0.2658171057701111,1.1771548986434937,0.2168460488319397,0.22810496389865875,-0.2020803540945053,-1.4229607582092285,-2.4607484340667725,0.8154729008674622,-0.3986399173736572,0.8527470827102661,-0.8399779796600342,-0.35700589418411255,-1.1952203512191772,-0.6465445756912231,0.12817507982254028,1.005713701248169,-0.02462644688785076,0.1842717081308365,0.38067570328712463,-0.12310957163572311,-1.057950735092163,2.0777764320373535,0.5472297072410583,-0.018292002379894257,-0.1106954887509346,-2.3119962215423584,-1.8500874042510986,-0.5108674168586731,0.7442272901535034,-0.10628674924373627,0.5691997408866882,0.3591817319393158,-1.4751505851745605,1.0860718488693237,-1.4061213731765747,-0.24630841612815857,-0.04532337561249733,0.5965760350227356,-0.09688601642847061,1.062328577041626,0.17680232226848602,2.594278335571289,-0.7834228277206421,-0.43947502970695496,0.31232839822769165,-0.734136164188385,-0.3575267195701599,-0.74094557762146,0.4439554512500763,1.6854748725891113,-2.21724009513855,-0.33244961500167847,2.2829413414001465,-1.9688743352890015,0.47720497846603394,2.8585450649261475,0.45816993713378906,1.1258574724197388,1.2803279161453247,-0.10052672028541565,-2.418499708175659,-0.8702294230461121,-0.16144253313541412,-0.7943998575210571,1.018613338470459,0.8801421523094177,0.5840561985969543,-1.3019919395446777,1.1907728910446167,1.1580896377563477,-1.9074385166168213,-0.46121302247047424,2.7031753063201904,-2.103188991546631,1.22080397605896,1.9151092767715454,0.4702022969722748,-0.017904208973050117,0.5599392056465149,-0.4161125719547272,-2.2786195278167725,-1.424631118774414,0.48769545555114746,0.3017162084579468,1.3413054943084717,0.8473803400993347,0.23540496826171875,-0.5395157337188721,0.5746114253997803,0.6107158660888672,-0.6741406917572021,0.9762358665466309,-0.6782099008560181,-0.48120829463005066,-1.0275787115097046,0.9197249412536621,-0.3565639555454254,-0.8722063899040222,-0.042829886078834534,1.037548542022705,-1.332709789276123,1.628814697265625,0.07937342673540115,0.7858112454414368,-0.4603334069252014,-1.5466722249984741,-0.9314228892326355,0.11390140652656555,-0.25506141781806946,0.7902541756629944,-0.27547410130500793,0.7031130790710449,-0.7289038896560669,-0.8328174352645874,-0.5985836386680603,1.066874623298645,0.3661732077598572,0.21260900795459747,-0.15861254930496216,0.5037220120429993,-0.7976210713386536,1.5614736080169678,0.32331687211990356,0.16717574000358582,0.45444753766059875,-2.4881153106689453,-2.6235640048980713,-0.10423163324594498,-0.05523187667131424]},"outputBias":{"rows":20,"columns":1,"weights":[-0.4704309105873108,0.5781392455101013,-1.5623036623001099,-0.632976233959198,-1.790585994720459,0.8918278217315674,-0.8674030303955078,0.027493255212903023,-0.41414663195610046,-0.001398849068209529,-0.7999638319015503,-0.9376373291015625,0.25313764810562134,-1.0354832410812378,-0.3568412661552429,-0.2678734362125397,-0.36471912264823914,-0.20120632648468018,0.1178128644824028,-0.021355217322707176]},"cellActivationMatrix":{"rows":20,"columns":32,"weights":[-0.6747231483459473,0.8673081398010254,0.81744784116745,-0.7993464469909668,0.15804579854011536,-0.5854988098144531,0.6221935153007507,-0.13900628685951233,0.944871187210083,1.3463754653930664,0.19464078545570374,1.2587964534759521,-0.9832973480224609,-1.3141552209854126,0.5166602730751038,0.9125273823738098,-1.3203662633895874,0.185011088848114,0.5410978198051453,-0.6262529492378235,0.12712490558624268,-0.5942599177360535,-0.750433623790741,0.8181290626525879,-0.7036989331245422,-1.2803351879119873,2.713850259780884,-0.11566516757011414,0.27393481135368347,0.37032219767570496,0.5671629905700684,2.3192834854125977,-0.3640349507331848,-0.044366467744112015,0.771742045879364,0.39072683453559875,0.756433367729187,0.7998830676078796,-0.35271894931793213,0.7949509024620056,-0.8080093860626221,-0.4138389229774475,-0.2090429961681366,-0.9272240996360779,0.8064016699790955,0.5924944877624512,-0.2539268136024475,-0.2040448635816574,1.0775529146194458,-0.7141078114509583,-1.1094824075698853,0.38954874873161316,0.9006531834602356,0.8134415149688721,0.7972353100776672,-1.0060625076293945,0.37798377871513367,0.4068845510482788,-0.883752167224884,0.20027737319469452,-0.04087996855378151,-0.18143045902252197,0.10948438197374344,-0.5981059074401855,-0.21441657841205597,0.22486524283885956,0.04585959017276764,0.39168182015419006,-0.5896207690238953,-0.953674852848053,-0.1974967122077942,0.3294465243816376,-0.9512511491775513,0.10945919901132584,0.2960643172264099,2.3446106910705566,-0.5030161142349243,-2.141148567199707,-0.01862768828868866,-1.2378010749816895,-0.036035772413015366,1.192299723625183,0.9378765821456909,0.4358896017074585,-1.4555503129959106,-0.27385199069976807,-1.8220998048782349,0.7179959416389465,0.2098330706357956,-0.16193167865276337,1.2443602085113525,-0.38393405079841614,-0.10288415104150772,-0.4788837432861328,0.13428759574890137,2.4962716102600098,-0.6777830719947815,0.16508439183235168,1.0442602634429932,-0.24401576817035675,-0.5439543724060059,-1.577730655670166,0.636644721031189,0.5065941214561462,0.1496642678976059,-0.22024716436862946,-0.49129873514175415,0.5629016160964966,-1.1353824138641357,-1.5532922744750977,0.2217271476984024,-0.2957574129104614,-1.4323912858963013,2.3417410850524902,1.3841173648834229,-0.7378188371658325,-0.8161523938179016,-0.08160188049077988,-0.22058725357055664,1.039376974105835,0.03522390127182007,-0.22848139703273773,0.470828652381897,-0.5196122527122498,-1.0287364721298218,-1.0793073177337646,0.2704567015171051,0.8022679686546326,-0.05954445153474808,-0.3308624029159546,0.49241921305656433,0.10389912128448486,0.6489087343215942,2.10276460647583,0.36752045154571533,0.6040964722633362,-0.18004287779331207,0.3417210280895233,-0.06372121721506119,-1.233909249305725,0.08675312250852585,1.9294615983963013,-0.43048325181007385,0.024909766390919685,1.0533438920974731,-0.29131370782852173,-0.9804170727729797,0.11470049619674683,0.6910260915756226,-0.26670169830322266,0.3072209358215332,-1.5363633632659912,-0.04749325290322304,-0.5763936042785645,-0.8554276823997498,0.8280231952667236,-0.15178406238555908,0.23994919657707214,-1.1064093112945557,-1.0199462175369263,0.565181314945221,0.9165618419647217,0.050623826682567596,-0.8256428837776184,0.0416516549885273,0.05505521968007088,-0.17784376442432404,0.510341465473175,0.8282668590545654,0.25814491510391235,-0.8711021542549133,-1.3523948192596436,0.6248844265937805,1.188368320465088,-0.4621730446815491,0.7372006177902222,0.3302569091320038,-0.9845184683799744,-0.3301734924316406,-0.6448203325271606,1.805397868156433,-0.5336183309555054,1.1921824216842651,-0.38578343391418457,0.1795898675918579,-0.03262075409293175,-1.4628738164901733,0.4705478250980377,0.3582843542098999,0.6393077969551086,-0.579031765460968,-0.314572811126709,-0.5012811422348022,0.2822685241699219,1.2045445442199707,0.1853773593902588,0.2815512418746948,-1.1395052671432495,0.5828936696052551,0.4671096205711365,0.2544000446796417,0.3976641893386841,-0.5561420917510986,0.9056997299194336,-0.9843499660491943,-1.4418290853500366,0.0997394323348999,0.3631110191345215,-1.5588879585266113,1.4023741483688354,0.78901207447052,0.39032313227653503,-0.6665590405464172,-1.1635384559631348,-0.23113037645816803,1.532837152481079,0.3228302001953125,-0.6908490061759949,0.5000163912773132,-0.8303335905075073,-0.11744337528944016,-0.6431468725204468,1.2360280752182007,2.1662280559539795,-1.9553905725479126,-1.157198190689087,1.1310960054397583,0.03666958585381508,0.27202847599983215,0.1056729108095169,1.3377232551574707,-0.07848096638917923,-0.7820397019386292,1.334580898284912,0.05322231352329254,0.3708001375198364,-0.359246164560318,0.09563083201646805,0.8503793478012085,0.7919946908950806,0.1533602476119995,1.2794842720031738,-0.3620361387729645,-0.11458513140678406,0.2569279968738556,-1.0032998323440552,0.2580357491970062,-0.09031374007463455,-0.573388934135437,-0.9254130125045776,0.41699299216270447,-0.2325962632894516,-1.2396410703659058,-1.3101435899734497,0.225372314453125,0.05918684974312782,-0.5720850825309753,-0.6999453902244568,0.8407692909240723,-0.5623705387115479,1.7012020349502563,0.3902576267719269,1.5227153301239014,1.1879589557647705,-0.6240400671958923,1.7111318111419678,-0.8211534023284912,0.28453677892684937,-0.5431410670280457,-0.6831046938896179,0.6145749092102051,0.910561740398407,-0.04326089099049568,0.8034707903862,-1.463117241859436,-0.246656596660614,-0.2764508128166199,-0.9466915726661682,0.5902937054634094,0.24475586414337158,-1.1837944984436035,-1.8665149211883545,0.22738735377788544,0.0004220175032969564,-0.4152868092060089,-0.6693959832191467,1.6360268592834473,-0.8611749410629272,-0.7220343947410583,-0.5297130942344666,0.5019489526748657,-0.43063807487487793,0.8460309505462646,-1.27424955368042,0.6652462482452393,0.6225560903549194,-0.5059787631034851,1.1250873804092407,-0.671510636806488,0.10235264897346497,-0.22849349677562714,-0.2814839780330658,0.6174310445785522,0.45971500873565674,-1.335970401763916,0.5715550780296326,-0.6067383885383606,-1.0390968322753906,-0.5802313685417175,-0.5385798215866089,0.22353479266166687,1.019416332244873,-0.7239842414855957,-1.6119896173477173,0.7516120076179504,-1.1627739667892456,-0.6487566828727722,-0.7973596453666687,1.0681297779083252,0.43989938497543335,-0.06432253122329712,-0.607208251953125,-0.2169119268655777,1.2329930067062378,-0.7813133597373962,0.004675759933888912,0.09818711131811142,0.0567513182759285,-0.9330242872238159,-0.3018624186515808,-0.4461989104747772,1.4181731939315796,0.37182581424713135,-1.1404492855072021,0.22069457173347473,-0.6723044514656067,-0.34869739413261414,0.949594259262085,1.56470787525177,0.13781581819057465,-0.7511823177337646,0.22207792103290558,-1.3437830209732056,0.509166955947876,-0.26885902881622314,-0.7520749568939209,-0.11339839547872543,-0.4684615135192871,-1.2126619815826416,-1.2753915786743164,0.19475263357162476,0.9014325141906738,-0.6664350628852844,-0.43671172857284546,0.08979731798171997,0.5168669819831848,0.20940230786800385,0.7924116253852844,0.5937634706497192,0.023140402510762215,-0.1622457653284073,0.7710309028625488,0.14055806398391724,-1.312387466430664,-0.8271049857139587,2.111651659011841,-0.8872377276420593,-0.3782990276813507,0.6091960668563843,-0.7499667406082153,-1.176223874092102,0.10651454329490662,1.2516446113586426,-0.6604089140892029,0.34951722621917725,-1.1247422695159912,-0.07278802990913391,-0.6887848973274231,-1.2129042148590088,0.41666245460510254,-0.39212778210639954,-0.133272185921669,-1.0536129474639893,-0.9789047837257385,-0.323937326669693,0.1723240315914154,-0.21944451332092285,-0.09899108111858368,-0.17072241008281708,0.4561688303947449,0.05690282583236694,-0.5720183253288269,0.6572732925415039,0.3303917646408081,-0.04826006293296814,-0.2567266523838043,-0.2505628168582916,0.02182898484170437,0.21014271676540375,0.11982264369726181,-0.23969312012195587,-0.6607265472412109,0.5910421013832092,-0.09645391255617142,-0.07690778374671936,-0.8156460523605347,-0.31889021396636963,-0.168753519654274,-0.29166749119758606,-0.302673876285553,1.2553460597991943,-0.16825778782367706,0.6960818767547607,0.5424444675445557,0.29772743582725525,-0.20028840005397797,0.25893282890319824,0.6320450901985168,0.657416582107544,-0.8607224225997925,0.2999372184276581,0.22120048105716705,0.017970183864235878,0.5327264666557312,1.0565499067306519,-0.09484556317329407,-0.6822261810302734,-1.2952369451522827,-0.26811161637306213,0.9207346439361572,-0.15260832011699677,0.990677535533905,-0.017503168433904648,-0.8139277100563049,-1.2363413572311401,-0.5640578866004944,1.0805033445358276,-0.14450624585151672,2.4846010208129883,-0.3423221707344055,-0.5398092865943909,0.3163282871246338,-0.6889789700508118,0.1374356597661972,0.699366569519043,0.8140729069709778,0.3046503961086273,-0.6366350650787354,1.1311951875686646,1.1811270713806152,-1.2649304866790771,0.9305378198623657,-1.0012633800506592,0.6424612402915955,-1.914434790611267,-0.7596787214279175,0.8632124662399292,-2.365999221801758,0.2256350964307785,0.41777855157852173,0.2538309693336487,-0.17500479519367218,-1.117807388305664,-1.4785023927688599,0.8445946574211121,-1.034684658050537,0.7294307351112366,0.9183096289634705,0.4908742606639862,0.7598783373832703,-1.0272756814956665,-1.1654354333877563,1.0756810903549194,1.572600245475769,-0.690862238407135,0.8113365769386292,1.0614296197891235,0.9156665802001953,-1.0698093175888062,0.16720908880233765,-0.2983529567718506,-0.5452591180801392,0.8009557723999023,-0.7498959302902222,0.27591732144355774,-1.383787751197815,-0.01133353915065527,1.1060816049575806,-1.291639804840088,0.6378650069236755,-1.181882381439209,0.43832558393478394,-0.2549396753311157,-1.3474090099334717,0.7406513690948486,0.1843428611755371,-0.6372523903846741,1.9234216213226318,0.6968768835067749,-0.568811297416687,-1.1385929584503174,0.07764263451099396,0.15376676619052887,1.3013015985488892,-0.3313296437263489,-0.15165609121322632,-0.3846164047718048,-1.056984782218933,-0.44419312477111816,-0.8776127099990845,0.8137966394424438,1.4353375434875488,-0.5960686802864075,-1.2269377708435059,0.4247347414493561,-1.5609664916992188,0.22399073839187622,-0.5836259722709656,0.4526132047176361,0.5668245553970337,-0.9908117055892944,0.7937471270561218,-1.1281641721725464,-0.8249711990356445,-0.44287192821502686,0.6175193786621094,0.9670091867446899,0.9725271463394165,-0.17188182473182678,1.1772888898849487,-0.48318588733673096,-1.8088338375091553,0.32491791248321533,-0.07672359049320221,0.8027027249336243,0.3499523103237152,-0.6738376617431641,-2.7313194274902344,-0.5957967042922974,-0.5488806366920471,-1.6352630853652954,-1.1528812646865845,0.6309307217597961,0.24650277197360992,-0.6201988458633423,-0.7001766562461853,0.977566659450531,-0.5772707462310791,0.8450345396995544,-0.695610761642456,0.5359289646148682,0.8118950724601746,-1.3200703859329224,-0.015054098330438137,-0.5617742538452148,-0.039544884115457535,0.3133656680583954,0.0013905043015256524,0.6565552353858948,1.3401774168014526,-0.07313144207000732,0.13782371580600739,-0.5938847661018372,-0.46418046951293945,0.021150266751646996,-0.29401275515556335,0.506665050983429,0.27214759588241577,-0.8190987706184387,-0.7101056575775146,-0.1879994422197342,-0.16058605909347534,-0.7963207960128784,-0.6099335551261902,0.61859530210495,0.12660576403141022,0.9860045909881592,0.023167721927165985,0.8096091151237488,1.4750447273254395,0.008819783106446266,1.428564429283142,-1.44624662399292,-0.04042047634720802,0.0337379164993763,-2.5967118740081787,-0.10094968229532242,-0.18330463767051697,0.8840625286102295,0.39830753207206726,-1.8508630990982056,-0.6902839541435242,1.546314001083374,-0.7972205877304077,-0.22541283071041107,2.194880247116089,1.0803250074386597,1.5592257976531982,-0.3990136384963989,-0.4417497515678406,1.5513437986373901,1.9368016719818115,-0.9994890093803406,1.3437130451202393,0.3240567743778229,0.2577146887779236,-0.7368229627609253,-0.6948565244674683,-0.5798724293708801,-1.203662395477295,0.6732966899871826,-0.10695581138134003,0.4647897481918335,-0.8695979118347168,0.7659931182861328,1.1877886056900024,-1.5208468437194824,0.7138575315475464,-0.5244730114936829,0.29047730565071106,-0.5245802998542786,-0.5358200073242188,0.9376398921012878,-0.02627437189221382,-1.579289197921753,2.1290781497955322,-0.6865220069885254,-0.301703542470932,-0.7111462950706482,-0.2054765224456787,0.06812132894992828,1.4964253902435303,-0.14559246599674225,0.5485326051712036,-1.179726481437683,-1.401943564414978,-0.920015811920166,-1.4800981283187866,1.5705626010894775,0.4305209219455719]},"cellActivationHidden":{"rows":20,"columns":20,"weights":[-0.26636913418769836,0.858430802822113,0.7129177451133728,0.10955802351236343,0.03852240368723869,-0.4111526608467102,-0.34915804862976074,0.6809691786766052,1.2181696891784668,0.8552280068397522,0.15698787569999695,-0.20828640460968018,1.1237808465957642,0.31592679023742676,-1.0006963014602661,0.6775586009025574,-1.688968300819397,-0.7321901321411133,-1.2358263731002808,1.1429725885391235,-2.423900604248047,0.22740541398525238,0.16667406260967255,-0.15933869779109955,0.5001011490821838,0.47978460788726807,-1.267425537109375,-0.5229153037071228,-2.076791286468506,-0.5673128962516785,0.0377371683716774,1.2399132251739502,-0.9388638138771057,-0.5302861332893372,1.4651702642440796,-0.8253607749938965,1.9935564994812012,0.9862773418426514,1.393615961074829,-0.34840455651283264,-0.5745304822921753,0.5844913721084595,-0.18315790593624115,-0.6442345380783081,0.2296118587255478,1.66056489944458,0.1878463625907898,0.20146556198596954,-0.8144195675849915,0.7495684623718262,-1.0814311504364014,-0.5271432399749756,0.6937486529350281,-0.7914465069770813,0.295673668384552,-0.008749145083129406,0.7566477060317993,0.6274399161338806,-0.5480672717094421,0.059409089386463165,1.3167173862457275,-0.44858402013778687,0.4586665630340576,0.38887283205986023,0.5054473876953125,-0.7280566692352295,0.6723737716674805,0.9339590072631836,-0.8011003732681274,1.0214803218841553,-0.3419519364833832,-0.12564483284950256,0.46948614716529846,-0.03713839128613472,-0.0061668516136705875,0.40049323439598083,0.251071035861969,-0.8279780149459839,-1.4989581108093262,0.8090120553970337,-1.0887609720230103,0.42453545331954956,-1.1650580167770386,-0.15280048549175262,0.2574828267097473,0.779147207736969,-0.6703929305076599,-0.42825940251350403,0.13079699873924255,-0.9456360340118408,-0.2619152069091797,0.9701329469680786,-0.2494691163301468,0.03166533634066582,0.10671564936637878,-0.7021011114120483,0.356827050447464,