{
  "type": "LSTM",
  "options": {
    "inputSize": 32,
    "inputRange": 32,
    "hiddenLayers": [20, 20],
    "outputSize": 32,
    "decayRate": 0.999,
    "smoothEps": 1e-8,
    "regc": 0.000001,
    "clipval": 5,
    "maxPredictionLength": 100,
    "dataFormatter": {
      "indexTable": {
        "w": 0,
        "h": 1,
        "a": 2,
        "t": 3,
        " ": 4,
        "d": 5,
        "o": 6,
        "e": 7,
        "s": 8,
        "y": 9,
        "u": 10,
        "r": 11,
        "c": 12,
        "m": 13,
        "p": 14,
        "n": 15,
        "?": 16,
        "W": 17,
        "i": 18,
        ",": 19,
        "g": 20,
        "l": 21,
        "B": 22,
        "T": 23,
        "I": 24,
        ".": 25,
        "'": 26,
        "b": 27,
        "!": 28,
        "stop-input": 29,
        "start-output": 30,
        "unrecognized": 31
      },
      "characterTable": {
        "0": "w",
        "1": "h",
        "2": "a",
        "3": "t",
        "4": " ",
        "5": "d",
        "6": "o",
        "7": "e",
        "8": "s",
        "9": "y",
        "10": "u",
        "11": "r",
        "12": "c",
        "13": "m",
        "14": "p",
        "15": "n",
        "16": "?",
        "17": "W",
        "18": "i",
        "19": ",",
        "20": "g",
        "21": "l",
        "22": "B",
        "23": "T",
        "24": "I",
        "25": ".",
        "26": "'",
        "27": "b",
        "28": "!",
        "29": null,
        "30": null,
        "31": null
      },
      "values": [
        {
          "input": "what does your company do?",
          "output": "We are a construction company, nothing much , nothing less"
        },
        {
          "input": "your company do?",
          "output": "We are a construction company, nothing much , nothing less"
        },
        {
          "input": "who are you?",
          "output": "We are Blue Twitch Institute. We are a construction company, nothing much , nothing less"
        },
        {
          "input": "what's the idea?",
          "output": "We are a construction company, nothing much , nothing less"
        },
        {
          "input": "whats the idea?",
          "output": "We are a construction company, nothing much , nothing less"
        },
        {
          "input": "what's the idea?",
          "output": "We are a construction company, nothing much , nothing less"
        },
        { "input": "The world is a terrible place!", "output": "sad" }
      ],
      "characters": [
        "w",
        "h",
        "a",
        "t",
        " ",
        "d",
        "o",
        "e",
        "s",
        "y",
        "u",
        "r",
        "c",
        "m",
        "p",
        "n",
        "?",
        "W",
        "i",
        ",",
        "g",
        "l",
        "B",
        "T",
        "I",
        ".",
        "'",
        "b",
        "!",
        "stop-input",
        "start-output",
        "unrecognized"
      ],
      "specialIndexes": [29, 30, 31]
    }
  },
  "trainOpts": {
    "iterations": 1000,
    "errorThresh": 0.005,
    "log": true,
    "logPeriod": 10,
    "learningRate": 0.01,
    "callbackPeriod": 10,
    "timeout": 50000,
    "momentum": 0.1
  },
  "input": {
    "rows": 33,
    "columns": 32,
    "weights": [
      -0.023361986503005028, -0.8160380125045776, -0.12060599029064178,
      -0.14246663451194763, 0.5368518829345703, -0.15383096039295197,
      0.4455765187740326, 0.2564947009086609, -1.3986717462539673,
      -0.8013613224029541, 0.028010085225105286, -0.33258408308029175,
      1.1902143955230713, -0.7492784261703491, 0.33302438259124756,
      -1.5025010108947754, -0.3925926089286804, -1.7779412269592285,
      0.5412793755531311, -0.6731038093566895, 1.3292250633239746,
      -0.1258135885000229, -1.1459276676177979, 0.4421635866165161,
      0.65494704246521, 0.33071398735046387, 1.0386428833007812,
      0.18894889950752258, -1.3843879699707031, -0.45036888122558594,
      -0.14246048033237457, 0.12167878448963165, -1.159582495689392,
      -0.5217134952545166, -0.5433364510536194, 0.13620895147323608,
      0.5787826180458069, 0.12239862233400345, 0.46464958786964417,
      0.29080837965011597, 1.2357138395309448, 0.33937767148017883,
      0.3709319233894348, -0.16110843420028687, -1.259595513343811,
      -0.5044960975646973, 0.34383973479270935, 0.5534979104995728,
      -0.8003093600273132, -0.25554510951042175, -0.6427332758903503,
      -0.8361786603927612, 0.23340846598148346, -0.19376231729984283,
      -0.15098848938941956, 0.02753453515470028, -1.0522617101669312,
      0.78877854347229, 0.5208439230918884, 0.6709240078926086,
      0.7942789196968079, -0.24970263242721558, -0.4867335259914398,
      0.5422222018241882, -0.6813961267471313, -0.8153901100158691,
      -1.290124535560608, 0.8137512803077698, 0.3242422938346863,
      -0.8114991784095764, 0.11696574836969376, -0.35765892267227173,
      -0.7301815152168274, -0.3507959842681885, 0.27887386083602905,
      -0.2808350920677185, 1.14496910572052, -1.2488692998886108,
      -0.1143922358751297, -0.5608252286911011, -1.4142992496490479,
      0.3842424154281616, 0.9550390243530273, -0.5234308838844299,
      1.5246376991271973, 0.7957490682601929, 0.1799025684595108,
      -0.7662186622619629, 0.5419105291366577, 0.19116093218326569,
      0.9285750985145569, 2.0815269947052, -1.0973074436187744,
      -1.4948381185531616, -0.3618994951248169, 0.32652559876441956,
      -0.9583247900009155, -0.2746688723564148, -0.3941324055194855,
      -1.5002048015594482, -0.05514540523290634, -0.49255815148353577,
      0.22066611051559448, 0.10053052753210068, 1.7151985168457031,
      1.261067271232605, -1.4221224784851074, 0.5956562757492065,
      -0.057103902101516724, 0.4933854341506958, 1.4301974773406982,
      0.8351742625236511, -0.747610867023468, -0.591303825378418,
      1.0036320686340332, 0.19722360372543335, 0.7196754217147827,
      -0.3042537569999695, -0.4241023063659668, 1.275647759437561,
      0.9049511551856995, 1.3391616344451904, -0.09324375540018082,
      0.9383915066719055, 1.8712695837020874, 0.06904476881027222,
      0.6519206762313843, -0.10663220286369324, -0.16225822269916534,
      0.7744091749191284, -0.37787920236587524, -1.0098036527633667,
      0.8062162399291992, -0.994951605796814, 0.3323515057563782,
      0.3722025454044342, -0.43966254591941833, -0.7856101989746094,
      -0.9142987132072449, 0.2843545973300934, -0.33781006932258606,
      0.1539916843175888, 0.028179824352264404, -0.13213865458965302,
      -0.17922185361385345, 0.7729418873786926, 1.1309795379638672,
      1.2145423889160156, -0.08671562373638153, -0.14813941717147827,
      -0.049889106303453445, 0.9350927472114563, 0.47809189558029175,
      1.338402509689331, -0.8508390188217163, 0.5059294700622559,
      -1.1150587797164917, -0.6186693906784058, 1.2365459203720093,
      -0.8374141454696655, 0.7580345869064331, 1.3140021562576294,
      -0.45158910751342773, -0.3449777662754059, -0.4924440085887909,
      -0.3568804860115051, -0.008277421817183495, -0.5477133393287659,
      1.3267368078231812, 0.39649397134780884, -0.0891757532954216,
      -0.9979299306869507, -2.389944553375244, -0.6472853422164917,
      0.11256377398967743, 2.7849934101104736, -0.6631443500518799,
      0.37347203493118286, -1.2291353940963745, 0.5139926671981812,
      0.4894852340221405, 0.7631167769432068, 0.9461475610733032,
      1.0419694185256958, -1.3408498764038086, -1.7106974124908447,
      -1.9797513484954834, -0.38708189129829407, 1.9477611780166626,
      0.760523796081543, 0.4687405824661255, -0.606071412563324,
      -0.39135056734085083, -0.6157253384590149, 0.5240631699562073,
      1.9117906093597412, -1.7560508251190186, 0.46067312359809875,
      -1.1388732194900513, 0.5727977752685547, 0.8895576000213623,
      0.5465229153633118, 1.0090813636779785, 1.2706040143966675,
      0.7669216394424438, -1.2396557331085205, -1.1256797313690186,
      0.5273759961128235, -0.8262375593185425, -1.0886807441711426,
      -0.6297984719276428, -0.7695181965827942, 0.25842738151550293,
      -0.6689643263816833, -0.09160953015089035, -1.8620843887329102,
      0.38532713055610657, -1.045627474784851, -0.4413999915122986,
      0.4516831338405609, 1.67500901222229, -0.38972413539886475,
      -0.7876710295677185, 0.37439069151878357, -1.2326140403747559,
      0.6565921306610107, 0.9726377725601196, 1.2218036651611328,
      -1.2686179876327515, -1.0557835102081299, -0.15403881669044495,
      0.6468440294265747, 0.045134689658880234, -0.2812991440296173,
      0.031712550669908524, 1.2524129152297974, -0.13330650329589844,
      -0.9424232840538025, -0.13679713010787964, 0.47817525267601013,
      -0.3387801945209503, -0.4865739643573761, 0.012583600357174873,
      0.31006497144699097, 0.4450250566005707, -0.5969275236129761,
      -0.4497147798538208, 0.47869250178337097, -0.22800245881080627,
      -2.469759702682495, -0.11013847589492798, -1.561266303062439,
      0.6256512999534607, 0.7155529856681824, -0.2354070544242859,
      0.5713416337966919, 0.06943023949861526, -0.14583733677864075,
      -0.18966354429721832, 0.36341896653175354, -0.911514937877655,
      2.034273862838745, -0.6563465595245361, -1.3694839477539062,
      1.0159895420074463, -0.06390497833490372, 1.022957444190979,
      0.031720783561468124, 0.4367996156215668, 0.3763904571533203,
      -0.7121212482452393, 0.5071312785148621, 0.5597324967384338,
      0.6026643514633179, 1.1783785820007324, -0.37475186586380005,
      -1.305200219154358, 0.8021975159645081, 0.7025853991508484,
      0.1326509267091751, 1.5725665092468262, -1.4934642314910889,
      -0.7937524318695068, -0.7030690908432007, 0.13280896842479706,
      0.6572957038879395, -0.9691027998924255, 0.9414854645729065,
      -0.40660616755485535, -2.2067036628723145, -1.6419737339019775,
      0.7185282707214355, -0.06980384141206741, 1.059241533279419,
      -0.7504469752311707, -1.278457522392273, 0.20982912182807922,
      -0.1733247935771942, 0.8752683997154236, 0.2513601779937744,
      0.6214988827705383, 0.4586425721645355, -1.2707128524780273,
      -0.6129574179649353, -0.5900750160217285, 0.38217487931251526,
      0.09346236288547516, -0.511810839176178, 1.2171961069107056,
      0.27474385499954224, -0.6025243997573853, -1.9527450799942017,
      -0.8120262622833252, 1.4050312042236328, 1.4447870254516602,
      2.0038881301879883, -1.4154690504074097, -2.2989282608032227,
      -0.885716438293457, 1.0849210023880005, 0.8115151524543762,
      2.268548011779785, -1.9372540712356567, -1.6917303800582886,
      -0.5500151515007019, -2.260549783706665, 1.039878487586975,
      -1.7475831508636475, 0.13573312759399414, -0.7173618078231812,
      -1.3236758708953857, 1.3865537643432617, -0.053652890026569366,
      0.5070509314537048, -0.15849199891090393, -0.2457675337791443,
      -1.848730444908142, -0.2496665120124817, -0.2082587629556656,
      0.33398187160491943, 1.2431918382644653, -1.3397661447525024,
      0.16044344007968903, -0.17450684309005737, -1.092564582824707,
      0.39247918128967285, 0.513645350933075, 1.2155030965805054,
      -1.2494763135910034, -0.02088256925344467, 0.9777172803878784,
      -0.6159132122993469, 0.36886921525001526, -0.057757750153541565,
      0.4393596649169922, -0.25626352429389954, 0.4870893955230713,
      -1.191594123840332, 1.091495156288147, -1.6258991956710815,
      1.8070586919784546, 1.0325275659561157, 0.5337560772895813,
      -0.025714483112096786, 0.9701969027519226, 0.21777167916297913,
      0.00492196436971426, 0.9741459488868713, -0.2353896200656891,
      -0.36750906705856323, -1.2743771076202393, -0.3423061966896057,
      0.04911838844418526, 1.3625348806381226, 0.39562785625457764,
      0.6956995725631714, -1.8267662525177002, -0.2734247148036957,
      0.019954092800617218, 0.07251421362161636, 1.1230217218399048,
      0.48486050963401794, -0.31805580854415894, 0.44973039627075195,
      1.2671425342559814, 0.7488095164299011, -1.105238676071167,
      -0.4478999674320221, 1.1941052675247192, -0.6786938309669495,
      1.084294319152832, 1.7582944631576538, -0.8032138347625732,
      -1.0271368026733398, 0.21463543176651, -0.33996790647506714,
      0.4112728536128998, 0.09480417519807816, 0.12518545985221863,
      -1.5051809549331665, -0.8737248778343201, -0.5799944996833801,
      -0.5212299823760986, -0.325903981924057, 0.6088051795959473,
      -1.4812262058258057, -0.29394713044166565, -1.1291826963424683,
      0.39617472887039185, 1.4485695362091064, 0.2157973349094391,
      1.1503818035125732, -0.6366745829582214, -1.8426095247268677,
      -0.10139742493629456, -0.23040065169334412, 0.07141736894845963,
      0.20465627312660217, -0.13809552788734436, 0.3822382688522339,
      0.7434430718421936, -1.030903935432434, -0.04454182833433151,
      -0.6409374475479126, 0.9567189812660217, 1.1510144472122192,
      -0.5545375943183899, 0.20611393451690674, 0.4093421697616577,
      1.0293229818344116, -0.09620440006256104, 0.566786527633667,
      0.7163789868354797, 0.37229469418525696, 0.7277457118034363,
      -0.3593870997428894, 0.30970895290374756, 0.9443152546882629,
      1.6046959161758423, 0.3317078649997711, 1.4366806745529175,
      -0.5029321908950806, -0.3140389919281006, -0.3946387767791748,
      2.01273775100708, 0.4954875707626343, -0.46074068546295166,
      0.1687134951353073, 0.8999651670455933, 1.40484619140625,
      0.3622458279132843, -0.47944211959838867, 0.581768274307251,
      -3.619790554046631, 0.7210457921028137, -0.6020851731300354,
      0.13705573976039886, -0.07160687446594238, -0.6284042000770569,
      -0.39849334955215454, -0.9383394122123718, 2.0940921306610107,
      0.030042823404073715, -0.20986217260360718, 1.152978539466858,
      0.5333278775215149, -0.6374770998954773, 0.6826911568641663,
      -0.8162351846694946, 0.3052765429019928, 0.5079889297485352,
      0.9589889049530029, -0.9970989227294922, -0.5212185382843018,
      -0.6395580768585205, -0.46106138825416565, -0.0809527263045311,
      0.4719206392765045, 0.2546080946922302, -0.019540417939424515,
      0.38405361771583557, 0.6939934492111206, -0.1956341564655304,
      -1.356339931488037, 1.0164974927902222, -0.2936556339263916,
      1.4286792278289795, 0.8769922852516174, 0.284627765417099,
      0.5882182121276855, -1.553238034248352, -0.9334790110588074,
      -1.9752117395401, 0.8026114702224731, 1.4187270402908325,
      0.6910333037376404, 0.6734954118728638, 0.2817085087299347,
      -0.03656557947397232, 0.23054543137550354, -0.23208896815776825,
      -0.09515205770730972, 0.05294732376933098, 1.1894572973251343,
      -0.035999901592731476, 1.1994199752807617, -0.5253279805183411,
      0.39053812623023987, 0.4910401403903961, 0.3522334694862366,
      0.28159698843955994, -0.42356616258621216, -0.7786808609962463,
      0.16330692172050476, 0.12882402539253235, -0.165155291557312,
      -0.169503852725029, 1.1136679649353027, -0.08761227875947952,
      0.13206054270267487, 0.7401520609855652, 0.41981416940689087,
      -0.5603969097137451, 0.20162418484687805, -0.1368500292301178,
      -0.6572198271751404, 0.08148776739835739, 0.1529083549976349,
      -0.2587750256061554, 0.42500242590904236, 0.6339752674102783,
      0.3477877080440521, 0.2949821352958679, 0.24501214921474457,
      0.6194142699241638, -0.09828077256679535, 0.5320242047309875,
      -0.059594862163066864, -0.1503111869096756, -0.6102714538574219,
      1.2941051721572876, 0.08614327013492584, 0.46928870677948,
      -0.11752460151910782, -1.22705078125, -0.8649227023124695,
      1.2874724864959717, 1.3680143356323242, -1.0474745035171509,
      -1.9639452695846558, -0.39120832085609436, -0.38725587725639343,
      -0.7564971446990967, 0.9029538035392761, -0.28391537070274353,
      2.0083351135253906, 1.3058764934539795, -0.948522686958313,
      0.06886807829141617, 0.061049118638038635, 0.9572616815567017,
      -1.0051921606063843, -1.485669732093811, -0.37912195920944214,
      0.8679138422012329, 0.1949172019958496, -0.27190494537353516,
      0.4428746700286865, -1.4022047519683838, -0.13028909265995026,
      0.874058187007904, 0.6097484230995178, 1.634875774383545,
      -0.2718065083026886, 0.1480478197336197, 0.6894083619117737,
      -0.3672485947608948, -0.5010207295417786, -1.5304367542266846,
      -0.5998834371566772, -0.2689577639102936, -0.13176245987415314,
      -0.8885154724121094, -0.09853889048099518, 1.2366694211959839,
      0.7640545964241028, 0.9763966202735901, 0.9876298308372498,
      1.739078164100647, -1.249874472618103, -0.6707853674888611,
      0.12519843876361847, -2.2709298133850098, -1.0557416677474976,
      0.7580603957176208, -0.9322302937507629, 0.874172568321228,
      -1.1526697874069214, -0.753421425819397, -0.07300012558698654,
      -0.1853160560131073, 0.9842338562011719, 1.1697242259979248,
      1.8351833820343018, 0.7052626609802246, -1.4638140201568604,
      -0.7049960494041443, 0.8041273951530457, -1.8702735900878906,
      -0.5951354503631592, 0.5586726665496826, 0.792515754699707,
      -0.7266393899917603, 0.3420666754245758, -0.3999519348144531,
      -1.197677731513977, -0.4981037378311157, 1.034034252166748,
      -0.090464748442173, 1.692884087562561, -0.3984558880329132,
      0.7018186450004578, -0.3434891700744629, -0.17506037652492523,
      0.9268786907196045, 0.2295789122581482, -0.3261922001838684,
      0.1799049824476242, -0.029479876160621643, 1.876928687095642,
      -0.3844771385192871, 0.19691702723503113, -0.5092530846595764,
      0.1664935052394867, 0.814727783203125, 0.30409014225006104,
      0.5937783122062683, 0.6637257933616638, 0.10807991027832031,
      0.7001248598098755, 0.9534069895744324, 0.28803011775016785,
      0.7995671629905701, -0.6542555689811707, 1.172820806503296,
      -0.19945837557315826, 0.9225804805755615, 1.0079236030578613,
      -1.190970778465271, -2.18627667427063, -0.28801167011260986,
      -0.4700891375541687, -0.38592636585235596, 0.6184966564178467,
      0.547371506690979, -1.4756929874420166, 0.25838252902030945,
      -0.24946388602256775, 0.21683861315250397, 0.26096728444099426,
      -0.08218182623386383, -0.24290049076080322, -0.38377663493156433,
      0.6606234908103943, -0.3823167383670807, 1.5163787603378296,
      -0.020302176475524902, -0.5413640737533569, -3.2754297256469727,
      -1.1709901094436646, 0.4492160677909851, -0.46498724818229675,
      -0.5966390371322632, -0.4685063064098358, -4.028087615966797,
      0.5488424301147461, 0.9664911031723022, -0.5664560794830322,
      0.6103113293647766, 1.2759802341461182, 0.995995044708252,
      0.18069341778755188, -0.11880418658256531, 0.27856022119522095,
      1.12931489944458, -0.5660767555236816, -0.04568834975361824,
      1.1183547973632812, -2.0807340145111084, 1.2964954376220703,
      0.7475138902664185, -0.21131333708763123, 0.7171697616577148,
      -1.048620581626892, 0.9595237374305725, -1.1058613061904907,
      0.9302674531936646, 1.4622855186462402, -0.9616131782531738,
      3.6699748039245605, 1.8095836639404297, -3.0456597805023193,
      -0.15137852728366852, -0.014211568050086498, 1.3488715887069702,
      0.5758073329925537, 1.8484740257263184, 0.0154475849121809,
      -0.2568061947822571, -1.7678977251052856, -0.06972295790910721,
      0.09173077344894409, 0.024279344826936722, -0.1978660225868225,
      -0.1492575705051422, -0.889037013053894, -1.6442289352416992,
      0.6441439390182495, 0.06991925835609436, 0.1541844606399536,
      1.7373590469360352, 0.9180068969726562, -0.16869564354419708,
      1.401814341545105, -1.2254260778427124, 0.24318474531173706,
      0.20157146453857422, 1.475950837135315, -1.2080758810043335,
      -0.8874844908714294, -1.9428036212921143, -2.407078266143799,
      -0.17459814250469208, 0.5770206451416016, 1.273577094078064,
      -1.2459993362426758, -1.5538885593414307, -0.0017322419444099069,
      4.249757289886475, -1.5890436172485352, -0.26398056745529175,
      -0.5287142992019653, -1.718569278717041, -2.546316623687744,
      0.027637174353003502, 2.6081502437591553, 1.6825605630874634,
      -0.2701701521873474, -1.4589056968688965, 4.170079231262207,
      -1.3359036445617676, -1.0518003702163696, 6.936544418334961,
      -1.8391127586364746, -1.5765002965927124, -2.6887357234954834,
      -1.6942604780197144, 1.5985325574874878, -1.7439924478530884,
      2.8646349906921387, -1.6311126947402954, -3.4249579906463623,
      1.950738549232483, -8.19599437713623, 0.7009631395339966,
      4.702358722686768, -2.4207403659820557, 1.5919175148010254,
      0.26306796073913574, -0.03562948852777481, 3.1166932582855225,
      0.03611297160387039, -0.642522931098938, 0.5280059576034546,
      -1.3954485654830933, -4.288942813873291, 1.5860093832015991,
      1.2006502151489258, 0.4725978970527649, -0.3422442674636841,
      -2.3093972206115723, 2.9437949657440186, -0.3989459276199341,
      1.7165818214416504, 2.665398359298706, 0.0014659527223557234,
      -1.8975822925567627, -0.38554826378822327, -2.7407076358795166,
      3.308002471923828, 0.9482580423355103, 0.14312440156936646,
      -0.45493894815444946, -2.5588324069976807, -0.9589996337890625,
      -3.4353952407836914, 1.4976952075958252, 4.017003536224365,
      -0.6678342223167419, 0.41158485412597656, 0.9431067705154419,
      3.2487218379974365, -4.163862705230713, 0.7008185982704163,
      1.7380571365356445, -0.4986378848552704, 1.575822353363037,
      2.7862908840179443, -0.5211100578308105, -2.353721857070923,
      -3.3361001014709473, -0.5374595522880554, -2.6829335689544678,
      -3.78535532951355, 0.9377618432044983, 0.9808030128479004,
      -1.8156304359436035, 2.911771774291992, 1.5015268325805664,
      4.024837017059326, 1.5936025381088257, -3.2511022090911865,
      1.3997678756713867, 1.1585004329681396, -1.4631586074829102,
      0.4854840636253357, -4.321913242340088, 2.015317916870117,
      1.9287904500961304, -5.010459899902344, 4.184605121612549,
      -5.103365898132324, 1.514298439025879, -3.358309030532837,
      -0.37095797061920166, -0.06731932610273361, 2.862325668334961,
      1.9469717741012573, -1.749755859375, -4.745307922363281, 5.5199875831604,
      3.6426427364349365, 3.5156102180480957, -0.3643896281719208,
      -2.311558485031128, 3.3143792152404785, -2.163018226623535,
      5.468688488006592, 2.5344533920288086, 0.6557549834251404,
      -3.2416932582855225, -0.8828647136688232, -7.162633895874023,
      5.491429805755615, 1.9407010078430176, -3.9516024589538574,
      1.6454116106033325, -3.1976399421691895, -0.3785043954849243,
      -1.727754831314087, 2.5641937255859375, 2.025202751159668,
      -3.283186435699463, 2.087862491607666, -0.16255617141723633,
      0.8258745670318604, -0.7119795680046082, -2.037271738052368,
      4.8081955909729, 0.37711936235427856, 3.287665843963623,
      3.7760956287384033, 1.205944538116455, -1.905434250831604,
      0.8562589287757874, -2.2012877464294434, 1.7270249128341675,
      -1.0065324306488037, 0.5278180837631226, -1.4208966493606567,
      1.4704724550247192, -0.5530112981796265, -1.4986131191253662,
      -0.5632325410842896, 1.0748697519302368, -1.4455597400665283,
      -0.7589922547340393, 1.5040433406829834, 0.8184767365455627,
      4.4082159996032715, 0.35027045011520386, 0.02652691677212715,
      1.0666557550430298, -2.323284864425659, -1.5361497402191162,
      1.7779122591018677, -1.297322154045105, -2.882897138595581,
      -1.8228874206542969, 1.1457282304763794, 3.0506904125213623,
      1.2785166501998901, 1.7944724559783936, -0.79261314868927,
      -0.11249322444200516, -0.8426622152328491, 1.6091763973236084,
      -1.7493795156478882, 1.8903437852859497, -4.737783908843994,
      -1.229269027709961, -1.4567807912826538, -2.3501811027526855,
      0.5453357100486755, 5.591296672821045, -1.7737369537353516,
      6.495599746704102, 2.1623518466949463, -0.3607599139213562,
      -0.6710641384124756, 3.1334853172302246, 3.5663211345672607,
      1.6317998170852661, 4.438871383666992, -0.9614045023918152,
      -5.522794723510742, -1.9425435066223145, 1.5027313232421875,
      0.7833653092384338, 1.6773954629898071, -5.248245716094971,
      -2.675773859024048, -0.37488895654678345, -0.6140930652618408,
      -1.0488420724868774, 1.9935883283615112, -1.427417278289795,
      -1.459168791770935, -1.949957013130188, 1.7603012323379517,
      -0.4979511499404907, -2.370504856109619, 2.45162034034729,
      -1.0377072095870972, -1.812813401222229, -0.07948382198810577,
      2.593209743499756, 2.172018051147461, 1.6439917087554932,
      -2.1655757427215576, -2.084385395050049, -1.3067978620529175,
      0.5421814322471619, 4.609055995941162, -2.7138733863830566,
      5.557811260223389, -0.45580941438674927, -2.372391700744629,
      1.8623826503753662, -1.194298505783081, 0.9414817094802856,
      -0.07488024234771729, 1.2923636436462402, -0.10599388927221298,
      -0.020963532850146294, 0.7737550139427185, 0.007228408474475145,
      -1.318408489227295, 0.6061533689498901, 0.5275017023086548,
      0.16037189960479736, -0.5224941372871399, -1.053741455078125,
      1.4198051691055298, 0.05870703235268593, 0.11082591861486435,
      1.7101948261260986, -0.09268622100353241, -1.1536396741867065,
      0.05425740405917168, -2.4356799125671387, 0.9352831840515137,
      -0.14220957458019257, 0.24344414472579956, -0.8870142102241516,
      -0.7003390789031982, 0.6621967554092407, -1.1686971187591553,
      -0.10750436782836914, 1.5360864400863647, -0.32421883940696716,
      -0.10288368165493011, -0.09289128333330154, -1.3318421840667725,
      -0.9364566802978516, 0.3715416193008423, -0.0643870010972023,
      1.2629632949829102, -0.782862663269043, -0.646712601184845,
      2.150317907333374, 0.9852662682533264, 0.7991889715194702,
      0.19569364190101624, 0.20839324593544006, 0.9189386963844299,
      -0.9157772660255432, 0.6284573674201965, 0.22869014739990234,
      -0.3120127320289612, 0.35792580246925354, -0.45641058683395386,
      -0.9915874004364014, 0.7975608706474304, 0.5669020414352417,
      -0.8511533737182617, 0.26843544840812683, -1.7220726013183594,
      0.41498813033103943, -1.1595665216445923, 0.37702837586402893,
      0.5815476775169373, -0.6650198101997375, 0.9096392393112183,
      0.05092378705739975, -0.05222523584961891, 0.05207209661602974,
      0.050758637487888336, 0.0477357916533947, 0.042661186307668686,
      0.044601909816265106, -0.01724344678223133, 0.0049620866775512695,
      0.0044695171527564526, -0.018967755138874054, 0.05844070762395859,
      0.03690946847200394, -0.03184635564684868, -0.014923718757927418,
      0.03336959704756737, 0.06196067854762077, 0.07124073058366776,
      0.010675616562366486, -0.043528392910957336, 0.04772401601076126,
      -0.012999062426388264, 0.032560985535383224, -0.07157091796398163,
      0.010396488010883331, 0.021288452669978142, 0.005204197950661182,
      -0.050810400396585464, 0.0670691505074501, -0.0726611390709877,
      0.059022583067417145, -0.07298924028873444
    ]
  },
  "hiddenLayers": [
    {
      "inputMatrix": {
        "rows": 20,
        "columns": 32,
        "weights": [
          1.1268404722213745, 1.6971439123153687, -0.8678187131881714,
          -1.996352195739746, 0.19875648617744446, -0.3651179075241089,
          1.3926945924758911, 1.4342224597930908, 0.24559684097766876,
          -0.6255495548248291, -0.5559764504432678, -0.44659423828125,
          -1.618507742881775, -0.18109092116355896, 1.7515606880187988,
          0.7311943769454956, 0.3015875518321991, 0.14457666873931885,
          -1.85883367061615, 0.8896532654762268, -0.4422120451927185,
          -2.3420419692993164, -0.15328726172447205, 1.5660598278045654,
          -1.9798790216445923, 1.3622678518295288, -0.6489981412887573,
          0.24757398664951324, -0.5706036686897278, -0.8714030981063843,
          0.6852408051490784, -0.9647228717803955, 0.4576093554496765,
          1.3383601903915405, -0.539497971534729, -0.3514188230037689,
          -0.32293060421943665, 0.4352310001850128, 0.07754843682050705,
          -0.7413768172264099, 1.4195137023925781, 1.305151343345642,
          -0.8723719120025635, -0.046979621052742004, -1.0338671207427979,
          0.28946974873542786, 0.30962082743644714, 1.9615426063537598,
          0.5678138732910156, 2.1075246334075928, 1.0387247800827026,
          1.376346230506897, -1.0213985443115234, 1.5535099506378174,
          1.4473241567611694, 1.1165385246276855, -0.13897064328193665,
          0.08819751441478729, -1.453859567642212, 0.15056481957435608,
          1.3538814783096313, 0.32558101415634155, 1.1316157579421997,
          -1.0655417442321777, -0.8288161754608154, -0.11291643232107162,
          0.9390259385108948, -0.07683335244655609, -1.1166572570800781,
          1.004304051399231, 0.16288165748119354, -0.10573143512010574,
          -1.4854917526245117, 0.28927940130233765, -0.2078225016593933,
          0.657577395439148, -1.511701226234436, 0.46654149889945984,
          0.7458540797233582, -1.0802736282348633, 1.2086628675460815,
          -1.7371301651000977, -0.7405334711074829, 0.31552231311798096,
          0.10433086007833481, -0.9153798818588257, -4.1559367179870605,
          -0.3774617612361908, -1.8863203525543213, 0.3358515501022339,
          2.2465877532958984, 0.678386926651001, -0.37707042694091797,
          0.2766861319541931, 0.3828605115413666, 0.3212129771709442,
          -1.2002140283584595, -1.130700707435608, -1.37263822555542,
          0.7418140769004822, 0.19312573969364166, 0.17785483598709106,
          0.09797710925340652, 0.5269849300384521, 0.36327069997787476,
          0.7321778535842896, 0.22493115067481995, 0.7563891410827637,
          0.4086832106113434, -1.1662319898605347, -0.48034077882766724,
          -0.15721862018108368, -1.3941012620925903, -1.2903507947921753,
          1.92959463596344, -1.0686920881271362, 0.7079839706420898,
          -0.6339054107666016, -0.723090648651123, -0.6196982264518738,
          1.4451282024383545, -0.17494133114814758, 1.1759378910064697,
          1.082350730895996, 0.9785992503166199, -0.9830246567726135,
          -0.46166253089904785, 1.0366802215576172, -1.3056235313415527,
          -0.694663405418396, -1.1235507726669312, 1.6592148542404175,
          -1.439085602760315, 1.0797661542892456, -1.8839665651321411,
          -0.7621618509292603, 0.45018285512924194, 0.6615528464317322,
          -0.1065436452627182, 1.3361287117004395, -0.290228009223938,
          -0.8073358535766602, -0.628916323184967, 0.8435112237930298,
          -0.9324872493743896, 0.6099064350128174, 1.0438963174819946,
          -0.6798703670501709, -0.2516321539878845, -0.05052955821156502,
          0.756814181804657, -2.2602107524871826, 0.8307504057884216,
          -0.8583855032920837, -0.2030586153268814, 0.7074612379074097,
          1.377738118171692, -0.12207294255495071, 0.06593302637338638,
          0.3201984763145447, 0.24609124660491943, 1.2210900783538818,
          0.022138427942991257, -1.2378839254379272, 0.8351825475692749,
          -2.0748937129974365, 2.490497589111328, 2.4890618324279785,
          -0.8010441064834595, -1.1718939542770386, -0.4373740255832672,
          -0.8808467984199524, -0.7699530124664307, 0.6518594622612,
          0.8196330070495605, -0.0002928938192781061, 0.8113425374031067,
          -0.4682055115699768, -0.7108082175254822, 0.6519613265991211,
          -0.14097264409065247, -2.917454719543457, -0.15974435210227966,
          2.621397018432617, -1.6460902690887451, 0.09463914483785629,
          -0.20362980663776398, -0.5009167194366455, 0.25424012541770935,
          0.681298553943634, 0.5232455730438232, 0.07140614092350006,
          0.4596315622329712, 1.0083428621292114, -0.914417564868927,
          -1.9401943683624268, 1.4766035079956055, -0.9104364514350891,
          1.7846513986587524, 2.2685320377349854, -0.303954541683197,
          -1.18782639503479, -1.3223991394042969, -1.6388486623764038,
          0.0214095339179039, 0.4154789447784424, 1.0508638620376587,
          -0.17828218638896942, 0.3954308331012726, -0.21222393214702606,
          -0.7549973726272583, 0.3315388560295105, -0.6230061650276184,
          -2.622485876083374, 0.04250166565179825, 1.1122058629989624,
          -0.2559357285499573, 0.6052408814430237, -1.01129150390625,
          -0.6349945664405823, -0.6052899360656738, -0.8815317749977112,
          0.5244719386100769, -0.4065399169921875, -0.2132759839296341,
          0.2548297047615051, -1.34734046459198, -1.2742868661880493,
          1.5622526407241821, 0.8050793409347534, 1.0732555389404297,
          1.1736353635787964, -0.01239947322756052, -0.5042615532875061,
          -0.02308385819196701, -1.0315401554107666, 0.7951225638389587,
          -1.4998644590377808, 1.392324447631836, -0.7449806928634644,
          -1.684248447418213, 0.07096921652555466, 1.3591115474700928,
          -0.34603017568588257, 1.6770908832550049, -0.9862911105155945,
          0.04182134196162224, -0.0813206136226654, 1.3386136293411255,
          1.4476070404052734, 0.1352098137140274, 0.48033592104911804,
          -0.33350974321365356, -0.8316621780395508, -0.3064715266227722,
          0.4254186451435089, 1.3193299770355225, 0.4829310476779938,
          -0.015386066399514675, 0.27708566188812256, -0.29829123616218567,
          -0.7638707160949707, -0.001098889741115272, 0.22632449865341187,
          -0.13219140470027924, 0.02699347771704197, -0.036254607141017914,
          -0.35046595335006714, -0.4303545653820038, -0.5749821066856384,
          0.25945818424224854, 0.63505619764328, 0.29167237877845764,
          0.4147627651691437, -2.0129222869873047, 0.22970734536647797,
          -0.16161271929740906, -0.43351873755455017, 1.5606920719146729,
          0.2818518579006195, -1.321132779121399, -0.8533449172973633,
          -0.493731290102005, -0.28977999091148376, 0.3521592617034912,
          0.2687862813472748, 0.12373412400484085, -0.3829064667224884,
          -0.15247660875320435, -1.1315919160842896, -0.5423645377159119,
          0.7032334208488464, -0.25337058305740356, 1.494956374168396,
          -0.9020612835884094, -0.2647174298763275, 0.10476827621459961,
          0.02802526392042637, 1.1522151231765747, 0.6099588871002197,
          2.5678627490997314, -0.45667845010757446, -2.4074971675872803,
          -0.8958034515380859, -0.980029284954071, -0.522519588470459,
          1.724551796913147, -1.1369093656539917, -0.5522100925445557,
          -0.05148334801197052, 0.2874666750431061, -1.4184011220932007,
          1.524178147315979, 0.10234241932630539, 0.7061610221862793,
          -0.33621206879615784, -0.7980585098266602, -0.5570390820503235,
          -0.8394113183021545, 0.5757766366004944, 0.17086642980575562,
          0.6690384149551392, 0.08840399980545044, -0.7878983020782471,
          -1.0018854141235352, 2.769846200942993, -0.5872374773025513,
          0.5557796359062195, 0.8667028546333313, -0.13255134224891663,
          0.5850009322166443, -0.529390275478363, -0.9571845531463623,
          -0.1750876009464264, 0.021577898412942886, 0.8603579998016357,
          -0.1674276888370514, -0.09139659255743027, 0.8949804306030273,
          0.1762639433145523, -1.2317897081375122, -0.40300044417381287,
          -0.08307353407144547, -1.5401421785354614, 1.2878202199935913,
          -1.1255193948745728, -0.9284304976463318, -2.087085723876953,
          1.0397385358810425, 0.9273135662078857, 0.4806744456291199,
          -0.7229346036911011, 0.7155994772911072, 0.9320508241653442,
          -2.327951192855835, -1.2642979621887207, 0.9825071096420288,
          0.16672159731388092, 1.1717312335968018, 1.2123075723648071,
          -0.23555466532707214, -0.2800065577030182, -0.8034889101982117,
          -0.7042790651321411, -0.40848591923713684, -1.635254144668579,
          1.0569453239440918, -0.36502593755722046, -1.9797863960266113,
          0.11655423790216446, -0.07924158871173859, 0.5000636577606201,
          1.5661389827728271, -1.3404744863510132, -0.49224716424942017,
          0.6947274208068848, -0.8258035182952881, 0.6307595372200012,
          0.4633532464504242, 2.6777918338775635, -0.5617278218269348,
          -1.4485374689102173, 1.2493518590927124, -1.1309590339660645,
          -1.259905219078064, -0.19641895592212677, 1.3456082344055176,
          0.3058289885520935, -1.5972036123275757, 0.7497660517692566,
          -1.032193899154663, -0.9881176948547363, 0.5646228194236755,
          1.3492547273635864, -0.2883170545101166, 0.13912397623062134,
          -0.048200495541095734, -0.14850854873657227, -0.2764774262905121,
          0.5226086378097534, 0.6017316579818726, 0.06905460357666016,
          0.1059989333152771, -0.20908768475055695, -0.23711475729942322,
          1.3198702335357666, 0.32340356707572937, 0.4130057096481323,
          -0.2494667023420334, -1.1062794923782349, -0.14119072258472443,
          -1.5162928104400635, 1.050203561782837, 1.3613016605377197,
          -0.009848308749496937, 0.08178073167800903, 0.7710293531417847,
          -0.8808091878890991, -1.385026454925537, -1.2106431722640991,
          1.2005244493484497, -0.2514515817165375, 0.6084808111190796,
          0.2180538922548294, 0.7984215021133423, -0.0037435630802065134,
          1.1131272315979004, -0.886397659778595, 1.2549290657043457,
          -0.13451389968395233, 0.039852630347013474, -0.5236032009124756,
          -0.8430198431015015, -0.5271433591842651, 0.23824447393417358,
          -0.7391561269760132, 0.06730959564447403, -0.4946715831756592,
          0.2266015112400055, 0.022272568196058273, -0.8774715065956116,
          1.0348137617111206, 1.081391453742981, 0.9620509147644043,
          -0.4923866391181946, -1.133281946182251, -0.6039588451385498,
          -0.05375443398952484, -1.6197903156280518, -1.7785784006118774,
          -0.2927502691745758, 1.099761962890625, -1.4973461627960205,
          -0.8968296051025391, -0.5938620567321777, -0.03563110530376434,
          -0.4359118640422821, 0.16573189198970795, 1.5958709716796875,
          1.7932795286178589, 1.834076166152954, 0.19995959103107452,
          -1.0546278953552246, -1.3954174518585205, -0.5075084567070007,
          -0.9754619598388672, 0.30478301644325256, -1.7314064502716064,
          -0.5777338147163391, 0.20186194777488708, -1.804949402809143,
          -1.3167706727981567, 0.3030734360218048, 0.7707821130752563,
          2.081481695175171, 0.8602638840675354, -0.6464991569519043,
          -0.708935022354126, -1.2594493627548218, 1.1334055662155151,
          1.8289051055908203, 1.7579454183578491, -0.03271351009607315,
          -1.691019892692566, 0.6570259928703308, -1.559972882270813,
          1.307481050491333, 1.69564688205719, -1.1258736848831177,
          -2.1191227436065674, -0.7606161236763, -1.7537761926651,
          -0.43180304765701294, 1.1198495626449585, 1.352777123451233,
          -0.06628340482711792, 0.6596810817718506, -1.2199372053146362,
          -0.24559685587882996, 0.9664422273635864, -0.28261876106262207,
          -1.2889015674591064, -0.7775967121124268, 2.408262252807617,
          -0.7190139293670654, -0.13419431447982788, -0.761345624923706,
          -0.7022619247436523, -0.7268500328063965, 0.6161985397338867,
          0.7781535983085632, -0.7231989502906799, 0.9995059967041016,
          0.09299217164516449, -0.2242305874824524, -0.06999032199382782,
          1.014829397201538, -0.9065510630607605, 0.916538417339325,
          0.9456848502159119, -0.8296099901199341, -0.28909996151924133,
          -0.7047491073608398, -1.0086482763290405, 0.17631474137306213,
          0.7603808641433716, 0.4463414251804352, -0.3703984320163727,
          0.47270309925079346, 0.11500342935323715, 0.24360494315624237,
          0.4795849919319153, -0.08094816654920578, -0.39873993396759033,
          -0.7489707469940186, 0.6207181811332703, -0.07695532590150833,
          1.6381144523620605, -0.133492112159729, 0.040836215019226074,
          -0.9661892652511597, -0.8852035403251648, 0.581918478012085,
          -0.354683518409729, 0.9023034572601318, -1.0286973714828491,
          -1.1880683898925781, 0.09962418675422668, 2.8697705268859863,
          -2.1737864017486572, 1.5938732624053955, 0.7872194647789001,
          -0.6440334916114807, -0.6021855473518372, 0.4605692923069,
          -0.13142114877700806, 1.1032167673110962, 0.22254572808742523,
          -0.511138916015625, -0.6836808919906616, -0.6413488984107971,
          -0.6644886136054993, -0.007895017974078655, -0.6812646985054016,
          1.3889187574386597, -0.4003012776374817, -0.7541712522506714,
          0.675645649433136, -0.360472708940506, 2.0549397468566895,
          0.2753477990627289, 1.2614493370056152, -1.014063835144043,
          -0.7921286225318909, -0.33213019371032715, 0.9242644309997559,
          -0.6134374141693115, 0.04664624109864235, -1.6844301223754883,
          -0.06043139100074768, 0.29379406571388245, 1.1716619729995728,
          -0.08313538879156113, 0.9686480760574341, 1.0229930877685547,
          -0.1794784665107727, 1.1077500581741333, -0.20254822075366974,
          0.30591505765914917, -1.2711647748947144, -0.28425276279449463,
          0.6976448893547058, -1.7434872388839722, -0.2336740642786026,
          0.8186726570129395, -1.4809296131134033, 0.34489908814430237,
          -0.8288648128509521, 0.10291403532028198, -0.9209469556808472,
          0.8467258810997009, -0.49108871817588806, 0.058211684226989746,
          -0.16682645678520203, 0.49945732951164246, -0.9402027726173401,
          -1.11655855178833, 1.0394353866577148, -1.7444543838500977,
          -2.6276755332946777, -0.2059742957353592, 2.0497190952301025,
          -1.1034445762634277, 0.6665115356445312, -1.109858751296997,
          -0.8575294017791748, 0.3345958888530731, 1.0246503353118896,
          0.7720561623573303, 1.3109259605407715, 0.4683808982372284,
          -0.3486178517341614, -0.6347681283950806, 0.10762328654527664,
          -0.4875262379646301, -0.851382851600647, 0.657296359539032,
          -1.4359636306762695, -0.055869292467832565, 0.5106502771377563,
          -0.8334875702857971, -1.805495262145996, 1.0515280961990356,
          -0.9642705917358398, 0.8395874500274658, 0.3552751839160919,
          1.0402674674987793, -0.27952104806900024, -0.9009582996368408,
          0.5855079889297485
        ]
      },
      "inputHidden": {
        "rows": 20,
        "columns": 20,
        "weights": [
          0.2609803378582001, -0.7608713507652283, -1.3408210277557373,
          -0.671203076839447, -0.27209967374801636, 0.4374869167804718,
          -0.6168884634971619, -1.5215343236923218, 1.4201288223266602,
          -0.8906846046447754, -0.9299598932266235, 0.24286670982837677,
          0.2797727882862091, -0.5915141701698303, -0.7965278029441833,
          -0.17079666256904602, -0.295819491147995, 0.16041597723960876,
          -1.6196473836898804, -0.4634281098842621, -0.018021631985902786,
          0.4735962450504303, 1.156965970993042, -1.5088003873825073,
          1.010865569114685, -0.6947707533836365, -1.2503437995910645,
          -0.40444210171699524, -0.32951581478118896, 1.6430917978286743,
          -1.6752876043319702, 0.7447906136512756, 0.34523463249206543,
          -0.4690503478050232, 0.20850315690040588, 1.2304831743240356,
          0.9594886302947998, 0.8176223039627075, -0.19551068544387817,
          4.026554107666016, 0.41217175126075745, -0.7654139399528503,
          -0.09660494327545166, -0.26446497440338135, -0.3851558566093445,
          0.9299561381340027, 0.9652842879295349, 1.073729395866394,
          -2.5437870025634766, 0.12000475078821182, 2.691939115524292,
          1.5307518243789673, 0.006348439026623964, -0.644649088382721,
          2.3279030323028564, -0.24916404485702515, -0.1536751091480255,
          -1.9340640306472778, -0.33809894323349, -0.010901500470936298,
          0.0242005567997694, 0.6408384442329407, -1.1780015230178833,
          0.76964271068573, -1.2786952257156372, 1.2648731470108032,
          0.7889730334281921, 0.25337663292884827, -0.07303964346647263,
          -1.4994866847991943, 1.0531501770019531, 1.1412522792816162,
          1.1791812181472778, -0.12489526718854904, 1.1510989665985107,
          -0.34339070320129395, 1.2908493280410767, -0.9876663684844971,
          0.7378312945365906, -0.7389965057373047, -0.33670684695243835,
          -1.4431800842285156, -0.008331629447638988, -0.36572322249412537,
          -0.013600468635559082, -0.037859149277210236, -0.7183132767677307,
          -0.14619606733322144, 0.3451857566833496, 0.2901954650878906,
          -0.1821015477180481, 1.1168798208236694, -0.588771641254425,
          0.12174633890390396, -1.3699908256530762, 0.8700699806213379,
          -0.3629327118396759, 0.15186448395252228, -0.1242276206612587,
          0.28951576352119446, -0.12710297107696533, -0.43015816807746887,
          0.03355314955115318, -0.8417160511016846, -0.19920314848423004,
          0.06871073693037033, 0.698840320110321, 0.572059690952301,
          -0.21240511536598206, -0.11607512831687927, -1.0834615230560303,
          -0.20061595737934113, 0.9488328695297241, 0.4832954704761505,
          0.7616244554519653, -0.2824133634567261, -0.3446030616760254,
          0.6746461391448975, -0.30691277980804443, -0.07343907654285431,
          0.8840747475624084, -0.13204805552959442, 0.2864638566970825,
          -0.22053638100624084, 0.413913369178772, 0.4955877959728241,
          0.3046058714389801, -0.48108142614364624, 0.9245790839195251,
          -0.2515511214733124, -1.6500269174575806, -1.1781514883041382,
          0.1358238309621811, 0.7051026821136475, 1.202713131904602,
          0.5441637635231018, -0.7552462816238403, -0.9124075770378113,
          0.3795159161090851, -0.018379556015133858, 1.607767939567566,
          0.031246408820152283, -1.8509291410446167, 0.5233551263809204,
          -1.2969242334365845, 1.3064212799072266, 0.7598534226417542,
          -0.49473801255226135, 0.5505344867706299, -0.036532048135995865,
          0.029976636171340942, -1.0780143737792969, -0.1353466510772705,
          0.6518597602844238, -0.30070751905441284, -1.1503405570983887,
          -0.9652469754219055, -1.083221435546875, 0.07692297548055649,
          -0.25305312871932983, 0.09399875998497009, 1.8320744037628174,
          -0.4595804810523987, -0.6429467797279358, 0.6303990483283997,
          1.9426366090774536, 0.5546121597290039, -1.8439435958862305,
          -1.623623013496399, 1.487949013710022, 0.5393840670585632,
          0.8861387968063354, 0.7371997237205505, -1.4957627058029175,
          -0.2508332133293152, -0.5882903933525085, -0.10582926869392395,
          -1.8861396312713623, -2.481494665145874, -2.4360756874084473,
          -0.29333406686782837, -0.9832780361175537, 0.2146243453025818,
          -0.20234662294387817, 0.9395464062690735, 1.1115068197250366,
          0.5974903106689453, 0.5817907452583313, -0.8118928670883179,
          1.8211338520050049, 1.0781432390213013, 1.1845149993896484,
          0.08870341628789902, 0.6826025247573853, 1.2071632146835327,
          -0.40885108709335327, -0.6500343680381775, -2.1340956687927246,
          0.14557212591171265, -1.0419409275054932, 0.12389904260635376,
          0.7635677456855774, -0.8385382294654846, 1.3660646677017212,
          -0.1237659901380539, -0.018705101683735847, 1.8778074979782104,
          -0.7686606645584106, 0.12445312738418579, -0.7321098446846008,
          -0.5975738763809204, -0.8224917054176331, -0.3221493661403656,
          -0.30750879645347595, -1.4323053359985352, 0.21641625463962555,
          0.011755457147955894, -1.255495548248291, 0.4666217267513275,
          -1.6667120456695557, -0.57590252161026, 0.7236464619636536,
          1.0073658227920532, -0.6254093647003174, -0.0955224260687828,
          -0.6292217969894409, -0.4852631688117981, 1.864506483078003,
          1.478016972541809, 0.027529200538992882, 0.5969601273536682,
          -0.6349635720252991, 1.57634699344635, 1.1403981447219849,
          -0.09237043559551239, 0.6323142051696777, 0.8086645007133484,
          0.7253561615943909, 0.9507823586463928, -0.3099967837333679,
          -0.3783341348171234, -0.8093152046203613, 2.0743319988250732,
          -0.38945263624191284, 2.1271371841430664, -0.00015510049706790596,
          0.183233842253685, 0.5788618922233582, -1.8928282260894775,
          0.25112590193748474, -0.3647758364677429, 1.4408055543899536,
          1.5841550827026367, 1.103978157043457, -0.19112415611743927,
          -0.3825354278087616, 0.42271146178245544, 1.3955636024475098,
          0.7348520159721375, 0.40329211950302124, 0.7864234447479248,
          -1.2060195207595825, -0.053755320608615875, -1.148444414138794,
          -2.3352322578430176, -0.16942957043647766, 0.5508233904838562,
          2.82417893409729, 1.0694513320922852, -0.3415965139865875,
          -1.6596240997314453, -1.0858125686645508, -1.437783122062683,
          1.4053103923797607, 0.4410124123096466, -1.0416021347045898,
          -0.9648312926292419, -1.1085621118545532, 1.884598731994629,
          1.487428903579712, 1.4440544843673706, 0.238491028547287,
          -2.304917812347412, 1.1074512004852295, 0.8969359993934631,
          0.4000774323940277, 0.70534747838974, -0.8160742521286011,
          0.278192937374115, -0.1103970855474472, -0.08410169929265976,
          -1.627148151397705, -0.5173956751823425, -0.5828773975372314,
          0.21571233868598938, -1.5623717308044434, 0.3343733251094818,
          -2.141447067260742, -0.946391761302948, -0.18388277292251587,
          0.7692728638648987, 1.0676571130752563, 0.5350433588027954,
          0.1944291740655899, 1.270092487335205, 0.31327006220817566,
          0.23761628568172455, 0.19017653167247772, 0.5715281367301941,
          2.309662342071533, -1.2728185653686523, -0.047196198254823685,
          -0.19810548424720764, 0.25180214643478394, 0.9500525593757629,
          -0.16439835727214813, -0.2636694610118866, 0.18356575071811676,
          0.08676357567310333, -0.5473066568374634, 0.7500824332237244,
          0.1650179624557495, 0.2988528907299042, 0.7794722318649292,
          0.5070782899856567, 0.48307621479034424, 0.7712082862854004,
          0.11477731913328171, 0.10367446392774582, -0.0650966539978981,
          1.4648616313934326, -1.233003854751587, 0.7361907362937927,
          1.3416858911514282, 1.5136795043945312, -0.06243172660470009,
          -0.3107124865055084, -0.8057472705841064, 0.7917284369468689,
          1.6500990390777588, 0.15053343772888184, -0.8889451622962952,
          -0.20655947923660278, -0.2231726497411728, 0.21349826455116272,
          -0.16421496868133545, -0.4133070409297943, 1.2298647165298462,
          -1.3277095556259155, -1.3213526010513306, -0.21927298605442047,
          1.596766471862793, 0.4764811396598816, 0.6699159741401672,
          -0.6752908229827881, -0.7727806568145752, -0.799740195274353,
          2.182840585708618, 0.8710845708847046, -0.3987114727497101,
          0.41366395354270935, -1.6677244901657104, 1.229870080947876,
          2.7320988178253174, -1.168532371520996, 0.6753702759742737,
          -0.3331920802593231, -0.5601089000701904, -0.674838662147522,
          -0.2554173767566681, 0.5223881602287292, 2.0921952724456787,
          1.7421499490737915, -0.034417081624269485, 0.5448620319366455,
          0.023782309144735336, -0.4505646824836731, -0.13407549262046814,
          -0.7992463111877441, -1.246595859527588, -0.20692579448223114,
          -0.9389054179191589, -1.0939621925354004, 0.4346328675746918,
          0.5812280178070068, 0.036876872181892395, -0.5659555196762085,
          -1.1784425973892212, 0.5456116199493408, -0.19635805487632751,
          0.911464273929596, 1.1106772422790527, -0.8169130086898804,
          -0.6986571550369263, 0.5993291735649109, 1.3853983879089355,
          1.1716073751449585, 0.027017878368496895, 1.0052745342254639,
          0.9471604228019714
        ]
      },
      "inputBias": {
        "rows": 20,
        "columns": 1,
        "weights": [
          -0.431147038936615, -0.2868436872959137, 0.2568797171115875,
          0.5175210237503052, -1.3080425262451172, 0.06848848611116409,
          0.4617861807346344, 0.4145978093147278, 0.3946286141872406,
          0.4214419424533844, -0.41326388716697693, 0.8505467772483826,
          0.022222250699996948, 0.873269259929657, -0.5179252028465271,
          0.7037808895111084, -0.5662251114845276, -0.41544052958488464,
          0.9215347170829773, 1.4792195558547974
        ]
      },
      "forgetMatrix": {
        "rows": 20,
        "columns": 32,
        "weights": [
          -0.41614869236946106, -0.34649378061294556, -0.3449821174144745,
          0.24668151140213013, -0.2750934064388275, -0.25974977016448975,
          -0.4681171476840973, 0.5076075792312622, 0.7256253361701965,
          0.45736899971961975, 0.24822461605072021, 0.6806585192680359,
          -0.5005136728286743, -0.7973944544792175, 0.005009650252759457,
          0.3364414870738983, -0.47481220960617065, 1.3422632217407227,
          0.4961834251880646, -0.08212734013795853, -0.19021084904670715,
          -0.08055727183818817, 0.321368545293808, 0.16395112872123718,
          0.02665562927722931, 0.857909083366394, -0.6099147796630859,
          0.4292581379413605, -0.6192681789398193, -0.45252782106399536,
          -0.0787384882569313, 0.05060747265815735, -2.4350509643554688,
          -1.4064570665359497, 0.8851404190063477, 1.2817105054855347,
          -1.2245228290557861, -0.8571787476539612, -0.9152244925498962,
          0.03316143527626991, -0.6858356595039368, -0.12805341184139252,
          0.5927531123161316, 1.417393684387207, 1.4766603708267212,
          -0.8911854028701782, -0.7792380452156067, -0.3759051561355591,
          0.4576994776725769, -1.351324439048767, -0.9303869009017944,
          -0.7026959657669067, 1.4629141092300415, -0.5839921832084656,
          -1.4926677942276, 0.2691703140735626, -0.9264002442359924,
          -0.3200801908969879, 2.2837350368499756, -0.11018974334001541,
          0.041290782392024994, 0.09070165455341339, -0.6685960292816162,
          1.3412001132965088, 0.9387632012367249, -0.1991930603981018,
          1.2859153747558594, 1.0174283981323242, -0.28067439794540405,
          1.2186939716339111, -1.25143563747406, -0.4355473220348358,
          -0.46163544058799744, 0.0304753165692091, 0.7696534395217896,
          -0.3961758315563202, 0.14694519340991974, 1.623224139213562,
          -1.033425211906433, 0.04961986467242241, 0.6907615661621094,
          0.7234486937522888, 0.3585136830806732, -0.4698247015476227,
          -0.7556140422821045, 1.46660578250885, 1.2840168476104736,
          0.20765399932861328, 1.350891351699829, -0.12651710212230682,
          -0.39896613359451294, -0.3506835401058197, -1.1955169439315796,
          0.4731665551662445, -0.9642276167869568, 0.25289690494537354,
          -3.076417922973633, -0.07546777278184891, -0.377750962972641,
          1.1610394716262817, -1.4337204694747925, 2.584246873855591,
          -0.9214831590652466, 0.7826987504959106, -0.5273873209953308,
          -0.6693710088729858, 1.0195380449295044, 1.8963407278060913,
          0.5255280137062073, -0.8875318765640259, -0.9359278678894043,
          -0.6401752233505249, -0.9617392420768738, -0.508730947971344,
          1.2842859029769897, -0.6011086702346802, 0.7600120306015015,
          -0.7077302932739258, -0.5366858243942261, -3.0432686805725098,
          2.8386101722717285, -0.6889183521270752, 0.6263389587402344,
          0.0017395050963386893, -0.8539184927940369, -0.817825198173523,
          -1.374664545059204, 1.563466191291809, 0.6319027543067932,
          -0.18122349679470062, -0.6604839563369751, -0.22919894754886627,
          1.3246315717697144, -0.6593225598335266, 0.9803992509841919,
          0.5954973697662354, -1.562015175819397, -1.5133460760116577,
          -0.20234458148479462, -0.8104479908943176, 0.5226031541824341,
          0.10572544485330582, -0.025303909555077553, -1.4691054821014404,
          -0.09807196259498596, 0.8432900905609131, -0.2624703645706177,
          0.049136050045490265, 0.6288484930992126, -0.23741990327835083,
          0.8788278102874756, -0.6977251172065735, -0.3772977888584137,
          1.0096395015716553, 0.21987639367580414, 1.1175358295440674,
          -2.152792453765869, -0.4996654689311981, 0.1415744572877884,
          -0.5467553734779358, -1.0842996835708618, -0.8007688522338867,
          0.024156201630830765, 2.0711469650268555, 1.0073567628860474,
          -0.6954792141914368, 1.4223517179489136, 0.4806678891181946,
          -0.9510153532028198, -1.6312899589538574, 1.075699806213379,
          2.164085865020752, 0.8343278169631958, -0.4953310489654541,
          -1.0625874996185303, -1.083108901977539, -0.3140954077243805,
          -1.0535647869110107, -0.24546638131141663, -1.2021777629852295,
          0.6837644577026367, -0.43004006147384644, -0.7484416961669922,
          0.07051817327737808, 0.3376101851463318, 0.0784110277891159,
          1.4118767976760864, -0.038705483078956604, -0.6816610097885132,
          -0.20632363855838776, -1.3232349157333374, 1.5011858940124512,
          -0.47924020886421204, -0.00197671283967793, -0.20447763800621033,
          0.5793725252151489, 0.6953687071800232, 0.649527370929718,
          -0.6226733326911926, -0.20283004641532898, -0.48953431844711304,
          -1.5225803852081299, 0.5397148132324219, 0.6302811503410339,
          2.0855023860931396, 0.17206400632858276, -1.1341356039047241,
          -0.8777728080749512, -0.14094099402427673, -0.8096792101860046,
          0.13029658794403076, -1.0949878692626953, 0.2382863163948059,
          -0.8744553923606873, -1.4960107803344727, -0.9947131276130676,
          0.22992637753486633, 0.6473261117935181, 2.0831387042999268,
          -0.0789581909775734, -1.3780996799468994, -0.0326901376247406,
          -0.9894832968711853, 1.4224342107772827, 0.9456030130386353,
          0.9023274779319763, -1.5971193313598633, 0.339841365814209,
          -0.7845608592033386, 0.09500537067651749, -0.6335722804069519,
          -0.3949279487133026, 0.6109496355056763, -0.8582749962806702,
          -0.1602276861667633, 0.7484117746353149, 1.281593918800354,
          0.4196705222129822, -0.8547750115394592, 0.21102172136306763,
          -0.8655733466148376, 0.9170279502868652, 1.6784168481826782,
          -0.08933332562446594, 0.4808501899242401, -0.4617716670036316,
          1.69650137424469, -0.7615470886230469, 1.3951411247253418,
          -0.37720435857772827, -0.7892599105834961, 0.9789820909500122,
          -0.40328770875930786, -0.7011838555335999, 0.05785053223371506,
          -0.3011360168457031, 0.3812045454978943, 0.656883180141449,
          -0.2242327779531479, 2.5899417400360107, -1.0147480964660645,
          2.338792562484741, -0.9354763627052307, 0.13730409741401672,
          0.8924981951713562, 0.8630177974700928, 0.6649749875068665,
          1.3057494163513184, -0.6864284873008728, 0.4144138991832733,
          -1.9434112310409546, 0.4655907154083252, 0.27181094884872437,
          0.979805052280426, 1.0863858461380005, -0.49876704812049866,
          -0.8390478491783142, -0.005778386257588863, 0.3695083260536194,
          -2.6773979663848877, 1.2996760606765747, -0.9280716180801392,
          -0.9530985951423645, 0.09615810960531235, 1.3788944482803345,
          0.26822003722190857, -1.0287344455718994, 0.31733205914497375,
          -1.1994683742523193, -0.1337655931711197, -0.7699471116065979,
          0.4121534824371338, -1.408969759941101, 1.2137269973754883,
          -1.0262707471847534, 0.7626274228096008, -0.02051459066569805,
          -0.7298099398612976, 0.9076035618782043, 1.0215274095535278,
          -0.017933225259184837, -1.733761191368103, -0.3423727750778198,
          0.31704527139663696, -1.0646470785140991, -1.0290861129760742,
          1.5175009965896606, -0.3868955671787262, 1.051781415939331,
          -0.6176804304122925, -1.057080626487732, 0.36110949516296387,
          1.0725358724594116, -0.9802013039588928, -0.788581907749176,
          0.20458467304706573, 0.22866378724575043, -0.39694860577583313,
          -0.6161943078041077, 0.7833407521247864, -0.29308652877807617,
          -0.44944944977760315, -0.7598757147789001, 0.34718507528305054,
          1.353521466255188, 0.2685146629810333, 0.8215144276618958,
          0.5821778178215027, -0.08308026194572449, -0.8867977857589722,
          0.36306682229042053, -0.7840669751167297, 0.4376380443572998,
          -0.4652625620365143, 0.6814950108528137, -0.0177652295678854,
          -0.3457641899585724, 0.35155758261680603, 0.9186179041862488,
          -0.22537334263324738, 0.8664436936378479, 0.06584158539772034,
          0.4201674461364746, -0.40633612871170044, 1.020822286605835,
          1.0385915040969849, -0.0065919687040150166, 1.2610232830047607,
          -0.6405989527702332, -1.233386754989624, -0.45682433247566223,
          -0.1375303864479065, -2.942197799682617, -1.5306779146194458,
          -1.1486252546310425, 1.2435821294784546, -1.123888373374939,
          2.5357460975646973, -1.752244472503662, 0.48835593461990356,
          0.32401642203330994, -0.6181732416152954, 2.033472776412964,
          0.12234891206026077, 0.6932768821716309, -1.1093335151672363,
          -0.7687073349952698, -0.3134284019470215, -0.6905506253242493,
          -0.22324123978614807, 0.4338904023170471, -1.0531747341156006,
          0.6078701615333557, 0.1949043869972229, -0.0808587521314621,
          -0.23943254351615906, 0.6492144465446472, -0.501960277557373,
          1.0885822772979736, -0.6411459445953369, -0.7063753604888916,
          -0.620405375957489, -2.32820200920105, 3.0823380947113037,
          1.5195262432098389, -0.2589492201805115, -0.44875800609588623,
          -0.17765115201473236, 0.7881654500961304, 0.13968420028686523,
          -0.05349650979042053, -1.063685655593872, 1.5197144746780396,
          1.5790187120437622, -0.6063447594642639, -1.2493362426757812,
          -0.24825802445411682, 0.7169936299324036, 0.0031449084635823965,
          1.3968191146850586, 1.1987149715423584, 1.499712347984314,
          0.8545036315917969, 0.1683751344680786, -1.8369415998458862,
          1.276792287826538, 1.7187244892120361, 0.7803431153297424,
          1.3717656135559082, -0.13183511793613434, -2.0426883697509766,
          -0.2811753451824188, 0.8863781094551086, 0.08889290690422058,
          1.0270529985427856, -1.3896539211273193, -0.25824475288391113,
          -1.2548940181732178, -0.9096683263778687, -0.1293773651123047,
          0.2529008388519287, 1.2232974767684937, -0.378018856048584,
          0.2015381008386612, -0.03046075813472271, -1.4945893287658691,
          0.9242541790008545, -0.6937177181243896, 1.467449426651001,
          0.013999138958752155, -0.21803538501262665, -1.1284828186035156,
          0.06912389397621155, 0.8229972124099731, 1.8472018241882324,
          -0.7633489966392517, 0.17354606091976166, -0.09221769124269485,
          -0.4613701403141022, -0.5173263549804688, 1.8005374670028687,
          0.2766789495944977, 0.3060283958911896, 0.5833556056022644,
          -1.5506953001022339, -0.7094343900680542, -0.4524684250354767,
          0.4728197157382965, -1.7508437633514404, -1.23991060256958,
          0.3671077489852905, 0.5734342932701111, -0.5957852005958557,
          0.15403629839420319, -0.9444809556007385, 0.2838701903820038,
          1.1868361234664917, 1.8864600658416748, -0.45412424206733704,
          1.407034993171692, -0.0352301262319088, 0.15440760552883148,
          0.31904134154319763, 2.2512190341949463, 0.1600334495306015,
          0.060040246695280075, -0.6328728795051575, 0.6194708347320557,
          0.24603016674518585, -0.1355491429567337, -0.7592794895172119,
          0.6847832202911377, 0.04940186068415642, -0.07645237445831299,
          -0.5195145010948181, -0.30103084444999695, 2.4086127281188965,
          0.4911045432090759, 0.391142874956131, 0.4976855218410492,
          1.112031102180481, 0.7764902114868164, -1.4120653867721558,
          1.5276607275009155, 1.9493857622146606, -1.0101739168167114,
          0.837853193283081, 0.2779847979545593, -1.2922064065933228,
          -1.7476603984832764, 0.5565404891967773, -0.5953161716461182,
          0.04011616110801697, 0.04822060093283653, -1.8937206268310547,
          -0.553918182849884, -0.5580278635025024, -0.6678000688552856,
          -0.16046743094921112, -0.816871166229248, 0.5362740159034729,
          -1.2728041410446167, -0.35554322600364685, -1.8474599123001099,
          -0.5430285334587097, 0.2703229784965515, 1.3965617418289185,
          1.2909921407699585, -2.2289340496063232, -2.942892074584961,
          -1.1432236433029175, 1.291485071182251, -0.4913336932659149,
          -0.8350318670272827, -0.7118264436721802, 0.2760567367076874,
          -0.7686225175857544, 0.890893816947937, -1.3119419813156128,
          2.0910229682922363, -0.846133828163147, -0.3630273938179016,
          0.6337763071060181, 0.28512075543403625, 1.5111926794052124,
          -0.9392313361167908, -0.19679000973701477, -0.5078907012939453,
          -0.8012458086013794, -0.17531530559062958, 1.7969841957092285,
          -0.6399816870689392, 0.12152941524982452, -0.9643730521202087,
          -0.1089753806591034, -0.2705637812614441, 2.0018234252929688,
          1.7108430862426758, -0.2794913649559021, 0.6101580858230591,
          -0.45977896451950073, -1.218119502067566, -1.0849238634109497,
          0.6736648082733154, 0.26661837100982666, -0.8357188701629639,
          -0.0654156357049942, 0.3796888291835785, 0.6070518493652344,
          -0.9971414804458618, -0.05070146173238754, -1.0814498662948608,
          -0.2712189853191376, 1.9449164867401123, 0.45566582679748535,
          0.5151144862174988, 0.8298881649971008, 1.1514726877212524,
          -0.9580076932907104, -0.6890195608139038, 0.3318875730037689,
          -0.507433295249939, -1.236351728439331, -1.310433268547058,
          1.6767629384994507, 0.4561486542224884, -0.10228685289621353,
          -1.2980972528457642, -0.4625360667705536, 1.004312515258789,
          2.0566701889038086, 1.4671988487243652, 0.3366590142250061,
          0.02481602132320404, -0.8553031086921692, 0.8422510027885437,
          -1.363189935684204, -0.2114848643541336, -0.012343492358922958,
          1.3099199533462524, -1.9032169580459595, 0.9054481983184814,
          -1.211695909500122, 0.2651004493236542, -0.289963036775589,
          -0.5659008026123047, 0.08209804445505142, 1.6173244714736938,
          0.6940300464630127, -0.8010452389717102, -0.3790495693683624,
          0.233063742518425, -0.09422126412391663, 0.3697672188282013,
          2.5505897998809814, 0.48062384128570557, 0.29335078597068787,
          0.004013675730675459, -0.9564294219017029, -0.21148845553398132,
          1.3976637125015259, -0.7098179459571838, -0.23892523348331451,
          0.07467463612556458, 0.11091376841068268, -0.15984895825386047,
          -0.003050802508369088, 0.856046736240387, -0.11035807430744171,
          -2.3372254371643066, -0.48458847403526306, 1.1348932981491089,
          -0.8923351168632507, 1.1288260221481323, -1.4993926286697388,
          -1.4719727039337158, 0.2990787625312805, 0.5194666385650635,
          1.7491395473480225, 0.5316116809844971, 0.050336457788944244,
          0.20065335929393768, -1.723233699798584, -0.43693098425865173,
          -0.6071184277534485, -0.8228802680969238, 0.32045885920524597,
          -1.8137376308441162, 0.28965887427330017, 1.4829208850860596,
          0.4402622580528259, -1.6848341226577759, 0.56972336769104,
          -0.4763292968273163, 1.5487473011016846, 0.47994735836982727,
          -0.4583773612976074, -0.011581643484532833, -1.5058391094207764,
          1.3235849142074585
        ]
      },
      "forgetHidden": {
        "rows": 20,
        "columns": 20,
        "weights": [
          -1.8803077936172485, 0.6536852717399597, 0.5610356330871582,
          -0.9851564764976501, 2.1520586013793945, -0.4379706084728241,
          -0.8737052083015442, 0.18004049360752106, -0.5334035754203796,
          1.3364390134811401, 1.0718311071395874, 0.9639625549316406,
          0.8259440660476685, -0.4282352924346924, 0.3137827515602112,
          0.6474208235740662, 1.2315292358398438, 1.5575515031814575,
          -1.1105530261993408, 0.05390722304582596, -0.1987438201904297,
          0.08228230476379395, -0.5612666010856628, 0.2990279197692871,
          -1.3426618576049805, -1.059607744216919, 0.9448480606079102,
          1.6452431678771973, -0.3738793432712555, 0.6657116413116455,
          -1.8595452308654785, 0.5845075845718384, 0.0589071586728096,
          1.5265856981277466, 0.6764392256736755, 0.604241132736206,
          -0.15403759479522705, -0.677393913269043, 0.5578457117080688,
          1.8120893239974976, 0.4104030728340149, 0.2539745569229126,
          1.4291596412658691, -0.33213770389556885, 1.8768874406814575,
          -0.02595883049070835, 0.35335078835487366, -0.032562896609306335,
          -1.0042611360549927, 0.16377805173397064, -0.5317701697349548,
          -0.1549045443534851, -1.2603223323822021, 0.11464931815862656,
          0.9391350746154785, 0.1938437670469284, -0.33266565203666687,
          -0.7308260202407837, 0.057920247316360474, 0.8146033883094788,
          -0.4150797426700592, -0.5359812378883362, -0.10728612542152405,
          -0.2768663167953491, -0.12378893047571182, -0.7826496958732605,
          0.010897736996412277, -2.0425734519958496, -1.1931567192077637,
          -0.632615864276886, -0.313393235206604, -0.5547099709510803,
          0.203288272023201, -0.23396746814250946, -0.34091874957084656,
          1.7107083797454834, 0.3552790880203247, 1.6129894256591797,
          -1.659960150718689, -0.7106154561042786, 1.2943305969238281,
          -0.24553512036800385, 0.2848435044288635, -1.3561475276947021,
          -0.22147181630134583, -0.05440657213330269, 0.24585114419460297,
          1.309536337852478, 0.9986394643783569, 0.16109414398670197,
          -0.34603485465049744, 0.2272486686706543, -1.179071307182312,
          1.159895896911621, 1.0481305122375488, -0.8348268866539001,
          -0.8519880771636963, -0.6901127099990845, 1.136559009552002,
          0.9018115401268005, 0.6507635712623596, 0.12133247405290604,
          1.2301090955734253, -1.1812310218811035, 0.7845961451530457,
          0.6428133845329285, -0.07813217490911484, -0.8377326130867004,
          0.48492175340652466, -0.9869194626808167, 1.3744837045669556,
          -0.02761436440050602, -0.7994523048400879, 0.3889666795730591,
          -0.3011167347431183, -0.37961459159851074, -0.5528053641319275,
          0.2589862048625946, 2.115556240081787, 1.072644591331482,
          0.10788775980472565, -0.9655067920684814, 0.9603956937789917,
          -0.22747932374477386, 0.6612650752067566, -0.05653277784585953,
          -0.5394781231880188, 0.06637369096279144, 0.013738990761339664,
          0.5131849050521851, 0.18036042153835297, -0.3249928653240204,
          -0.2532206177711487, 0.5306209921836853, 0.46809905767440796,
          0.3112311363220215, -0.30748555064201355, -0.5163037776947021,
          1.2722975015640259, 0.6499420404434204, -0.7065114378929138,
          -1.5079224109649658, 2.491912364959717, -0.28174081444740295,
          0.42022258043289185, 1.2266416549682617, 0.7844993472099304,
          -0.23999685049057007, -0.42410099506378174, -0.23059137165546417,
          0.22425837814807892, 0.6199169158935547, -0.04004983603954315,
          -0.5334997773170471, -0.29939502477645874, 0.9101157188415527,
          -0.8938074111938477, 1.3158230781555176, 0.01100196037441492,
          -0.8226388096809387, 0.235511913895607, 1.544243335723877,
          -0.09574628621339798, -0.8924661874771118, 0.5125367045402527,
          3.1884453296661377, 3.989384412765503, 0.5242806077003479,
          -1.2256410121917725, 0.17015612125396729, -0.09618031233549118,
          -1.805101990699768, -0.5704625248908997, -1.0324450731277466,
          -1.6707335710525513, -2.045572280883789, -0.6147067546844482,
          -1.6429954767227173, -1.0207819938659668, -1.072840929031372,
          -0.3649868071079254, -0.6582622528076172, -2.6775217056274414,
          0.5807647705078125, -0.018520846962928772, 1.0656747817993164,
          0.15602698922157288, -1.0345379114151, -1.7486001253128052,
          0.6769789457321167, -1.3862881660461426, -0.026481911540031433,
          0.7173334956169128, -2.2738847732543945, -0.19384939968585968,
          -1.4590197801589966, 1.1286191940307617, -1.2397277355194092,
          -2.1964964866638184, -0.43256622552871704, -1.033725380897522,
          1.359922170639038, 0.5230245590209961, -1.1246085166931152,
          -0.8941975235939026, -0.23239794373512268, -0.8843675851821899,
          1.6032238006591797, 0.8926085233688354, 1.6426045894622803,
          0.7732706665992737, 0.5814833045005798, -1.6081491708755493,
          1.733446478843689, 1.8846354484558105, -1.3396837711334229,
          1.1898443698883057, 0.5672779679298401, 1.3187147378921509,
          2.6234841346740723, -0.22062398493289948, -0.21233101189136505,
          0.7132956981658936, 0.9367861151695251, -0.4035281240940094,
          -0.2827851474285126, -0.7665499448776245, -0.7101266980171204,
          0.38187360763549805, -1.1610784530639648, 0.6157957315444946,
          -0.2605699598789215, 0.9394540786743164, 0.44883260130882263,
          0.5870475172996521, -0.1528392881155014, 0.12753036618232727,
          -0.3127813935279846, -0.31988492608070374, 0.1486322283744812,
          -0.8073506951332092, -0.7329855561256409, -0.17633254826068878,
          -1.0096194744110107, 1.484874963760376, 0.5400641560554504,
          0.12932609021663666, 0.2146003246307373, 0.3882112205028534,
          0.500825047492981, -0.7523325681686401, 1.6954315900802612,
          0.6549897789955139, 0.9419748783111572, 0.18229052424430847,
          0.7142953276634216, 0.5184548497200012, -0.3879736363887787,
          -0.26889005303382874, 1.0990339517593384, 0.8625246286392212,
          -0.12301906943321228, -1.1423107385635376, 1.1024090051651,
          0.6214181184768677, 0.8934940695762634, 1.6341804265975952,
          -0.8112390041351318, -0.015353298746049404, 0.29126355051994324,
          -1.4629497528076172, -0.672486424446106, -1.073627233505249,
          -0.06381520628929138, -0.45729485154151917, -0.45719045400619507,
          -1.322048544883728, -0.07018087804317474, -1.1750433444976807,
          -0.34472915530204773, -1.5353273153305054, -0.6493611931800842,
          -2.324368715286255, -1.3388454914093018, 0.13419806957244873,
          -0.2841854393482208, -1.305565357208252, -1.7166086435317993,
          -0.9920760989189148, -0.05263421684503555, 0.6842162013053894,
          -1.1491225957870483, -1.120652675628662, -1.3342273235321045,
          -0.7705244421958923, 1.1291807889938354, 0.3589516878128052,
          0.040742650628089905, -0.8105775713920593, 0.6499300599098206,
          0.31075742840766907, 0.9289970993995667, -0.1729416698217392,
          -0.2533618211746216, 1.2794454097747803, -0.39558926224708557,
          -0.3941848874092102, -1.00087571144104, -0.6212688088417053,
          0.7401522994041443, 1.4751510620117188, -0.17500287294387817,
          1.329982042312622, 0.20917658507823944, -0.9414989948272705,
          -0.10984716564416885, -0.6317744255065918, 1.3320393562316895,
          -0.33025941252708435, 0.7313283085823059, -0.08664793521165848,
          -0.4200896620750427, -0.16683435440063477, -1.122928500175476,
          -0.43377992510795593, -0.49152907729148865, -0.3190055787563324,
          1.0195229053497314, -1.4347624778747559, -1.0315980911254883,
          1.2104508876800537, -0.17412427067756653, 0.18471117317676544,
          0.5249596834182739, -0.2310553938150406, 1.2431669235229492,
          0.600110650062561, 0.6949423551559448, 0.40595743060112,
          1.4406756162643433, -0.8282694220542908, 1.0246754884719849,
          0.718486487865448, 0.28846925497055054, -0.548845648765564,
          -0.4768255054950714, -0.8393610119819641, 1.2801016569137573,
          0.03697638586163521, -1.521478533744812, -0.035988397896289825,
          0.399204283952713, 0.2595813274383545, 1.281450867652893,
          0.7395063638687134, 1.3966342210769653, 0.7567405700683594,
          -0.06065131351351738, 0.7426770925521851, 0.9562183618545532,
          -0.9580370187759399, -0.929287850856781, -0.8577558994293213,
          -0.8749896287918091, 0.7950029373168945, -0.48055973649024963,
          -0.5756122469902039, 0.28194954991340637, -0.9016411304473877,
          1.5670732259750366, -0.02873872220516205, 0.07303987443447113,
          1.3665639162063599, -2.429211139678955, -0.6841854453086853,
          -0.11266136914491653, 0.2672653794288635, 0.7570138573646545,
          -1.752785325050354, 0.3629622459411621, 0.23554469645023346,
          1.16465163230896, -0.4206944406032562, 1.3887473344802856,
          0.4576279819011688, 0.2943894565105438, -0.5506548881530762,
          -0.902388870716095, -0.2692474126815796, -0.956192672252655,
          -0.9096663594245911, 1.0521323680877686, -1.0968594551086426,
          0.43258005380630493, 0.4615129232406616, -0.29924315214157104,
          0.5221976041793823, 0.9317506551742554, 0.17615170776844025,
          -0.03939603641629219
        ]
      },
      "forgetBias": {
        "rows": 20,
        "columns": 1,
        "weights": [0, 0, 0, 0, 0, 0, 0, 0, 0, 0, 0, 0, 0, 0, 0, 0, 0, 0, 0, 0]
      },
      "outputMatrix": {
        "rows": 20,
        "columns": 32,
        "weights": [
          0.0891488566994667, -0.5768351554870605, -2.9465866088867188,
          -0.08515775203704834, 1.0614056587219238, -0.05881763994693756,
          0.37942078709602356, 0.6512539386749268, 0.20269998908042908,
          -0.6495693325996399, -0.11357179284095764, -0.6171648502349854,
          -1.8936318159103394, -1.2285233736038208, 0.5248691439628601,
          0.4566383361816406, -1.7207010984420776, 1.0148227214813232,
          -0.6092988848686218, 0.3610416352748871, 1.399992823600769,
          -0.5558951497077942, 0.1777404099702835, 0.3558485507965088,
          -0.5052286386489868, 1.1505610942840576, -0.8146153688430786,
          1.7430781126022339, -1.1526658535003662, -0.9470688104629517,
          0.712343692779541, -0.7697910666465759, 0.059855397790670395,
          -0.9006378054618835, 0.5616109371185303, 0.5445259809494019,
          -1.3527085781097412, 1.726120114326477, -1.4839898347854614,
          0.7418721318244934, -0.3636024296283722, -0.36028099060058594,
          0.6506208777427673, -0.19498702883720398, -0.9552048444747925,
          -0.5339864492416382, -1.0456596612930298, 0.03992012143135071,
          0.6854262351989746, 0.4261537790298462, -0.6426209807395935,
          0.5543907284736633, -1.1333259344100952, -0.03990115970373154,
          -0.6132883429527283, -0.015546457841992378, -0.14457066357135773,
          -0.047715429216623306, -0.29880914092063904, -1.4208202362060547,
          -0.41782835125923157, -0.06073278188705444, 0.2892444431781769,
          -0.7597290277481079, -1.4730509519577026, -1.4647009372711182,
          1.0378751754760742, 0.7497448325157166, 0.39632952213287354,
          0.7125654816627502, -0.2870303690433502, 0.7430124878883362,
          -0.9773046970367432, -0.6384119987487793, 1.0233882665634155,
          0.3780905306339264, 0.5275189280509949, -0.4190622866153717,
          -0.41841235756874084, -1.3805826902389526, 0.3257138431072235,
          -0.9263003468513489, -0.5199123024940491, -0.9337044954299927,
          1.033460021018982, 0.1431528478860855, -2.063591480255127,
          -0.7324442863464355, -0.2969963550567627, -0.08215953409671783,
          1.9846985340118408, 0.09027619659900665, -0.6625028252601624,
          0.3868643641471863, -0.993131160736084, 0.9979255199432373,
          -2.481153964996338, -2.007584810256958, -0.5947903990745544,
          1.0648657083511353, -0.5641058683395386, 1.6733132600784302,
          -0.7931807637214661, -0.5141390562057495, 1.2333027124404907,
          1.3549331426620483, 0.6465838551521301, 1.8531779050827026,
          0.08370571583509445, 0.11689137667417526, -0.10669589787721634,
          1.1644792556762695, -0.8177933692932129, 0.41757139563560486,
          1.2921229600906372, -0.36820968985557556, 0.06462223082780838,
          0.22820571064949036, 0.7160645723342896, -0.7997235655784607,
          1.5789985656738281, -1.154432773590088, 0.48561686277389526,
          0.4415954053401947, 1.189620018005371, -0.03433522954583168,
          -0.5888112783432007, 1.86493980884552, -0.9042518138885498,
          -1.384564995765686, -0.8856260180473328, 0.9504940509796143,
          -0.5482555031776428, 1.6932560205459595, -1.3230534791946411,
          -0.41519567370414734, 0.14597739279270172, 0.3139553666114807,
          1.3629692792892456, 1.4497534036636353, 1.7207787036895752,
          -1.0160739421844482, -1.461046576499939, -0.10500621795654297,
          -0.5280094742774963, 0.6979670524597168, 1.204276204109192,
          -1.439839482307434, 0.5499874949455261, 0.6749907732009888,
          0.1884911060333252, -2.426114320755005, 1.760034441947937,
          0.31516242027282715, 1.4891242980957031, 1.6964346170425415,
          0.34357336163520813, -1.3162230253219604, -1.0940024852752686,
          0.10135047137737274, 0.6989114880561829, 0.3864186704158783,
          -1.0236872434616089, -1.298071026802063, 0.5589511394500732,
          -0.33425748348236084, 0.4427720010280609, 1.1053905487060547,
          -1.775448203086853, -0.9305216073989868, -1.2495512962341309,
          -0.2200593501329422, 1.0089749097824097, -0.45579835772514343,
          0.3942771553993225, -1.6278529167175293, -0.29733264446258545,
          -0.1105872318148613, 1.637133240699768, 0.7811535000801086,
          0.6555432677268982, -0.9780920147895813, -1.0288262367248535,
          -0.17127564549446106, 1.2764196395874023, 1.8404868841171265,
          0.03112865425646305, 1.1659505367279053, -1.6203179359436035,
          -1.4548543691635132, 0.8105502724647522, -0.9213706851005554,
          -0.16709238290786743, -0.42066895961761475, -1.4418926239013672,
          -0.47550326585769653, 0.38519012928009033, -0.8637543320655823,
          -0.08859340101480484, 0.4165268838405609, -0.8269246220588684,
          -0.6413402557373047, 0.3250948190689087, 0.17164407670497894,
          1.3704344034194946, -0.37115105986595154, 0.3710012435913086,
          -0.6125457286834717, -1.4394980669021606, 0.11363327503204346,
          0.7887031435966492, 0.4585024118423462, 1.8423283100128174,
          -1.368664026260376, -0.7573161721229553, -0.5142644047737122,
          1.2857838869094849, 0.17381496727466583, 0.0868566483259201,
          0.8139111995697021, -1.0955322980880737, -1.2210298776626587,
          0.8872113227844238, -0.5054950714111328, 0.445507675409317,
          -0.9141197800636292, -0.3864388167858124, -1.1530377864837646,
          0.6606351733207703, 1.0823590755462646, 0.12753412127494812,
          0.3542512357234955, 0.5382635593414307, 0.27135297656059265,
          0.8353766202926636, -0.21140898764133453, 1.2734217643737793,
          0.34969964623451233, 0.27324411273002625, 0.0059511857107281685,
          -0.2056579440832138, -0.544262707233429, 0.8462895750999451,
          -0.44452589750289917, 0.021988097578287125, -0.054494716227054596,
          -0.43421539664268494, -0.34819573163986206, 1.2956037521362305,
          1.075596809387207, -0.10300444066524506, 0.17436686158180237,
          0.637732744216919, -0.4221133589744568, -0.6562486290931702,
          0.4085851013660431, 0.8611562848091125, 1.5655345916748047,
          -0.0385129377245903, 0.41449856758117676, -0.027540244162082672,
          -1.5475542545318604, -0.09460890293121338, 0.6093376874923706,
          0.16347737610340118, -0.2927095890045166, -1.1754130125045776,
          -0.15037734806537628, 0.6013628244400024, -0.7193009853363037,
          0.2131410539150238, 0.3234417736530304, -0.4279087483882904,
          0.13710375130176544, -0.6371310353279114, 0.32885149121284485,
          0.9389849901199341, -0.7847317457199097, 1.4364880323410034,
          -0.025580473244190216, -0.2554638385772705, -0.8110618591308594,
          -1.8823065757751465, 0.34975916147232056, 1.1191493272781372,
          -1.052746295928955, 1.087552785873413, -1.341576337814331,
          0.399526447057724, 0.9169009327888489, 0.4266524612903595,
          -0.3611902594566345, -1.7338751554489136, 0.9006878733634949,
          -0.6547162532806396, 0.7839839458465576, -0.5093005299568176,
          -0.6318857073783875, 0.3471554219722748, 0.3243968188762665,
          0.4931957423686981, -0.3115202486515045, 0.19353468716144562,
          -0.3878021240234375, -0.08150898665189743, -0.9157074093818665,
          1.211172342300415, 0.5317611694335938, -0.26375651359558105,
          -0.5684511065483093, -0.47969865798950195, 0.15951131284236908,
          0.6225880980491638, 0.0752018466591835, -0.6633011102676392,
          -0.32462596893310547, 0.8120285868644714, -0.0296900924295187,
          0.09087937325239182, -0.6533953547477722, -0.5391507744789124,
          -0.24664463102817535, -0.16894158720970154, 0.6936999559402466,
          -0.2627458870410919, 3.2852838039398193, -0.12331520020961761,
          -0.44344985485076904, 0.6401371955871582, 0.8819107413291931,
          0.8808504343032837, 0.3563154935836792, -1.0705621242523193,
          0.3188238739967346, -1.0183559656143188, 0.22621355950832367,
          -0.27659016847610474, -0.644551694393158, -0.3066447973251343,
          -0.4163283407688141, -1.886466383934021, 0.7774314284324646,
          -1.0769602060317993, -2.277045488357544, 0.3448742926120758,
          0.009739345870912075, -0.37623873353004456, -0.6641706228256226,
          0.8305453658103943, 0.4225893020629883, -0.19339311122894287,
          -0.11277588456869125, -0.23497723042964935, -0.146317258477211,
          -1.9231159687042236, 0.15403158962726593, 0.7483046054840088,
          -0.0781840905547142, 0.3167974352836609, -0.6618068218231201,
          -0.026997007429599762, -0.2975761592388153, 0.5669274926185608,
          0.18043240904808044, 1.1187443733215332, -0.6627029776573181,
          -0.08581273257732391, -0.11427642405033112, -1.5766366720199585,
          -0.5740146636962891, 0.4459252655506134, -0.6740822792053223,
          1.195991039276123, -0.3752623498439789, -0.1114971786737442,
          0.18296268582344055, 0.17845961451530457, -0.6604284644126892,
          0.41034987568855286, 1.321805715560913, -0.629700243473053,
          -1.0871413946151733, -0.7117113471031189, 0.45436620712280273,
          -0.21191388368606567, 1.0402179956436157, 0.7372461557388306,
          -0.8237825036048889, 0.46005508303642273, -0.9355431795120239,
          0.7493208050727844, 0.3049742877483368, 0.12219879031181335,
          0.5656772255897522, -0.8528164625167847, -0.6209063529968262,
          -1.0099691152572632, -0.16726566851139069, 1.4005945920944214,
          -0.26288196444511414, 0.9957612156867981, 1.7566388845443726,
          -1.137942910194397, 0.2518530786037445, 0.39871546626091003,
          -0.19180361926555634, 1.8318005800247192, 1.8675029277801514,
          -0.8808900713920593, 0.2846684157848358, -0.739748477935791,
          -1.103129267692566, 0.6783599257469177, 0.0024567043874412775,
          0.45252054929733276, -1.3232581615447998, -0.35910454392433167,
          0.33809202909469604, 0.8152643442153931, -0.25637757778167725,
          -0.8051011562347412, 1.0909597873687744, -0.2756345570087433,
          -0.1431684046983719, 0.6745052933692932, -0.029833801090717316,
          1.6745266914367676, -1.064649224281311, 0.6351907849311829,
          -0.5384799838066101, -0.24550455808639526, 0.1259257197380066,
          0.35506489872932434, -1.8908851146697998, 0.17855775356292725,
          -0.502293050289154, -0.3876705467700958, -0.7661363482475281,
          -0.8577728867530823, 1.0501139163970947, -0.4822809398174286,
          -2.104900598526001, 0.425927996635437, -1.5116807222366333,
          0.2462567389011383, 0.8728246092796326, -0.923041582107544,
          0.7991104125976562, -1.5538986921310425, -1.544750452041626,
          1.228460431098938, 0.9704047441482544, -0.988831102848053,
          -2.234989881515503, 0.11383643746376038, 0.07844876497983932,
          -0.7761070728302002, 0.32598742842674255, 0.28223246335983276,
          1.5468143224716187, 0.9364919066429138, -0.45421117544174194,
          -0.002912398660555482, -0.028862500563263893, -0.4687410593032837,
          -0.73367840051651, -0.4201292097568512, -0.5477660894393921,
          1.000227928161621, -0.11162938177585602, -1.2609816789627075,
          0.1456206738948822, -0.3501129746437073, 0.5569370985031128,
          0.8155907392501831, 1.4183030128479004, 0.28097426891326904,
          -0.7050983905792236, -0.18936218321323395, 0.4456309378147125,
          0.7554663419723511, 0.40713778138160706, -2.5885982513427734,
          -0.7847520709037781, 0.4622165858745575, 1.107285737991333,
          0.8097216486930847, 1.3693928718566895, -0.40582001209259033,
          -0.6310258507728577, -0.8887553811073303, -0.8063312768936157,
          -1.1168442964553833, -1.0695534944534302, 0.7553892731666565,
          0.2269655019044876, -1.8931275606155396, 0.7277629971504211,
          -0.5938580632209778, 0.6869649887084961, 1.5404917001724243,
          -1.2420519590377808, -0.29137352108955383, -0.07584428042173386,
          -0.33448195457458496, 1.0038385391235352, -0.47976985573768616,
          1.4227213859558105, -0.37347158789634705, -1.27204430103302,
          1.057208776473999, -1.0180388689041138, 3.035137891769409,
          1.899998664855957, 0.10317358374595642, -0.9399347305297852,
          0.5165220499038696, -0.6078809499740601, 0.42016682028770447,
          -0.0985870212316513, -1.5114046335220337, -1.4850958585739136,
          -1.186346411705017, -2.351356267929077, -1.412213921546936,
          0.6140698194503784, 0.5674992799758911, -0.964837908744812,
          0.8440678715705872, 0.5414918065071106, -1.030138611793518,
          1.4600145816802979, -0.9101104140281677, -0.32696089148521423,
          -0.1312255561351776, 0.4843100309371948, -1.1453388929367065,
          0.1705467849969864, -0.5657534003257751, 0.31908613443374634,
          -1.5006449222564697, 0.44461995363235474, 1.3669590950012207,
          -1.9443089962005615, -1.1597617864608765, -1.1734720468521118,
          -0.7731159925460815, 0.2713189125061035, 0.6828214526176453,
          0.911963164806366, 0.39563634991645813, -0.13141076266765594,
          1.0622460842132568, 0.22821393609046936, 1.3389596939086914,
          -0.35602453351020813, 1.2048593759536743, -0.6243171691894531,
          -0.5181339383125305, -0.09713973104953766, -0.2907378375530243,
          -0.21839769184589386, 0.38850393891334534, -1.3351014852523804,
          0.4130059480667114, 0.24458767473697662, 0.07359637320041656,
          -1.3523696660995483, 1.001360535621643, 0.474566251039505,
          1.0667115449905396, 0.7847346663475037, 0.40566152334213257,
          -0.8797121047973633, -1.4414438009262085, 1.7929871082305908,
          -0.6937627196311951, -0.4240982234477997, -0.2860194444656372,
          1.1247587203979492, -0.08171242475509644, 2.003218412399292,
          -0.30469316244125366, 0.872281551361084, 0.3032473027706146,
          -0.40262651443481445, 1.4873096942901611, 0.1518804132938385,
          0.22902198135852814, -1.2107499837875366, -0.9191113710403442,
          -0.14712269604206085, -1.1606779098510742, -0.7798081040382385,
          0.7909576892852783, -1.3651167154312134, 0.2494429498910904,
          -0.9418501853942871, -0.4844639003276825, -1.9232670068740845,
          0.5679242014884949, -0.8136666417121887, 1.1729995012283325,
          0.3909532427787781, 0.022968577221035957, -0.05586014688014984,
          -1.326582908630371, 1.1013386249542236, -0.3773205280303955,
          -0.2072649598121643, 0.24264296889305115, 0.9116464853286743,
          -2.3831894397735596, 1.2123337984085083, -1.3154184818267822,
          0.18750496208667755, -0.339641273021698, -0.9025869965553284,
          1.4654548168182373, 0.46755391359329224, 1.0253602266311646,
          -1.3157649040222168, -0.8129342198371887, -0.3948185443878174,
          -0.653486430644989, -1.1655081510543823, 1.1185038089752197,
          -0.6998352408409119, -0.04344309866428375, -0.45761579275131226,
          -1.1180514097213745, -0.3650893270969391, 0.5608542561531067,
          -1.2655426263809204, 0.7805153727531433, 0.05578530579805374,
          -0.7784982919692993, 0.4232873022556305, -0.802723228931427,
          0.641817569732666
        ]
      },
      "outputHidden": {
        "rows": 20,
        "columns": 20,
        "weights": [
          0.8456899523735046, -0.6228148937225342, -0.08428782969713211,
          0.8574333190917969, 1.202824354171753, 0.51729816198349,
          0.16846773028373718, -1.4269976615905762, 0.4483483135700226,
          -0.6781198382377625, -0.4136475920677185, -0.6861109733581543,
          0.27727723121643066, -0.12763966619968414, -1.2039235830307007,
          -0.8233529925346375, -0.2907869517803192, -0.5173622965812683,
          -1.4939870834350586, 0.6903520822525024, -0.2821272015571594,
          -1.5849393606185913, 0.5114084482192993, 0.7313036322593689,
          4.116545677185059, -0.3212481141090393, -0.49681076407432556,
          -2.654042959213257, 0.17084912955760956, 3.4512064456939697,
          -1.2505303621292114, 2.9083428382873535, -1.523478627204895,
          -0.5109788179397583, -0.29202476143836975, 0.9784923195838928,
          0.5297312140464783, -0.013705749996006489, -0.7260494828224182,
          0.04311109706759453, 0.08332708477973938, 0.542622983455658,
          0.31480637192726135, -0.2696376144886017, 0.7860814332962036,
          -0.8308729529380798, -0.5488024353981018, 0.18355286121368408,
          -0.7205128073692322, 2.169126510620117, -0.39978212118148804,
          -0.3752709925174713, -0.117002472281456, 0.7020149827003479,
          1.3433235883712769, -0.748826265335083, 0.33985379338264465,
          0.05360342189669609, 0.15013718605041504, 0.9582698345184326,
          -0.06985549628734589, -1.0146734714508057, -1.14420747756958,
          -0.429702490568161, -0.27818578481674194, 0.4613760709762573,
          -0.9609230756759644, -0.5334904789924622, -1.8453713655471802,
          -1.185347318649292, 1.4869149923324585, -1.0416868925094604,
          -0.39242780208587646, 0.567304253578186, -1.0139856338500977,
          0.03382452204823494, 0.1809847354888916, -0.674538791179657,
          -0.2933858633041382, 0.7211613655090332, -0.0713975578546524,
          -0.8244837522506714, -0.5586873292922974, -1.2609736919403076,
          0.8676757216453552, -0.6549583673477173, -0.7210657000541687,
          -0.07613769173622131, -0.3279446065425873, -1.2579927444458008,
          0.6195337176322937, 1.095327615737915, -0.5096043348312378,
          0.39217403531074524, -0.6243882179260254, 0.9078242778778076,
          -0.21893523633480072, -0.04467901587486267, -0.7903761267662048,
          0.32268327474594116, -0.0702514722943306, -0.1752902716398239,
          -0.5153887271881104, -0.8291051983833313, -0.9371297955513,
          0.5207444429397583, 0.5095055103302002, 0.7047085165977478,
          -0.027031419798731804, 0.12383966147899628, -1.0177161693572998,
          0.2810904085636139, 1.9406650066375732, 0.10905727744102478,
          0.9350509643554688, -0.4638015329837799, 1.09743332862854,
          -0.6781320571899414, 0.42122969031333923, -0.41475290060043335,
          0.20778068900108337, 1.218863606452942, -0.9710399508476257,
          0.2270955741405487, -1.0793440341949463, 0.01587330363690853,
          1.1690897941589355, 1.8921654224395752, -0.3110519349575043,
          -0.05837118625640869, -1.029048204421997, -0.3518005907535553,
          2.0951507091522217, 0.7785152196884155, 1.147586703300476,
          -0.27254223823547363, 1.3177533149719238, -2.592120885848999,
          1.513771653175354, -1.1100910902023315, 2.7398123741149902,
          0.42669540643692017, -2.1742193698883057, -1.8187214136123657,
          -1.9322971105575562, 2.807605504989624, 2.2204411029815674,
          0.8972795009613037, -0.38875430822372437, -0.9663580656051636,
          -1.128688931465149, -2.926715850830078, 0.31687459349632263,
          -0.5111165046691895, 1.4030380249023438, -3.391706943511963,
          -1.4904431104660034, -2.2927701473236084, 0.9740492105484009,
          -0.19257529079914093, -0.1428510844707489, 0.5608653426170349,
          1.2809656858444214, 0.08161981403827667, 0.426969975233078,
          0.6020293831825256, 0.20176681876182556, -0.7007620930671692,
          -1.9012397527694702, -1.2670328617095947, 1.5718271732330322,
          0.9660589694976807, 1.4779362678527832, -1.361807942390442,
          0.9014338254928589, -1.0928043127059937, 0.6677403450012207,
          -0.07582039386034012, -0.9472014307975769, -3.2246510982513428,
          2.5469436645507812, -1.840457558631897, -1.073810338973999,
          1.6037075519561768, -0.33281081914901733, 2.2239482402801514,
          2.0900261402130127, -1.7368227243423462, -1.5387030839920044,
          0.31885015964508057, 0.8845759630203247, -0.10052309930324554,
          -0.6642217040061951, -0.8462100028991699, 0.22398853302001953,
          -1.5596544742584229, -1.9777731895446777, -2.171557903289795,
          -0.09722062200307846, -1.3314121961593628, 0.4029610753059387,
          0.47532933950424194, 0.3793182671070099, -2.0205633640289307,
          -0.8848322629928589, 0.23562349379062653, 0.07211194932460785,
          1.1129192113876343, 0.6790459156036377, -0.17870286107063293,
          0.05950610339641571, -1.6402419805526733, -0.5195572972297668,
          0.7739985585212708, -1.5632855892181396, 0.42421671748161316,
          -0.26814526319503784, -0.61478191614151, 0.9043884873390198,
          2.0109076499938965, -1.9551552534103394, 0.0034525671508163214,
          1.2132307291030884, -0.5828365087509155, -0.27469396591186523,
          -0.8948197364807129, -0.4267003536224365, 2.4049036502838135,
          1.0673162937164307, -0.6852875351905823, 0.3355735242366791,
          0.6607542037963867, 1.496556043624878, 1.7398815155029297,
          1.8923158645629883, 0.8679822087287903, -0.41662901639938354,
          0.33388128876686096, 1.8972241878509521, -0.3605020344257355,
          -0.34273767471313477, -0.17154641449451447, 0.8753557205200195,
          -1.105828881263733, 0.7479592561721802, 0.13589376211166382,
          0.24099092185497284, 0.8247759938240051, -1.2203717231750488,
          0.17003247141838074, -1.5579310655593872, -0.021831724792718887,
          1.4091566801071167, 1.358620524406433, 0.060831718146800995,
